<?xml version="1.0"?>
<opencv_storage>
<data type_id="opencv-haar-classifier">
  <size>
    24 24</size>
  <stages>
    <_>
      <!-- stage 0 -->
      <trees>
        <_>
          <!-- tree 0 -->
          <_>
            <!-- root node -->
            <feature>
              <rects>
                <_>
                  7 7 15 12 -1.</_>
                <_>
                  7 13 15 6 2.</_></rects>
              <tilted>0</tilted></feature>
            <threshold>-0.0240237396210432</threshold>
            <left_node>1</left_node>
            <right_node>3</right_node></_>
          <_>
            <!-- node 1 -->
            <feature>
              <rects>
                <_>
                  0 19 24 5 -1.</_>
                <_>
                  8 19 8 5 3.</_></rects>
              <tilted>0</tilted></feature>
            <threshold>-2.0585510355886072e-004</threshold>
            <left_node>2</left_node>
            <right_node>6</right_node></_>
          <_>
            <!-- node 2 -->
            <feature>
              <rects>
                <_>
                  7 22 6 2 -1.</_>
                <_>
                  9 22 2 2 3.</_></rects>
              <tilted>0</tilted></feature>
            <threshold>-2.3313770070672035e-003</threshold>
            <left_node>10</left_node>
            <right_node>5</right_node></_>
          <_>
            <!-- node 3 -->
            <feature>
              <rects>
                <_>
                  5 15 15 6 -1.</_>
                <_>
                  5 18 15 3 2.</_></rects>
              <tilted>0</tilted></feature>
            <threshold>-0.0903341025114059</threshold>
            <left_node>8</left_node>
            <right_node>4</right_node></_>
          <_>
            <!-- node 4 -->
            <feature>
              <rects>
                <_>
                  0 8 24 15 -1.</_>
                <_>
                  8 13 8 5 9.</_></rects>
              <tilted>0</tilted></feature>
            <threshold>-0.7929136753082275</threshold>
            <left_val>0.8718367815017700</left_val>
            <right_node>9</right_node></_>
          <_>
            <!-- node 5 -->
            <feature>
              <rects>
                <_>
                  8 22 4 2 -1.</_>
                <_>
                  9 22 2 2 2.</_></rects>
              <tilted>0</tilted></feature>
            <threshold>9.9818094167858362e-004</threshold>
            <left_node>7</left_node>
            <right_node>16</right_node></_>
          <_>
            <!-- node 6 -->
            <feature>
              <rects>
                <_>
                  3 11 21 12 -1.</_>
                <_>
                  10 15 7 4 9.</_></rects>
              <tilted>0</tilted></feature>
            <threshold>-0.3997975885868073</threshold>
            <left_val>0.7012615799903870</left_val>
            <right_node>11</right_node></_>
          <_>
            <!-- node 7 -->
            <feature>
              <rects>
                <_>
                  12 16 2 1 -1.</_>
                <_>
                  13 16 1 1 2.</_></rects>
              <tilted>0</tilted></feature>
            <threshold>3.8003639201633632e-004</threshold>
            <left_node>13</left_node>
            <right_node>12</right_node></_>
          <_>
            <!-- node 8 -->
            <feature>
              <rects>
                <_>
                  9 3 12 20 -1.</_>
                <_>
                  9 13 12 10 2.</_></rects>
              <tilted>0</tilted></feature>
            <threshold>0.0221566408872604</threshold>
            <left_val>0.7558518052101135</left_val>
            <right_val>-0.8682726025581360</right_val></_>
          <_>
            <!-- node 9 -->
            <feature>
              <rects>
                <_>
                  4 9 15 14 -1.</_>
                <_>
                  4 16 15 7 2.</_></rects>
              <tilted>0</tilted></feature>
            <threshold>-0.1806638985872269</threshold>
            <left_val>0.3316839933395386</left_val>
            <right_val>-0.9519355893135071</right_val></_>
          <_>
            <!-- node 10 -->
            <feature>
              <rects>
                <_>
                  6 16 8 8 -1.</_>
                <_>
                  6 20 8 4 2.</_></rects>
              <tilted>0</tilted></feature>
            <threshold>0.0395506806671619</threshold>
            <left_node>18</left_node>
            <right_val>0.7908256053924561</right_val></_>
          <_>
            <!-- node 11 -->
            <feature>
              <rects>
                <_>
                  1 8 9 2 -1.</_>
                <_>
                  1 9 9 1 2.</_></rects>
              <tilted>0</tilted></feature>
            <threshold>6.4932219684123993e-003</threshold>
            <left_node>14</left_node>
            <right_val>0.2405700981616974</right_val></_>
          <_>
            <!-- node 12 -->
            <feature>
              <rects>
                <_>
                  0 16 23 8 -1.</_>
                <_>
                  0 18 23 4 2.</_></rects>
              <tilted>0</tilted></feature>
            <threshold>-0.0337576903402805</threshold>
            <left_val>0.6151524186134338</left_val>
            <right_val>-0.7763481736183167</right_val></_>
          <_>
            <!-- node 13 -->
            <feature>
              <rects>
                <_>
                  7 22 3 2 -1.</_>
                <_>
                  8 22 1 2 3.</_></rects>
              <tilted>0</tilted></feature>
            <threshold>1.4421569649130106e-003</threshold>
            <left_node>15</left_node>
            <right_val>-1.0007719993591309</right_val></_>
          <_>
            <!-- node 14 -->
            <feature>
              <rects>
                <_>
                  2 3 19 6 -1.</_>
                <_>
                  2 5 19 2 3.</_></rects>
              <tilted>0</tilted></feature>
            <threshold>-0.0411195307970047</threshold>
            <left_val>0.0318554490804672</left_val>
            <right_val>-0.8997083902359009</right_val></_>
          <_>
            <!-- node 15 -->
            <feature>
              <rects>
                <_>
                  0 23 2 1 -1.</_>
                <_>
                  1 23 1 1 2.</_></rects>
              <tilted>0</tilted></feature>
            <threshold>2.7627669624052942e-004</threshold>
            <left_node>19</left_node>
            <right_node>17</right_node></_>
          <_>
            <!-- node 16 -->
            <feature>
              <rects>
                <_>
                  4 11 16 2 -1.</_>
                <_>
                  4 12 16 1 2.</_></rects>
              <tilted>0</tilted></feature>
            <threshold>-0.0173568595200777</threshold>
            <left_val>0.7866151928901672</left_val>
            <right_val>-0.6816880702972412</right_val></_>
          <_>
            <!-- node 17 -->
            <feature>
              <rects>
                <_>
                  8 16 12 8 -1.</_>
                <_>
                  8 20 12 4 2.</_></rects>
              <tilted>0</tilted></feature>
            <threshold>0.0269030295312405</threshold>
            <left_val>-0.4787037074565888</left_val>
            <right_val>0.8814051747322083</right_val></_>
          <_>
            <!-- node 18 -->
            <feature>
              <rects>
                <_>
                  3 7 12 3 -1.</_>
                <_>
                  3 8 12 1 3.</_></rects>
              <tilted>0</tilted></feature>
            <threshold>8.4023084491491318e-003</threshold>
            <left_val>-0.8400145769119263</left_val>
            <right_val>0.2544440031051636</right_val></_>
          <_>
            <!-- node 19 -->
            <feature>
              <rects>
                <_>
                  3 2 11 22 -1.</_>
                <_>
                  3 13 11 11 2.</_></rects>
              <tilted>0</tilted></feature>
            <threshold>-0.4183709919452667</threshold>
            <left_val>-0.2967112958431244</left_val>
            <right_val>0.8847919106483460</right_val></_></_>
        <_>
          <!-- tree 1 -->
          <_>
            <!-- root node -->
            <feature>
              <rects>
                <_>
                  1 11 10 1 -1.</_>
                <_>
                  1 11 5 1 2.</_></rects>
              <tilted>1</tilted></feature>
            <threshold>4.3495711870491505e-003</threshold>
            <left_node>4</left_node>
            <right_node>1</right_node></_>
          <_>
            <!-- node 1 -->
            <feature>
              <rects>
                <_>
                  16 4 8 12 -1.</_>
                <_>
                  16 4 8 6 2.</_></rects>
              <tilted>1</tilted></feature>
            <threshold>-0.0221869908273220</threshold>
            <left_node>12</left_node>
            <right_node>2</right_node></_>
          <_>
            <!-- node 2 -->
            <feature>
              <rects>
                <_>
                  11 11 12 3 -1.</_>
                <_>
                  15 12 4 1 9.</_></rects>
              <tilted>0</tilted></feature>
            <threshold>-0.0109859500080347</threshold>
            <left_node>7</left_node>
            <right_node>3</right_node></_>
          <_>
            <!-- node 3 -->
            <feature>
              <rects>
                <_>
                  7 10 15 3 -1.</_>
                <_>
                  7 11 15 1 3.</_></rects>
              <tilted>0</tilted></feature>
            <threshold>-0.0118443798273802</threshold>
            <left_node>19</left_node>
            <right_node>5</right_node></_>
          <_>
            <!-- node 4 -->
            <feature>
              <rects>
                <_>
                  2 7 10 2 -1.</_>
                <_>
                  2 7 5 2 2.</_></rects>
              <tilted>1</tilted></feature>
            <threshold>5.6551019661128521e-003</threshold>
            <left_node>10</left_node>
            <right_node>8</right_node></_>
          <_>
            <!-- node 5 -->
            <feature>
              <rects>
                <_>
                  6 12 18 3 -1.</_>
                <_>
                  6 13 18 1 3.</_></rects>
              <tilted>0</tilted></feature>
            <threshold>-7.0079620927572250e-003</threshold>
            <left_node>16</left_node>
            <right_node>6</right_node></_>
          <_>
            <!-- node 6 -->
            <feature>
              <rects>
                <_>
                  5 12 11 3 -1.</_>
                <_>
                  5 13 11 1 3.</_></rects>
              <tilted>0</tilted></feature>
            <threshold>4.6153939329087734e-003</threshold>
            <left_node>11</left_node>
            <right_val>0.3347130119800568</right_val></_>
          <_>
            <!-- node 7 -->
            <feature>
              <rects>
                <_>
                  15 23 3 1 -1.</_>
                <_>
                  16 23 1 1 3.</_></rects>
              <tilted>0</tilted></feature>
            <threshold>-5.9457152383401990e-004</threshold>
            <left_val>-0.5344728231430054</left_val>
            <right_node>14</right_node></_>
          <_>
            <!-- node 8 -->
            <feature>
              <rects>
                <_>
                  8 13 8 3 -1.</_>
                <_>
                  7 14 8 1 3.</_></rects>
              <tilted>1</tilted></feature>
            <threshold>-3.2164339791052043e-004</threshold>
            <left_node>9</left_node>
            <right_val>-0.6503186821937561</right_val></_>
          <_>
            <!-- node 9 -->
            <feature>
              <rects>
                <_>
                  13 8 4 16 -1.</_>
                <_>
                  13 12 4 8 2.</_></rects>
              <tilted>0</tilted></feature>
            <threshold>-9.6325445920228958e-003</threshold>
            <left_val>0.4357300996780396</left_val>
            <right_val>-0.6149653792381287</right_val></_>
          <_>
            <!-- node 10 -->
            <feature>
              <rects>
                <_>
                  10 15 4 3 -1.</_>
                <_>
                  10 15 2 3 2.</_></rects>
              <tilted>1</tilted></feature>
            <threshold>0.0451676808297634</threshold>
            <left_node>18</left_node>
            <right_val>0.8323264122009277</right_val></_>
          <_>
            <!-- node 11 -->
            <feature>
              <rects>
                <_>
                  1 22 14 2 -1.</_>
                <_>
                  1 23 14 1 2.</_></rects>
              <tilted>0</tilted></feature>
            <threshold>5.8740680105984211e-003</threshold>
            <left_val>-0.8467426896095276</left_val>
            <right_node>17</right_node></_>
          <_>
            <!-- node 12 -->
            <feature>
              <rects>
                <_>
                  5 9 12 14 -1.</_>
                <_>
                  5 16 12 7 2.</_></rects>
              <tilted>0</tilted></feature>
            <threshold>-0.1978514939546585</threshold>
            <left_val>0.6075627803802490</left_val>
            <right_node>13</right_node></_>
          <_>
            <!-- node 13 -->
            <feature>
              <rects>
                <_>
                  0 8 19 15 -1.</_>
                <_>
                  0 13 19 5 3.</_></rects>
              <tilted>0</tilted></feature>
            <threshold>-0.2186284959316254</threshold>
            <left_val>0.9499496221542358</left_val>
            <right_val>-0.9553902745246887</right_val></_>
          <_>
            <!-- node 14 -->
            <feature>
              <rects>
                <_>
                  12 0 2 24 -1.</_>
                <_>
                  12 12 2 12 2.</_></rects>
              <tilted>0</tilted></feature>
            <threshold>-0.0857408270239830</threshold>
            <left_val>-0.2154227048158646</left_val>
            <right_node>15</right_node></_>
          <_>
            <!-- node 15 -->
            <feature>
              <rects>
                <_>
                  8 21 4 2 -1.</_>
                <_>
                  9 21 2 2 2.</_></rects>
              <tilted>0</tilted></feature>
            <threshold>-1.1110419873148203e-003</threshold>
            <left_val>-0.2018335014581680</left_val>
            <right_val>0.8787267208099365</right_val></_>
          <_>
            <!-- node 16 -->
            <feature>
              <rects>
                <_>
                  8 22 16 2 -1.</_>
                <_>
                  12 22 8 2 2.</_></rects>
              <tilted>0</tilted></feature>
            <threshold>4.8411069437861443e-003</threshold>
            <left_val>0.6813188195228577</left_val>
            <right_val>-0.7686116099357605</right_val></_>
          <_>
            <!-- node 17 -->
            <feature>
              <rects>
                <_>
                  2 22 16 2 -1.</_>
                <_>
                  6 22 8 2 2.</_></rects>
              <tilted>0</tilted></feature>
            <threshold>-4.3661988456733525e-005</threshold>
            <left_val>0.5288171768188477</left_val>
            <right_val>-1.0000009536743164</right_val></_>
          <_>
            <!-- node 18 -->
            <feature>
              <rects>
                <_>
                  9 15 12 4 -1.</_>
                <_>
                  9 16 12 2 2.</_></rects>
              <tilted>0</tilted></feature>
            <threshold>-0.0204066708683968</threshold>
            <left_val>-0.0119420103728771</left_val>
            <right_val>-0.9142845869064331</right_val></_>
          <_>
            <!-- node 19 -->
            <feature>
              <rects>
                <_>
                  13 22 3 1 -1.</_>
                <_>
                  14 22 1 1 3.</_></rects>
              <tilted>0</tilted></feature>
            <threshold>4.2093289084732533e-004</threshold>
            <left_val>0.8889539837837219</left_val>
            <right_val>-0.8013557195663452</right_val></_></_></trees>
      <stage_threshold>-0.6598405838012695</stage_threshold>
      <parent>-1</parent>
      <next>-1</next></_>
    <_>
      <!-- stage 1 -->
      <trees>
        <_>
          <!-- tree 0 -->
          <_>
            <!-- root node -->
            <feature>
              <rects>
                <_>
                  0 12 8 8 -1.</_>
                <_>
                  4 12 4 8 2.</_></rects>
              <tilted>0</tilted></feature>
            <threshold>-0.0489436611533165</threshold>
            <left_node>2</left_node>
            <right_node>1</right_node></_>
          <_>
            <!-- node 1 -->
            <feature>
              <rects>
                <_>
                  6 8 16 14 -1.</_>
                <_>
                  6 15 16 7 2.</_></rects>
              <tilted>0</tilted></feature>
            <threshold>-0.1637026965618134</threshold>
            <left_node>3</left_node>
            <right_node>7</right_node></_>
          <_>
            <!-- node 2 -->
            <feature>
              <rects>
                <_>
                  6 13 18 10 -1.</_>
                <_>
                  12 13 6 10 3.</_></rects>
              <tilted>0</tilted></feature>
            <threshold>5.2115609869360924e-003</threshold>
            <left_node>4</left_node>
            <right_val>-0.7427819967269898</right_val></_>
          <_>
            <!-- node 3 -->
            <feature>
              <rects>
                <_>
                  0 20 24 4 -1.</_>
                <_>
                  8 20 8 4 3.</_></rects>
              <tilted>0</tilted></feature>
            <threshold>-0.0115804597735405</threshold>
            <left_node>5</left_node>
            <right_node>12</right_node></_>
          <_>
            <!-- node 4 -->
            <feature>
              <rects>
                <_>
                  8 13 6 6 -1.</_>
                <_>
                  11 13 3 6 2.</_></rects>
              <tilted>0</tilted></feature>
            <threshold>-7.3836361989378929e-003</threshold>
            <left_val>-0.7112432718276978</left_val>
            <right_node>10</right_node></_>
          <_>
            <!-- node 5 -->
            <feature>
              <rects>
                <_>
                  7 23 9 1 -1.</_>
                <_>
                  10 23 3 1 3.</_></rects>
              <tilted>0</tilted></feature>
            <threshold>-1.6067989636212587e-003</threshold>
            <left_val>-0.4628789126873016</left_val>
            <right_node>6</right_node></_>
          <_>
            <!-- node 6 -->
            <feature>
              <rects>
                <_>
                  8 23 6 1 -1.</_>
                <_>
                  10 23 2 1 3.</_></rects>
              <tilted>0</tilted></feature>
            <threshold>7.4124580714851618e-004</threshold>
            <left_node>11</left_node>
            <right_val>-0.5977398157119751</right_val></_>
          <_>
            <!-- node 7 -->
            <feature>
              <rects>
                <_>
                  3 2 16 3 -1.</_>
                <_>
                  3 2 8 3 2.</_></rects>
              <tilted>1</tilted></feature>
            <threshold>0.0384273901581764</threshold>
            <left_node>18</left_node>
            <right_node>8</right_node></_>
          <_>
            <!-- node 8 -->
            <feature>
              <rects>
                <_>
                  0 16 12 8 -1.</_>
                <_>
                  0 18 12 4 2.</_></rects>
              <tilted>0</tilted></feature>
            <threshold>-0.0208651795983315</threshold>
            <left_node>9</left_node>
            <right_node>13</right_node></_>
          <_>
            <!-- node 9 -->
            <feature>
              <rects>
                <_>
                  15 23 4 1 -1.</_>
                <_>
                  16 23 2 1 2.</_></rects>
              <tilted>0</tilted></feature>
            <threshold>-3.2160308910533786e-004</threshold>
            <left_val>-0.8268960714340210</left_val>
            <right_node>15</right_node></_>
          <_>
            <!-- node 10 -->
            <feature>
              <rects>
                <_>
                  6 22 4 1 -1.</_>
                <_>
                  7 22 2 1 2.</_></rects>
              <tilted>0</tilted></feature>
            <threshold>8.3747692406177521e-004</threshold>
            <left_node>14</left_node>
            <right_val>-0.9064030051231384</right_val></_>
          <_>
            <!-- node 11 -->
            <feature>
              <rects>
                <_>
                  9 22 3 2 -1.</_>
                <_>
                  9 23 3 1 2.</_></rects>
              <tilted>0</tilted></feature>
            <threshold>3.0125951161608100e-004</threshold>
            <left_node>16</left_node>
            <right_val>0.8735036849975586</right_val></_>
          <_>
            <!-- node 12 -->
            <feature>
              <rects>
                <_>
                  6 0 13 3 -1.</_>
                <_>
                  6 1 13 1 3.</_></rects>
              <tilted>0</tilted></feature>
            <threshold>-8.7322518229484558e-003</threshold>
            <left_val>0.3612832129001617</left_val>
            <right_node>19</right_node></_>
          <_>
            <!-- node 13 -->
            <feature>
              <rects>
                <_>
                  6 0 4 5 -1.</_>
                <_>
                  6 0 2 5 2.</_></rects>
              <tilted>1</tilted></feature>
            <threshold>-0.0272070802748203</threshold>
            <left_val>0.1523873955011368</left_val>
            <right_val>-0.6777120828628540</right_val></_>
          <_>
            <!-- node 14 -->
            <feature>
              <rects>
                <_>
                  4 9 16 8 -1.</_>
                <_>
                  4 9 8 4 2.</_>
                <_>
                  12 13 8 4 2.</_></rects>
              <tilted>0</tilted></feature>
            <threshold>0.0410075299441814</threshold>
            <left_node>17</left_node>
            <right_val>-0.9995849132537842</right_val></_>
          <_>
            <!-- node 15 -->
            <feature>
              <rects>
                <_>
                  8 22 6 2 -1.</_>
                <_>
                  10 22 2 2 3.</_></rects>
              <tilted>0</tilted></feature>
            <threshold>-2.2536120377480984e-003</threshold>
            <left_val>-1.</left_val>
            <right_val>0.5878090262413025</right_val></_>
          <_>
            <!-- node 16 -->
            <feature>
              <rects>
                <_>
                  9 0 10 6 -1.</_>
                <_>
                  9 3 10 3 2.</_></rects>
              <tilted>0</tilted></feature>
            <threshold>-0.0100573999807239</threshold>
            <left_val>0.6993315219879150</left_val>
            <right_val>-0.1845269054174423</right_val></_>
          <_>
            <!-- node 17 -->
            <feature>
              <rects>
                <_>
                  2 6 20 16 -1.</_>
                <_>
                  2 6 10 8 2.</_>
                <_>
                  12 14 10 8 2.</_></rects>
              <tilted>0</tilted></feature>
            <threshold>-0.1297594010829926</threshold>
            <left_val>-0.8516644835472107</left_val>
            <right_val>0.9338390231132507</right_val></_>
          <_>
            <!-- node 18 -->
            <feature>
              <rects>
                <_>
                  5 15 15 4 -1.</_>
                <_>
                  5 16 15 2 2.</_></rects>
              <tilted>0</tilted></feature>
            <threshold>-0.0310739409178495</threshold>
            <left_val>0.0279191303998232</left_val>
            <right_val>-0.8780819177627564</right_val></_>
          <_>
            <!-- node 19 -->
            <feature>
              <rects>
                <_>
                  13 0 9 3 -1.</_>
                <_>
                  13 1 9 1 3.</_></rects>
              <tilted>0</tilted></feature>
            <threshold>0.0139011200517416</threshold>
            <left_val>-0.7146645188331604</left_val>
            <right_val>0.2459110021591187</right_val></_></_>
        <_>
          <!-- tree 1 -->
          <_>
            <!-- root node -->
            <feature>
              <rects>
                <_>
                  9 23 3 1 -1.</_>
                <_>
                  10 23 1 1 3.</_></rects>
              <tilted>0</tilted></feature>
            <threshold>-4.3984260992147028e-004</threshold>
            <left_node>14</left_node>
            <right_node>1</right_node></_>
          <_>
            <!-- node 1 -->
            <feature>
              <rects>
                <_>
                  9 23 3 1 -1.</_>
                <_>
                  10 23 1 1 3.</_></rects>
              <tilted>0</tilted></feature>
            <threshold>3.0700620845891535e-004</threshold>
            <left_node>2</left_node>
            <right_node>5</right_node></_>
          <_>
            <!-- node 2 -->
            <feature>
              <rects>
                <_>
                  6 17 18 7 -1.</_>
                <_>
                  12 17 6 7 3.</_></rects>
              <tilted>0</tilted></feature>
            <threshold>-8.4419026970863342e-003</threshold>
            <left_node>3</left_node>
            <right_node>6</right_node></_>
          <_>
            <!-- node 3 -->
            <feature>
              <rects>
                <_>
                  6 14 4 6 -1.</_>
                <_>
                  7 15 2 6 2.</_></rects>
              <tilted>1</tilted></feature>
            <threshold>-3.5009230487048626e-003</threshold>
            <left_node>10</left_node>
            <right_node>4</right_node></_>
          <_>
            <!-- node 4 -->
            <feature>
              <rects>
                <_>
                  13 22 2 2 -1.</_>
                <_>
                  13 23 2 1 2.</_></rects>
              <tilted>0</tilted></feature>
            <threshold>5.5641979997744784e-005</threshold>
            <left_node>16</left_node>
            <right_node>8</right_node></_>
          <_>
            <!-- node 5 -->
            <feature>
              <rects>
                <_>
                  8 10 6 3 -1.</_>
                <_>
                  8 11 6 1 3.</_></rects>
              <tilted>0</tilted></feature>
            <threshold>0.0214815903455019</threshold>
            <left_node>12</left_node>
            <right_val>0.7840579748153687</right_val></_>
          <_>
            <!-- node 6 -->
            <feature>
              <rects>
                <_>
                  8 0 15 9 -1.</_>
                <_>
                  8 3 15 3 3.</_></rects>
              <tilted>0</tilted></feature>
            <threshold>-0.0342481210827827</threshold>
            <left_node>9</left_node>
            <right_node>7</right_node></_>
          <_>
            <!-- node 7 -->
            <feature>
              <rects>
                <_>
                  8 1 6 8 -1.</_>
                <_>
                  8 3 6 4 2.</_></rects>
              <tilted>0</tilted></feature>
            <threshold>8.1903096288442612e-003</threshold>
            <left_val>-0.6873620748519898</left_val>
            <right_node>11</right_node></_>
          <_>
            <!-- node 8 -->
            <feature>
              <rects>
                <_>
                  13 23 4 1 -1.</_>
                <_>
                  14 23 2 1 2.</_></rects>
              <tilted>0</tilted></feature>
            <threshold>5.4325989913195372e-004</threshold>
            <left_node>13</left_node>
            <right_val>-0.7526475787162781</right_val></_>
          <_>
            <!-- node 9 -->
            <feature>
              <rects>
                <_>
                  0 23 2 1 -1.</_>
                <_>
                  1 23 1 1 2.</_></rects>
              <tilted>0</tilted></feature>
            <threshold>2.0028649305459112e-004</threshold>
            <left_val>0.5249630808830261</left_val>
            <right_val>-0.7930788993835449</right_val></_>
          <_>
            <!-- node 10 -->
            <feature>
              <rects>
                <_>
                  2 23 3 1 -1.</_>
                <_>
                  3 23 1 1 3.</_></rects>
              <tilted>0</tilted></feature>
            <threshold>5.6854507420212030e-004</threshold>
            <left_val>0.8397309184074402</left_val>
            <right_val>-0.3008359968662262</right_val></_>
          <_>
            <!-- node 11 -->
            <feature>
              <rects>
                <_>
                  1 3 12 9 -1.</_>
                <_>
                  4 3 6 9 2.</_></rects>
              <tilted>0</tilted></feature>
            <threshold>-0.0133894998580217</threshold>
            <left_val>0.5556046962738037</left_val>
            <right_node>19</right_node></_>
          <_>
            <!-- node 12 -->
            <feature>
              <rects>
                <_>
                  4 9 17 3 -1.</_>
                <_>
                  4 10 17 1 3.</_></rects>
              <tilted>0</tilted></feature>
            <threshold>0.0185624696314335</threshold>
            <left_node>18</left_node>
            <right_node>17</right_node></_>
          <_>
            <!-- node 13 -->
            <feature>
              <rects>
                <_>
                  16 10 3 4 -1.</_>
                <_>
                  16 10 3 2 2.</_></rects>
              <tilted>1</tilted></feature>
            <threshold>0.0264838505536318</threshold>
            <left_node>15</left_node>
            <right_val>-0.5150173902511597</right_val></_>
          <_>
            <!-- node 14 -->
            <feature>
              <rects>
                <_>
                  0 12 24 12 -1.</_>
                <_>
                  8 16 8 4 9.</_></rects>
              <tilted>0</tilted></feature>
            <threshold>-0.6675084829330444</threshold>
            <left_val>0.5072289109230042</left_val>
            <right_val>-0.8726344108581543</right_val></_>
          <_>
            <!-- node 15 -->
            <feature>
              <rects>
                <_>
                  15 13 2 8 -1.</_>
                <_>
                  15 17 2 4 2.</_></rects>
              <tilted>0</tilted></feature>
            <threshold>-1.0076799662783742e-003</threshold>
            <left_val>0.8003758192062378</left_val>
            <right_val>-2.7322159148752689e-003</right_val></_>
          <_>
            <!-- node 16 -->
            <feature>
              <rects>
                <_>
                  16 7 8 3 -1.</_>
                <_>
                  16 8 8 1 3.</_></rects>
              <tilted>0</tilted></feature>
            <threshold>8.5081569850444794e-003</threshold>
            <left_val>-0.6083346009254456</left_val>
            <right_val>0.4020032882690430</right_val></_>
          <_>
            <!-- node 17 -->
            <feature>
              <rects>
                <_>
                  0 8 12 7 -1.</_>
                <_>
                  3 8 6 7 2.</_></rects>
              <tilted>0</tilted></feature>
            <threshold>-0.0102924704551697</threshold>
            <left_val>0.6624842882156372</left_val>
            <right_val>-0.8767582774162293</right_val></_>
          <_>
            <!-- node 18 -->
            <feature>
              <rects>
                <_>
                  3 15 14 8 -1.</_>
                <_>
                  3 17 14 4 2.</_></rects>
              <tilted>0</tilted></feature>
            <threshold>-0.0921805873513222</threshold>
            <left_val>0.1935200989246368</left_val>
            <right_val>-0.8301618099212647</right_val></_>
          <_>
            <!-- node 19 -->
            <feature>
              <rects>
                <_>
                  4 9 9 12 -1.</_>
                <_>
                  4 15 9 6 2.</_></rects>
              <tilted>0</tilted></feature>
            <threshold>-0.1038665026426315</threshold>
            <left_val>0.2968902885913849</left_val>
            <right_val>-0.7187721133232117</right_val></_></_></trees>
      <stage_threshold>-1.4279019832611084</stage_threshold>
      <parent>0</parent>
      <next>-1</next></_>
    <_>
      <!-- stage 2 -->
      <trees>
        <_>
          <!-- tree 0 -->
          <_>
            <!-- root node -->
            <feature>
              <rects>
                <_>
                  0 0 8 20 -1.</_>
                <_>
                  0 0 4 10 2.</_>
                <_>
                  4 10 4 10 2.</_></rects>
              <tilted>0</tilted></feature>
            <threshold>-0.0461540110409260</threshold>
            <left_node>2</left_node>
            <right_node>1</right_node></_>
          <_>
            <!-- node 1 -->
            <feature>
              <rects>
                <_>
                  8 0 6 4 -1.</_>
                <_>
                  8 1 6 2 2.</_></rects>
              <tilted>0</tilted></feature>
            <threshold>-6.9148028269410133e-003</threshold>
            <left_node>7</left_node>
            <right_node>3</right_node></_>
          <_>
            <!-- node 2 -->
            <feature>
              <rects>
                <_>
                  11 12 12 2 -1.</_>
                <_>
                  15 12 4 2 3.</_></rects>
              <tilted>0</tilted></feature>
            <threshold>-6.4869951456785202e-003</threshold>
            <left_node>6</left_node>
            <right_node>8</right_node></_>
          <_>
            <!-- node 3 -->
            <feature>
              <rects>
                <_>
                  2 7 18 3 -1.</_>
                <_>
                  2 8 18 1 3.</_></rects>
              <tilted>0</tilted></feature>
            <threshold>-0.0177693497389555</threshold>
            <left_node>15</left_node>
            <right_node>4</right_node></_>
          <_>
            <!-- node 4 -->
            <feature>
              <rects>
                <_>
                  2 8 18 3 -1.</_>
                <_>
                  2 9 18 1 3.</_></rects>
              <tilted>0</tilted></feature>
            <threshold>-0.0119294300675392</threshold>
            <left_node>14</left_node>
            <right_node>5</right_node></_>
          <_>
            <!-- node 5 -->
            <feature>
              <rects>
                <_>
                  0 6 17 3 -1.</_>
                <_>
                  0 7 17 1 3.</_></rects>
              <tilted>0</tilted></feature>
            <threshold>-0.0117499297484756</threshold>
            <left_node>12</left_node>
            <right_node>10</right_node></_>
          <_>
            <!-- node 6 -->
            <feature>
              <rects>
                <_>
                  6 12 10 10 -1.</_>
                <_>
                  6 12 5 5 2.</_>
                <_>
                  11 17 5 5 2.</_></rects>
              <tilted>0</tilted></feature>
            <threshold>0.0166458003222942</threshold>
            <left_node>11</left_node>
            <right_val>-0.5704128742218018</right_val></_>
          <_>
            <!-- node 7 -->
            <feature>
              <rects>
                <_>
                  8 22 16 2 -1.</_>
                <_>
                  12 22 8 2 2.</_></rects>
              <tilted>0</tilted></feature>
            <threshold>-9.4656058354303241e-004</threshold>
            <left_node>13</left_node>
            <right_node>17</right_node></_>
          <_>
            <!-- node 8 -->
            <feature>
              <rects>
                <_>
                  8 7 12 3 -1.</_>
                <_>
                  8 8 12 1 3.</_></rects>
              <tilted>0</tilted></feature>
            <threshold>-6.1135757714509964e-003</threshold>
            <left_val>0.6261408925056458</left_val>
            <right_node>9</right_node></_>
          <_>
            <!-- node 9 -->
            <feature>
              <rects>
                <_>
                  8 5 9 4 -1.</_>
                <_>
                  8 6 9 2 2.</_></rects>
              <tilted>0</tilted></feature>
            <threshold>-4.9520409666001797e-003</threshold>
            <left_val>0.4559521973133087</left_val>
            <right_node>18</right_node></_>
          <_>
            <!-- node 10 -->
            <feature>
              <rects>
                <_>
                  8 9 12 3 -1.</_>
                <_>
                  8 10 12 1 3.</_></rects>
              <tilted>0</tilted></feature>
            <threshold>-9.2213675379753113e-003</threshold>
            <left_node>16</left_node>
            <right_val>-0.8821650743484497</right_val></_>
          <_>
            <!-- node 11 -->
            <feature>
              <rects>
                <_>
                  11 14 4 3 -1.</_>
                <_>
                  13 14 2 3 2.</_></rects>
              <tilted>0</tilted></feature>
            <threshold>2.8180589433759451e-003</threshold>
            <left_val>0.9072313904762268</left_val>
            <right_val>-0.9011911153793335</right_val></_>
          <_>
            <!-- node 12 -->
            <feature>
              <rects>
                <_>
                  1 16 13 8 -1.</_>
                <_>
                  1 18 13 4 2.</_></rects>
              <tilted>0</tilted></feature>
            <threshold>-0.0142415901646018</threshold>
            <left_node>19</left_node>
            <right_val>-0.5228704810142517</right_val></_>
          <_>
            <!-- node 13 -->
            <feature>
              <rects>
                <_>
                  8 23 8 1 -1.</_>
                <_>
                  12 23 4 1 2.</_></rects>
              <tilted>0</tilted></feature>
            <threshold>-2.3081069812178612e-003</threshold>
            <left_val>-0.6784737706184387</left_val>
            <right_val>0.7229471206665039</right_val></_>
          <_>
            <!-- node 14 -->
            <feature>
              <rects>
                <_>
                  5 8 16 14 -1.</_>
                <_>
                  5 15 16 7 2.</_></rects>
              <tilted>0</tilted></feature>
            <threshold>-0.1003907024860382</threshold>
            <left_val>0.4639008045196533</left_val>
            <right_val>-0.5716705918312073</right_val></_>
          <_>
            <!-- node 15 -->
            <feature>
              <rects>
                <_>
                  13 21 10 3 -1.</_>
                <_>
                  18 21 5 3 2.</_></rects>
              <tilted>0</tilted></feature>
            <threshold>-6.3103791326284409e-003</threshold>
            <left_val>-0.8154199719429016</left_val>
            <right_val>0.5681111812591553</right_val></_>
          <_>
            <!-- node 16 -->
            <feature>
              <rects>
                <_>
                  4 5 18 3 -1.</_>
                <_>
                  4 6 18 1 3.</_></rects>
              <tilted>0</tilted></feature>
            <threshold>-5.2768080495297909e-003</threshold>
            <left_val>0.3903692960739136</left_val>
            <right_val>-0.5878435969352722</right_val></_>
          <_>
            <!-- node 17 -->
            <feature>
              <rects>
                <_>
                  9 2 3 8 -1.</_>
                <_>
                  10 3 1 8 3.</_></rects>
              <tilted>1</tilted></feature>
            <threshold>-3.6527430638670921e-003</threshold>
            <left_val>0.4231781959533691</left_val>
            <right_val>-0.5302342176437378</right_val></_>
          <_>
            <!-- node 18 -->
            <feature>
              <rects>
                <_>
                  5 7 1 3 -1.</_>
                <_>
                  5 8 1 1 3.</_></rects>
              <tilted>0</tilted></feature>
            <threshold>2.1679070778191090e-003</threshold>
            <left_val>-0.6742252707481384</left_val>
            <right_val>0.5579730272293091</right_val></_>
          <_>
            <!-- node 19 -->
            <feature>
              <rects>
                <_>
                  0 2 19 12 -1.</_>
                <_>
                  0 6 19 4 3.</_></rects>
              <tilted>0</tilted></feature>
            <threshold>-0.1143022030591965</threshold>
            <left_val>-0.8774551153182983</left_val>
            <right_val>0.6558091044425964</right_val></_></_>
        <_>
          <!-- tree 1 -->
          <_>
            <!-- root node -->
            <feature>
              <rects>
                <_>
                  13 11 9 3 -1.</_>
                <_>
                  16 12 3 1 9.</_></rects>
              <tilted>0</tilted></feature>
            <threshold>-7.4199549853801727e-003</threshold>
            <left_node>2</left_node>
            <right_node>1</right_node></_>
          <_>
            <!-- node 1 -->
            <feature>
              <rects>
                <_>
                  15 10 5 3 -1.</_>
                <_>
                  15 11 5 1 3.</_></rects>
              <tilted>0</tilted></feature>
            <threshold>-4.1167349554598331e-003</threshold>
            <left_node>11</left_node>
            <right_node>3</right_node></_>
          <_>
            <!-- node 2 -->
            <feature>
              <rects>
                <_>
                  7 20 2 3 -1.</_>
                <_>
                  8 20 1 3 2.</_></rects>
              <tilted>0</tilted></feature>
            <threshold>4.6119021135382354e-004</threshold>
            <left_node>4</left_node>
            <right_val>-0.5829855203628540</right_val></_>
          <_>
            <!-- node 3 -->
            <feature>
              <rects>
                <_>
                  4 9 18 3 -1.</_>
                <_>
                  4 10 18 1 3.</_></rects>
              <tilted>0</tilted></feature>
            <threshold>-5.9862001799046993e-003</threshold>
            <left_node>9</left_node>
            <right_node>7</right_node></_>
          <_>
            <!-- node 4 -->
            <feature>
              <rects>
                <_>
                  0 11 15 3 -1.</_>
                <_>
                  5 12 5 1 9.</_></rects>
              <tilted>0</tilted></feature>
            <threshold>-0.0210009403526783</threshold>
            <left_node>5</left_node>
            <right_node>6</right_node></_>
          <_>
            <!-- node 5 -->
            <feature>
              <rects>
                <_>
                  2 23 4 1 -1.</_>
                <_>
                  3 23 2 1 2.</_></rects>
              <tilted>0</tilted></feature>
            <threshold>5.1820289809256792e-004</threshold>
            <left_node>17</left_node>
            <right_val>-0.6482421755790710</right_val></_>
          <_>
            <!-- node 6 -->
            <feature>
              <rects>
                <_>
                  0 16 14 8 -1.</_>
                <_>
                  0 18 14 4 2.</_></rects>
              <tilted>0</tilted></feature>
            <threshold>-0.0185356792062521</threshold>
            <left_node>19</left_node>
            <right_node>8</right_node></_>
          <_>
            <!-- node 7 -->
            <feature>
              <rects>
                <_>
                  2 9 13 3 -1.</_>
                <_>
                  2 10 13 1 3.</_></rects>
              <tilted>0</tilted></feature>
            <threshold>0.0197501294314861</threshold>
            <left_node>10</left_node>
            <right_val>0.2661122977733612</right_val></_>
          <_>
            <!-- node 8 -->
            <feature>
              <rects>
                <_>
                  6 0 3 6 -1.</_>
                <_>
                  7 1 1 6 3.</_></rects>
              <tilted>1</tilted></feature>
            <threshold>-4.7208140604197979e-003</threshold>
            <left_val>0.4856697022914887</left_val>
            <right_node>14</right_node></_>
          <_>
            <!-- node 9 -->
            <feature>
              <rects>
                <_>
                  17 11 6 6 -1.</_>
                <_>
                  17 11 3 3 2.</_>
                <_>
                  20 14 3 3 2.</_></rects>
              <tilted>0</tilted></feature>
            <threshold>2.5721630081534386e-003</threshold>
            <left_node>13</left_node>
            <right_val>0.4040392935276032</right_val></_>
          <_>
            <!-- node 10 -->
            <feature>
              <rects>
                <_>
                  9 13 15 2 -1.</_>
                <_>
                  9 14 15 1 2.</_></rects>
              <tilted>0</tilted></feature>
            <threshold>7.5325318612158298e-003</threshold>
            <left_node>15</left_node>
            <right_val>0.1345635056495667</right_val></_>
          <_>
            <!-- node 11 -->
            <feature>
              <rects>
                <_>
                  10 23 8 1 -1.</_>
                <_>
                  12 23 4 1 2.</_></rects>
              <tilted>0</tilted></feature>
            <threshold>6.9643359165638685e-004</threshold>
            <left_node>12</left_node>
            <right_val>-0.7607191205024719</right_val></_>
          <_>
            <!-- node 12 -->
            <feature>
              <rects>
                <_>
                  8 23 6 1 -1.</_>
                <_>
                  10 23 2 1 3.</_></rects>
              <tilted>0</tilted></feature>
            <threshold>4.1856241296045482e-004</threshold>
            <left_node>18</left_node>
            <right_val>-0.4545910954475403</right_val></_>
          <_>
            <!-- node 13 -->
            <feature>
              <rects>
                <_>
                  1 0 8 2 -1.</_>
                <_>
                  1 0 4 1 2.</_>
                <_>
                  5 1 4 1 2.</_></rects>
              <tilted>0</tilted></feature>
            <threshold>3.4200579393655062e-003</threshold>
            <left_val>-0.5328124761581421</left_val>
            <right_val>0.7625545859336853</right_val></_>
          <_>
            <!-- node 14 -->
            <feature>
              <rects>
                <_>
                  6 3 2 2 -1.</_>
                <_>
                  6 3 1 1 2.</_>
                <_>
                  7 4 1 1 2.</_></rects>
              <tilted>0</tilted></feature>
            <threshold>1.0426819790154696e-003</threshold>
            <left_val>-0.6941540837287903</left_val>
            <right_val>0.7405064105987549</right_val></_>
          <_>
            <!-- node 15 -->
            <feature>
              <rects>
                <_>
                  4 0 6 8 -1.</_>
                <_>
                  4 0 3 4 2.</_>
                <_>
                  7 4 3 4 2.</_></rects>
              <tilted>0</tilted></feature>
            <threshold>-0.0116197103634477</threshold>
            <left_node>16</left_node>
            <right_val>-0.8636975288391113</right_val></_>
          <_>
            <!-- node 16 -->
            <feature>
              <rects>
                <_>
                  4 20 14 4 -1.</_>
                <_>
                  4 21 14 2 2.</_></rects>
              <tilted>0</tilted></feature>
            <threshold>-4.6316138468682766e-003</threshold>
            <left_val>0.3041526973247528</left_val>
            <right_val>-0.7056428194046021</right_val></_>
          <_>
            <!-- node 17 -->
            <feature>
              <rects>
                <_>
                  5 0 6 24 -1.</_>
                <_>
                  7 0 2 24 3.</_></rects>
              <tilted>0</tilted></feature>
            <threshold>-0.0892573371529579</threshold>
            <left_val>-0.8569108247756958</left_val>
            <right_val>0.8208978176116943</right_val></_>
          <_>
            <!-- node 18 -->
            <feature>
              <rects>
                <_>
                  7 3 14 14 -1.</_>
                <_>
                  7 10 14 7 2.</_></rects>
              <tilted>0</tilted></feature>
            <threshold>-0.3048025071620941</threshold>
            <left_val>-0.9298760890960693</left_val>
            <right_val>0.7168815135955811</right_val></_>
          <_>
            <!-- node 19 -->
            <feature>
              <rects>
                <_>
                  5 23 6 1 -1.</_>
                <_>
                  7 23 2 1 3.</_></rects>
              <tilted>0</tilted></feature>
            <threshold>9.8691461607813835e-004</threshold>
            <left_val>0.6007990837097168</left_val>
            <right_val>-1.0000070333480835</right_val></_></_></trees>
      <stage_threshold>-1.1708290576934814</stage_threshold>
      <parent>1</parent>
      <next>-1</next></_>
    <_>
      <!-- stage 3 -->
      <trees>
        <_>
          <!-- tree 0 -->
          <_>
            <!-- root node -->
            <feature>
              <rects>
                <_>
                  0 12 8 9 -1.</_>
                <_>
                  4 12 4 9 2.</_></rects>
              <tilted>0</tilted></feature>
            <threshold>-0.0492139682173729</threshold>
            <left_node>4</left_node>
            <right_node>1</right_node></_>
          <_>
            <!-- node 1 -->
            <feature>
              <rects>
                <_>
                  3 20 21 4 -1.</_>
                <_>
                  10 20 7 4 3.</_></rects>
              <tilted>0</tilted></feature>
            <threshold>-3.8777380250394344e-003</threshold>
            <left_node>2</left_node>
            <right_node>17</right_node></_>
          <_>
            <!-- node 2 -->
            <feature>
              <rects>
                <_>
                  9 23 8 1 -1.</_>
                <_>
                  11 23 4 1 2.</_></rects>
              <tilted>0</tilted></feature>
            <threshold>-9.7459781682118773e-004</threshold>
            <left_val>-0.6942703127861023</left_val>
            <right_node>3</right_node></_>
          <_>
            <!-- node 3 -->
            <feature>
              <rects>
                <_>
                  9 23 8 1 -1.</_>
                <_>
                  11 23 4 1 2.</_></rects>
              <tilted>0</tilted></feature>
            <threshold>7.7160407090559602e-004</threshold>
            <left_node>5</left_node>
            <right_val>-0.8182960748672485</right_val></_>
          <_>
            <!-- node 4 -->
            <feature>
              <rects>
                <_>
                  11 11 12 11 -1.</_>
                <_>
                  15 11 4 11 3.</_></rects>
              <tilted>0</tilted></feature>
            <threshold>-0.0354401916265488</threshold>
            <left_node>7</left_node>
            <right_node>6</right_node></_>
          <_>
            <!-- node 5 -->
            <feature>
              <rects>
                <_>
                  7 22 14 2 -1.</_>
                <_>
                  7 23 14 1 2.</_></rects>
              <tilted>0</tilted></feature>
            <threshold>3.6482189316302538e-003</threshold>
            <left_node>9</left_node>
            <right_node>11</right_node></_>
          <_>
            <!-- node 6 -->
            <feature>
              <rects>
                <_>
                  0 5 23 6 -1.</_>
                <_>
                  0 8 23 3 2.</_></rects>
              <tilted>0</tilted></feature>
            <threshold>0.0677790790796280</threshold>
            <left_node>12</left_node>
            <right_val>0.7047578096389771</right_val></_>
          <_>
            <!-- node 7 -->
            <feature>
              <rects>
                <_>
                  15 16 2 5 -1.</_>
                <_>
                  16 16 1 5 2.</_></rects>
              <tilted>0</tilted></feature>
            <threshold>-1.1448089499026537e-003</threshold>
            <left_val>-0.6223235130310059</left_val>
            <right_node>8</right_node></_>
          <_>
            <!-- node 8 -->
            <feature>
              <rects>
                <_>
                  0 0 24 9 -1.</_>
                <_>
                  6 0 12 9 2.</_></rects>
              <tilted>0</tilted></feature>
            <threshold>-0.1961929053068161</threshold>
            <left_val>-0.6937925815582275</left_val>
            <right_node>13</right_node></_>
          <_>
            <!-- node 9 -->
            <feature>
              <rects>
                <_>
                  6 14 12 3 -1.</_>
                <_>
                  6 15 12 1 3.</_></rects>
              <tilted>0</tilted></feature>
            <threshold>-6.4355838112533092e-003</threshold>
            <left_val>0.4616200923919678</left_val>
            <right_node>10</right_node></_>
          <_>
            <!-- node 10 -->
            <feature>
              <rects>
                <_>
                  6 15 12 3 -1.</_>
                <_>
                  6 16 12 1 3.</_></rects>
              <tilted>0</tilted></feature>
            <threshold>-2.8866890352219343e-003</threshold>
            <left_node>18</left_node>
            <right_node>14</right_node></_>
          <_>
            <!-- node 11 -->
            <feature>
              <rects>
                <_>
                  16 23 2 1 -1.</_>
                <_>
                  17 23 1 1 2.</_></rects>
              <tilted>0</tilted></feature>
            <threshold>-2.1320709493011236e-004</threshold>
            <left_val>-0.4136914908885956</left_val>
            <right_node>15</right_node></_>
          <_>
            <!-- node 12 -->
            <feature>
              <rects>
                <_>
                  1 22 18 2 -1.</_>
                <_>
                  7 22 6 2 3.</_></rects>
              <tilted>0</tilted></feature>
            <threshold>-0.0152295902371407</threshold>
            <left_val>-0.9281961917877197</left_val>
            <right_node>16</right_node></_>
          <_>
            <!-- node 13 -->
            <feature>
              <rects>
                <_>
                  11 17 8 6 -1.</_>
                <_>
                  13 17 4 6 2.</_></rects>
              <tilted>0</tilted></feature>
            <threshold>-0.0196815095841885</threshold>
            <left_val>-0.8451299071311951</left_val>
            <right_val>0.9378355741500855</right_val></_>
          <_>
            <!-- node 14 -->
            <feature>
              <rects>
                <_>
                  5 7 3 3 -1.</_>
                <_>
                  6 8 1 1 9.</_></rects>
              <tilted>0</tilted></feature>
            <threshold>7.1546169929206371e-003</threshold>
            <left_val>-0.6694557070732117</left_val>
            <right_val>0.4082019031047821</right_val></_>
          <_>
            <!-- node 15 -->
            <feature>
              <rects>
                <_>
                  9 7 12 15 -1.</_>
                <_>
                  13 12 4 5 9.</_></rects>
              <tilted>0</tilted></feature>
            <threshold>-0.1907974928617477</threshold>
            <left_val>-0.7690271735191345</left_val>
            <right_node>19</right_node></_>
          <_>
            <!-- node 16 -->
            <feature>
              <rects>
                <_>
                  3 22 12 2 -1.</_>
                <_>
                  6 22 6 2 2.</_></rects>
              <tilted>0</tilted></feature>
            <threshold>9.5922371838241816e-004</threshold>
            <left_val>0.2890118956565857</left_val>
            <right_val>-0.6693817973136902</right_val></_>
          <_>
            <!-- node 17 -->
            <feature>
              <rects>
                <_>
                  5 10 12 3 -1.</_>
                <_>
                  5 11 12 1 3.</_></rects>
              <tilted>0</tilted></feature>
            <threshold>-0.0207298696041107</threshold>
            <left_val>-0.0319001115858555</left_val>
            <right_val>-0.7651907205581665</right_val></_>
          <_>
            <!-- node 18 -->
            <feature>
              <rects>
                <_>
                  11 22 2 2 -1.</_>
                <_>
                  11 23 2 1 2.</_></rects>
              <tilted>0</tilted></feature>
            <threshold>-3.3093750244006515e-004</threshold>
            <left_val>-0.6441109180450440</left_val>
            <right_val>0.3871364891529083</right_val></_>
          <_>
            <!-- node 19 -->
            <feature>
              <rects>
                <_>
                  2 0 6 24 -1.</_>
                <_>
                  2 12 6 12 2.</_></rects>
              <tilted>0</tilted></feature>
            <threshold>-0.0274483691900969</threshold>
            <left_val>0.8163306117057800</left_val>
            <right_val>0.0344414785504341</right_val></_></_>
        <_>
          <!-- tree 1 -->
          <_>
            <!-- root node -->
            <feature>
              <rects>
                <_>
                  0 23 2 1 -1.</_>
                <_>
                  1 23 1 1 2.</_></rects>
              <tilted>0</tilted></feature>
            <threshold>2.7441969723440707e-004</threshold>
            <left_node>1</left_node>
            <right_node>15</right_node></_>
          <_>
            <!-- node 1 -->
            <feature>
              <rects>
                <_>
                  18 16 6 7 -1.</_>
                <_>
                  21 16 3 7 2.</_></rects>
              <tilted>0</tilted></feature>
            <threshold>8.2124341279268265e-003</threshold>
            <left_node>2</left_node>
            <right_node>5</right_node></_>
          <_>
            <!-- node 2 -->
            <feature>
              <rects>
                <_>
                  15 23 4 1 -1.</_>
                <_>
                  16 23 2 1 2.</_></rects>
              <tilted>0</tilted></feature>
            <threshold>1.9551589502952993e-004</threshold>
            <left_node>3</left_node>
            <right_node>14</right_node></_>
          <_>
            <!-- node 3 -->
            <feature>
              <rects>
                <_>
                  17 10 4 12 -1.</_>
                <_>
                  18 10 2 12 2.</_></rects>
              <tilted>0</tilted></feature>
            <threshold>3.0024359002709389e-003</threshold>
            <left_node>4</left_node>
            <right_node>7</right_node></_>
          <_>
            <!-- node 4 -->
            <feature>
              <rects>
                <_>
                  0 9 4 12 -1.</_>
                <_>
                  1 9 2 12 2.</_></rects>
              <tilted>0</tilted></feature>
            <threshold>-3.3208299428224564e-003</threshold>
            <left_node>13</left_node>
            <right_node>6</right_node></_>
          <_>
            <!-- node 5 -->
            <feature>
              <rects>
                <_>
                  18 22 1 2 -1.</_>
                <_>
                  18 23 1 1 2.</_></rects>
              <tilted>0</tilted></feature>
            <threshold>-3.4895029966719449e-004</threshold>
            <left_val>-0.3064750134944916</left_val>
            <right_node>8</right_node></_>
          <_>
            <!-- node 6 -->
            <feature>
              <rects>
                <_>
                  1 3 8 6 -1.</_>
                <_>
                  3 3 4 6 2.</_></rects>
              <tilted>0</tilted></feature>
            <threshold>9.0749822556972504e-003</threshold>
            <left_node>10</left_node>
            <right_node>19</right_node></_>
          <_>
            <!-- node 7 -->
            <feature>
              <rects>
                <_>
                  16 23 6 1 -1.</_>
                <_>
                  18 23 2 1 3.</_></rects>
              <tilted>0</tilted></feature>
            <threshold>9.6633180510252714e-004</threshold>
            <left_val>0.6683394908905029</left_val>
            <right_val>-0.4197891950607300</right_val></_>
          <_>
            <!-- node 8 -->
            <feature>
              <rects>
                <_>
                  5 17 15 3 -1.</_>
                <_>
                  5 18 15 1 3.</_></rects>
              <tilted>0</tilted></feature>
            <threshold>-6.6438890062272549e-003</threshold>
            <left_val>0.8131890892982483</left_val>
            <right_node>9</right_node></_>
          <_>
            <!-- node 9 -->
            <feature>
              <rects>
                <_>
                  0 7 8 17 -1.</_>
                <_>
                  4 7 4 17 2.</_></rects>
              <tilted>0</tilted></feature>
            <threshold>-0.0168069992214441</threshold>
            <left_node>11</left_node>
            <right_node>12</right_node></_>
          <_>
            <!-- node 10 -->
            <feature>
              <rects>
                <_>
                  19 12 4 3 -1.</_>
                <_>
                  20 12 2 3 2.</_></rects>
              <tilted>0</tilted></feature>
            <threshold>1.1307529639452696e-003</threshold>
            <left_val>-0.6982774138450623</left_val>
            <right_val>0.1549153029918671</right_val></_>
          <_>
            <!-- node 11 -->
            <feature>
              <rects>
                <_>
                  4 23 6 1 -1.</_>
                <_>
                  6 23 2 1 3.</_></rects>
              <tilted>0</tilted></feature>
            <threshold>-1.5774799976497889e-003</threshold>
            <left_val>-0.6038109064102173</left_val>
            <right_node>16</right_node></_>
          <_>
            <!-- node 12 -->
            <feature>
              <rects>
                <_>
                  16 7 8 2 -1.</_>
                <_>
                  16 7 4 1 2.</_>
                <_>
                  20 8 4 1 2.</_></rects>
              <tilted>0</tilted></feature>
            <threshold>-2.6426240801811218e-003</threshold>
            <left_val>0.5611662864685059</left_val>
            <right_node>17</right_node></_>
          <_>
            <!-- node 13 -->
            <feature>
              <rects>
                <_>
                  5 22 6 2 -1.</_>
                <_>
                  8 22 3 2 2.</_></rects>
              <tilted>0</tilted></feature>
            <threshold>7.0253532612696290e-004</threshold>
            <left_val>0.6305873990058899</left_val>
            <right_val>-0.6260597109794617</right_val></_>
          <_>
            <!-- node 14 -->
            <feature>
              <rects>
                <_>
                  16 15 8 2 -1.</_>
                <_>
                  20 15 4 2 2.</_></rects>
              <tilted>0</tilted></feature>
            <threshold>0.0150791797786951</threshold>
            <left_val>-0.7287201881408691</left_val>
            <right_val>0.5810511708259583</right_val></_>
          <_>
            <!-- node 15 -->
            <feature>
              <rects>
                <_>
                  6 15 18 9 -1.</_>
                <_>
                  12 18 6 3 9.</_></rects>
              <tilted>0</tilted></feature>
            <threshold>-0.2270170003175736</threshold>
            <left_val>-0.0120427599176764</left_val>
            <right_val>-0.8521028757095337</right_val></_>
          <_>
            <!-- node 16 -->
            <feature>
              <rects>
                <_>
                  7 8 12 15 -1.</_>
                <_>
                  13 8 6 15 2.</_></rects>
              <tilted>0</tilted></feature>
            <threshold>-0.0749230384826660</threshold>
            <left_val>-1.</left_val>
            <right_node>18</right_node></_>
          <_>
            <!-- node 17 -->
            <feature>
              <rects>
                <_>
                  1 16 12 3 -1.</_>
                <_>
                  1 17 12 1 3.</_></rects>
              <tilted>0</tilted></feature>
            <threshold>-4.2160730808973312e-003</threshold>
            <left_val>0.2742691040039063</left_val>
            <right_val>-0.7504410743713379</right_val></_>
          <_>
            <!-- node 18 -->
            <feature>
              <rects>
                <_>
                  11 11 6 1 -1.</_>
                <_>
                  11 11 3 1 2.</_></rects>
              <tilted>1</tilted></feature>
            <threshold>1.9645360589493066e-004</threshold>
            <left_val>-3.7098499014973640e-003</left_val>
            <right_val>0.8387376070022583</right_val></_>
          <_>
            <!-- node 19 -->
            <feature>
              <rects>
                <_>
                  4 15 15 9 -1.</_>
                <_>
                  9 15 5 9 3.</_></rects>
              <tilted>0</tilted></feature>
            <threshold>-4.3775700032711029e-003</threshold>
            <left_val>0.5706387162208557</left_val>
            <right_val>-0.4342744946479797</right_val></_></_>
        <_>
          <!-- tree 2 -->
          <_>
            <!-- root node -->
            <feature>
              <rects>
                <_>
                  6 23 3 1 -1.</_>
                <_>
                  7 23 1 1 3.</_></rects>
              <tilted>0</tilted></feature>
            <threshold>3.0414431239478290e-004</threshold>
            <left_node>1</left_node>
            <right_node>12</right_node></_>
          <_>
            <!-- node 1 -->
            <feature>
              <rects>
                <_>
                  3 8 19 3 -1.</_>
                <_>
                  3 9 19 1 3.</_></rects>
              <tilted>0</tilted></feature>
            <threshold>0.0322328582406044</threshold>
            <left_node>2</left_node>
            <right_node>9</right_node></_>
          <_>
            <!-- node 2 -->
            <feature>
              <rects>
                <_>
                  6 23 3 1 -1.</_>
                <_>
                  7 23 1 1 3.</_></rects>
              <tilted>0</tilted></feature>
            <threshold>-3.4257760853506625e-004</threshold>
            <left_val>-0.5734254717826843</left_val>
            <right_node>3</right_node></_>
          <_>
            <!-- node 3 -->
            <feature>
              <rects>
                <_>
                  0 12 24 9 -1.</_>
                <_>
                  8 15 8 3 9.</_></rects>
              <tilted>0</tilted></feature>
            <threshold>-0.4671052992343903</threshold>
            <left_val>0.8308364152908325</left_val>
            <right_node>4</right_node></_>
          <_>
            <!-- node 4 -->
            <feature>
              <rects>
                <_>
                  9 5 14 3 -1.</_>
                <_>
                  9 6 14 1 3.</_></rects>
              <tilted>0</tilted></feature>
            <threshold>-6.8306932225823402e-003</threshold>
            <left_node>8</left_node>
            <right_node>5</right_node></_>
          <_>
            <!-- node 5 -->
            <feature>
              <rects>
                <_>
                  8 6 7 3 -1.</_>
                <_>
                  8 7 7 1 3.</_></rects>
              <tilted>0</tilted></feature>
            <threshold>-7.2805918753147125e-003</threshold>
            <left_node>15</left_node>
            <right_node>6</right_node></_>
          <_>
            <!-- node 6 -->
            <feature>
              <rects>
                <_>
                  8 4 9 3 -1.</_>
                <_>
                  8 5 9 1 3.</_></rects>
              <tilted>0</tilted></feature>
            <threshold>-6.7601250484585762e-003</threshold>
            <left_node>18</left_node>
            <right_node>7</right_node></_>
          <_>
            <!-- node 7 -->
            <feature>
              <rects>
                <_>
                  0 6 2 4 -1.</_>
                <_>
                  0 6 1 2 2.</_>
                <_>
                  1 8 1 2 2.</_></rects>
              <tilted>0</tilted></feature>
            <threshold>-1.7501850379630923e-003</threshold>
            <left_node>17</left_node>
            <right_node>11</right_node></_>
          <_>
            <!-- node 8 -->
            <feature>
              <rects>
                <_>
                  17 0 2 16 -1.</_>
                <_>
                  17 8 2 8 2.</_></rects>
              <tilted>0</tilted></feature>
            <threshold>0.0382892899215221</threshold>
            <left_node>10</left_node>
            <right_val>-0.7118713855743408</right_val></_>
          <_>
            <!-- node 9 -->
            <feature>
              <rects>
                <_>
                  0 8 9 12 -1.</_>
                <_>
                  0 11 9 6 2.</_></rects>
              <tilted>0</tilted></feature>
            <threshold>-0.0748053789138794</threshold>
            <left_val>-0.7584428787231445</left_val>
            <right_node>19</right_node></_>
          <_>
            <!-- node 10 -->
            <feature>
              <rects>
                <_>
                  12 8 12 6 -1.</_>
                <_>
                  12 11 12 3 2.</_></rects>
              <tilted>0</tilted></feature>
            <threshold>-0.0941973924636841</threshold>
            <left_val>-0.9563084840774536</left_val>
            <right_node>16</right_node></_>
          <_>
            <!-- node 11 -->
            <feature>
              <rects>
                <_>
                  12 1 1 3 -1.</_>
                <_>
                  12 2 1 1 3.</_></rects>
              <tilted>0</tilted></feature>
            <threshold>3.3269699197262526e-003</threshold>
            <left_node>13</left_node>
            <right_val>0.5738211870193481</right_val></_>
          <_>
            <!-- node 12 -->
            <feature>
              <rects>
                <_>
                  0 15 15 9 -1.</_>
                <_>
                  5 18 5 3 9.</_></rects>
              <tilted>0</tilted></feature>
            <threshold>-0.2745585143566132</threshold>
            <left_val>0.6303321123123169</left_val>
            <right_val>-0.7497925162315369</right_val></_>
          <_>
            <!-- node 13 -->
            <feature>
              <rects>
                <_>
                  9 0 4 6 -1.</_>
                <_>
                  9 2 4 2 3.</_></rects>
              <tilted>0</tilted></feature>
            <threshold>-4.5137950219213963e-003</threshold>
            <left_node>14</left_node>
            <right_val>-0.8178709149360657</right_val></_>
          <_>
            <!-- node 14 -->
            <feature>
              <rects>
                <_>
                  16 5 8 4 -1.</_>
                <_>
                  20 5 4 4 2.</_></rects>
              <tilted>0</tilted></feature>
            <threshold>5.5717718787491322e-003</threshold>
            <left_val>-0.6095882058143616</left_val>
            <right_val>0.3007762134075165</right_val></_>
          <_>
            <!-- node 15 -->
            <feature>
              <rects>
                <_>
                  1 13 15 8 -1.</_>
                <_>
                  1 17 15 4 2.</_></rects>
              <tilted>0</tilted></feature>
            <threshold>1.2863399460911751e-003</threshold>
            <left_val>0.6740493774414063</left_val>
            <right_val>-0.6228557229042053</right_val></_>
          <_>
            <!-- node 16 -->
            <feature>
              <rects>
                <_>
                  2 2 20 6 -1.</_>
                <_>
                  2 5 20 3 2.</_></rects>
              <tilted>0</tilted></feature>
            <threshold>-0.1183727979660034</threshold>
            <left_val>-0.5305477976799011</left_val>
            <right_val>0.6658905148506165</right_val></_>
          <_>
            <!-- node 17 -->
            <feature>
              <rects>
                <_>
                  2 0 13 16 -1.</_>
                <_>
                  2 8 13 8 2.</_></rects>
              <tilted>0</tilted></feature>
            <threshold>-0.0390434712171555</threshold>
            <left_val>0.6867895722389221</left_val>
            <right_val>-0.6016545891761780</right_val></_>
          <_>
            <!-- node 18 -->
            <feature>
              <rects>
                <_>
                  6 2 12 8 -1.</_>
                <_>
                  6 4 12 4 2.</_></rects>
              <tilted>0</tilted></feature>
            <threshold>-0.0124184601008892</threshold>
            <left_val>-0.4549292922019959</left_val>
            <right_val>0.5734953880310059</right_val></_>
          <_>
            <!-- node 19 -->
            <feature>
              <rects>
                <_>
                  18 10 6 4 -1.</_>
                <_>
                  18 12 6 2 2.</_></rects>
              <tilted>0</tilted></feature>
            <threshold>-0.0290457494556904</threshold>
            <left_val>-0.9999998807907105</left_val>
            <right_val>0.8959078192710877</right_val></_></_></trees>
      <stage_threshold>-0.9524741768836975</stage_threshold>
      <parent>2</parent>
      <next>-1</next></_>
    <_>
      <!-- stage 4 -->
      <trees>
        <_>
          <!-- tree 0 -->
          <_>
            <!-- root node -->
            <feature>
              <rects>
                <_>
                  0 13 8 7 -1.</_>
                <_>
                  4 13 4 7 2.</_></rects>
              <tilted>0</tilted></feature>
            <threshold>-0.0460774488747120</threshold>
            <left_node>3</left_node>
            <right_node>1</right_node></_>
          <_>
            <!-- node 1 -->
            <feature>
              <rects>
                <_>
                  0 21 24 3 -1.</_>
                <_>
                  8 21 8 3 3.</_></rects>
              <tilted>0</tilted></feature>
            <threshold>-6.0829310677945614e-003</threshold>
            <left_node>2</left_node>
            <right_node>14</right_node></_>
          <_>
            <!-- node 2 -->
            <feature>
              <rects>
                <_>
                  10 18 2 6 -1.</_>
                <_>
                  10 20 2 2 3.</_></rects>
              <tilted>0</tilted></feature>
            <threshold>-1.2113109696656466e-003</threshold>
            <left_node>4</left_node>
            <right_node>10</right_node></_>
          <_>
            <!-- node 3 -->
            <feature>
              <rects>
                <_>
                  16 11 8 13 -1.</_>
                <_>
                  20 11 4 13 2.</_></rects>
              <tilted>0</tilted></feature>
            <threshold>0.0407210700213909</threshold>
            <left_node>7</left_node>
            <right_node>6</right_node></_>
          <_>
            <!-- node 4 -->
            <feature>
              <rects>
                <_>
                  8 22 6 2 -1.</_>
                <_>
                  10 22 2 2 3.</_></rects>
              <tilted>0</tilted></feature>
            <threshold>1.0178999509662390e-003</threshold>
            <left_node>5</left_node>
            <right_val>-0.6469208002090454</right_val></_>
          <_>
            <!-- node 5 -->
            <feature>
              <rects>
                <_>
                  9 21 4 3 -1.</_>
                <_>
                  10 21 2 3 2.</_></rects>
              <tilted>0</tilted></feature>
            <threshold>-1.1946220183745027e-003</threshold>
            <left_val>-0.6741623878479004</left_val>
            <right_node>8</right_node></_>
          <_>
            <!-- node 6 -->
            <feature>
              <rects>
                <_>
                  9 10 8 8 -1.</_>
                <_>
                  13 10 4 8 2.</_></rects>
              <tilted>0</tilted></feature>
            <threshold>0.0115907303988934</threshold>
            <left_node>9</left_node>
            <right_val>-0.7202668190002441</right_val></_>
          <_>
            <!-- node 7 -->
            <feature>
              <rects>
                <_>
                  17 5 6 5 -1.</_>
                <_>
                  20 5 3 5 2.</_></rects>
              <tilted>0</tilted></feature>
            <threshold>0.0239927396178246</threshold>
            <left_node>17</left_node>
            <right_val>0.8093488216400147</right_val></_>
          <_>
            <!-- node 8 -->
            <feature>
              <rects>
                <_>
                  0 8 5 10 -1.</_>
                <_>
                  0 13 5 5 2.</_></rects>
              <tilted>0</tilted></feature>
            <threshold>-9.3523617833852768e-003</threshold>
            <left_node>13</left_node>
            <right_val>-0.0601566508412361</right_val></_>
          <_>
            <!-- node 9 -->
            <feature>
              <rects>
                <_>
                  18 17 2 5 -1.</_>
                <_>
                  19 17 1 5 2.</_></rects>
              <tilted>0</tilted></feature>
            <threshold>-5.1880639512091875e-004</threshold>
            <left_val>-0.7664971947669983</left_val>
            <right_node>11</right_node></_>
          <_>
            <!-- node 10 -->
            <feature>
              <rects>
                <_>
                  22 22 2 2 -1.</_>
                <_>
                  23 22 1 2 2.</_></rects>
              <tilted>0</tilted></feature>
            <threshold>5.4588228522334248e-005</threshold>
            <left_val>-0.7434638142585754</left_val>
            <right_node>12</right_node></_>
          <_>
            <!-- node 11 -->
            <feature>
              <rects>
                <_>
                  0 0 20 24 -1.</_>
                <_>
                  5 0 10 24 2.</_></rects>
              <tilted>0</tilted></feature>
            <threshold>-0.3725787103176117</threshold>
            <left_val>-0.8774477839469910</left_val>
            <right_node>15</right_node></_>
          <_>
            <!-- node 12 -->
            <feature>
              <rects>
                <_>
                  2 18 17 3 -1.</_>
                <_>
                  2 19 17 1 3.</_></rects>
              <tilted>0</tilted></feature>
            <threshold>-5.4247961379587650e-003</threshold>
            <left_val>0.2805505096912384</left_val>
            <right_val>-0.4059017002582550</right_val></_>
          <_>
            <!-- node 13 -->
            <feature>
              <rects>
                <_>
                  0 20 24 4 -1.</_>
                <_>
                  0 22 24 2 2.</_></rects>
              <tilted>0</tilted></feature>
            <threshold>-0.0181457009166479</threshold>
            <left_val>-0.5373890995979309</left_val>
            <right_node>16</right_node></_>
          <_>
            <!-- node 14 -->
            <feature>
              <rects>
                <_>
                  0 10 24 9 -1.</_>
                <_>
                  6 10 12 9 2.</_></rects>
              <tilted>0</tilted></feature>
            <threshold>-0.2320457994937897</threshold>
            <left_val>0.5431743264198303</left_val>
            <right_node>18</right_node></_>
          <_>
            <!-- node 15 -->
            <feature>
              <rects>
                <_>
                  6 15 4 5 -1.</_>
                <_>
                  8 15 2 5 2.</_></rects>
              <tilted>0</tilted></feature>
            <threshold>4.7201649285852909e-003</threshold>
            <left_val>0.9345111250877380</left_val>
            <right_val>-0.8520064949989319</right_val></_>
          <_>
            <!-- node 16 -->
            <feature>
              <rects>
                <_>
                  4 0 2 24 -1.</_>
                <_>
                  4 12 2 12 2.</_></rects>
              <tilted>0</tilted></feature>
            <threshold>3.5913989413529634e-003</threshold>
            <left_val>0.7567548751831055</left_val>
            <right_val>-1.0000059604644775</right_val></_>
          <_>
            <!-- node 17 -->
            <feature>
              <rects>
                <_>
                  8 15 13 3 -1.</_>
                <_>
                  8 16 13 1 3.</_></rects>
              <tilted>0</tilted></feature>
            <threshold>-1.5181070193648338e-003</threshold>
            <left_val>0.0853390172123909</left_val>
            <right_val>-0.7250753045082092</right_val></_>
          <_>
            <!-- node 18 -->
            <feature>
              <rects>
                <_>
                  3 2 10 12 -1.</_>
                <_>
                  8 2 5 12 2.</_></rects>
              <tilted>0</tilted></feature>
            <threshold>0.0389988310635090</threshold>
            <left_val>-0.7861623167991638</left_val>
            <right_node>19</right_node></_>
          <_>
            <!-- node 19 -->
            <feature>
              <rects>
                <_>
                  9 20 15 2 -1.</_>
                <_>
                  14 20 5 2 3.</_></rects>
              <tilted>0</tilted></feature>
            <threshold>-2.5447860825806856e-003</threshold>
            <left_val>0.1770893037319183</left_val>
            <right_val>-0.6900789141654968</right_val></_></_>
        <_>
          <!-- tree 1 -->
          <_>
            <!-- root node -->
            <feature>
              <rects>
                <_>
                  0 9 24 15 -1.</_>
                <_>
                  8 14 8 5 9.</_></rects>
              <tilted>0</tilted></feature>
            <threshold>-0.7810078859329224</threshold>
            <left_node>5</left_node>
            <right_node>1</right_node></_>
          <_>
            <!-- node 1 -->
            <feature>
              <rects>
                <_>
                  16 22 1 2 -1.</_>
                <_>
                  16 23 1 1 2.</_></rects>
              <tilted>0</tilted></feature>
            <threshold>3.5799981560558081e-005</threshold>
            <left_node>6</left_node>
            <right_node>2</right_node></_>
          <_>
            <!-- node 2 -->
            <feature>
              <rects>
                <_>
                  15 23 3 1 -1.</_>
                <_>
                  16 23 1 1 3.</_></rects>
              <tilted>0</tilted></feature>
            <threshold>2.8865601052530110e-004</threshold>
            <left_node>3</left_node>
            <right_node>17</right_node></_>
          <_>
            <!-- node 3 -->
            <feature>
              <rects>
                <_>
                  13 22 4 2 -1.</_>
                <_>
                  14 22 2 2 2.</_></rects>
              <tilted>0</tilted></feature>
            <threshold>3.0420761322602630e-004</threshold>
            <left_node>4</left_node>
            <right_val>-0.3744235932826996</right_val></_>
          <_>
            <!-- node 4 -->
            <feature>
              <rects>
                <_>
                  6 21 15 1 -1.</_>
                <_>
                  11 21 5 1 3.</_></rects>
              <tilted>0</tilted></feature>
            <threshold>-7.7825988410040736e-004</threshold>
            <left_node>7</left_node>
            <right_node>10</right_node></_>
          <_>
            <!-- node 5 -->
            <feature>
              <rects>
                <_>
                  7 13 9 6 -1.</_>
                <_>
                  10 13 3 6 3.</_></rects>
              <tilted>0</tilted></feature>
            <threshold>-0.0156461205333471</threshold>
            <left_val>-0.8574563860893250</left_val>
            <right_node>12</right_node></_>
          <_>
            <!-- node 6 -->
            <feature>
              <rects>
                <_>
                  7 1 6 5 -1.</_>
                <_>
                  9 3 2 5 3.</_></rects>
              <tilted>1</tilted></feature>
            <threshold>-0.0115611301735044</threshold>
            <left_node>11</left_node>
            <right_node>8</right_node></_>
          <_>
            <!-- node 7 -->
            <feature>
              <rects>
                <_>
                  12 23 6 1 -1.</_>
                <_>
                  14 23 2 1 3.</_></rects>
              <tilted>0</tilted></feature>
            <threshold>-1.1081510456278920e-003</threshold>
            <left_val>-0.2140128016471863</left_val>
            <right_node>9</right_node></_>
          <_>
            <!-- node 8 -->
            <feature>
              <rects>
                <_>
                  7 0 4 7 -1.</_>
                <_>
                  7 0 2 7 2.</_></rects>
              <tilted>1</tilted></feature>
            <threshold>-0.0203786808997393</threshold>
            <left_node>13</left_node>
            <right_val>-0.7536150217056274</right_val></_>
          <_>
            <!-- node 9 -->
            <feature>
              <rects>
                <_>
                  3 7 18 16 -1.</_>
                <_>
                  3 15 18 8 2.</_></rects>
              <tilted>0</tilted></feature>
            <threshold>-0.0553485192358494</threshold>
            <left_node>15</left_node>
            <right_val>-0.2450221925973892</right_val></_>
          <_>
            <!-- node 10 -->
            <feature>
              <rects>
                <_>
                  2 9 8 10 -1.</_>
                <_>
                  2 14 8 5 2.</_></rects>
              <tilted>0</tilted></feature>
            <threshold>-0.0380088314414024</threshold>
            <left_node>19</left_node>
            <right_val>-0.5239645838737488</right_val></_>
          <_>
            <!-- node 11 -->
            <feature>
              <rects>
                <_>
                  3 4 4 12 -1.</_>
                <_>
                  3 4 2 6 2.</_>
                <_>
                  5 10 2 6 2.</_></rects>
              <tilted>0</tilted></feature>
            <threshold>1.1629570508375764e-003</threshold>
            <left_val>-0.5266714096069336</left_val>
            <right_node>16</right_node></_>
          <_>
            <!-- node 12 -->
            <feature>
              <rects>
                <_>
                  0 14 21 8 -1.</_>
                <_>
                  7 14 7 8 3.</_></rects>
              <tilted>0</tilted></feature>
            <threshold>-0.0598093494772911</threshold>
            <left_val>0.8897188901901245</left_val>
            <right_val>-1.0001289844512939</right_val></_>
          <_>
            <!-- node 13 -->
            <feature>
              <rects>
                <_>
                  2 8 12 5 -1.</_>
                <_>
                  6 8 4 5 3.</_></rects>
              <tilted>0</tilted></feature>
            <threshold>-0.0118231400847435</threshold>
            <left_val>0.3496431112289429</left_val>
            <right_node>14</right_node></_>
          <_>
            <!-- node 14 -->
            <feature>
              <rects>
                <_>
                  11 4 2 11 -1.</_>
                <_>
                  11 4 1 11 2.</_></rects>
              <tilted>1</tilted></feature>
            <threshold>-9.5123406499624252e-003</threshold>
            <left_val>0.6897919774055481</left_val>
            <right_val>-0.7140734791755676</right_val></_>
          <_>
            <!-- node 15 -->
            <feature>
              <rects>
                <_>
                  0 12 7 9 -1.</_>
                <_>
                  0 15 7 3 3.</_></rects>
              <tilted>0</tilted></feature>
            <threshold>-0.0614380091428757</threshold>
            <left_val>-0.7200760841369629</left_val>
            <right_val>0.7462632060050964</right_val></_>
          <_>
            <!-- node 16 -->
            <feature>
              <rects>
                <_>
                  22 14 1 6 -1.</_>
                <_>
                  22 14 1 3 2.</_></rects>
              <tilted>1</tilted></feature>
            <threshold>5.2469869842752814e-005</threshold>
            <left_val>-0.6019127964973450</left_val>
            <right_val>0.3585327863693237</right_val></_>
          <_>
            <!-- node 17 -->
            <feature>
              <rects>
                <_>
                  10 11 7 6 -1.</_>
                <_>
                  8 13 7 2 3.</_></rects>
              <tilted>1</tilted></feature>
            <threshold>-0.0363568402826786</threshold>
            <left_node>18</left_node>
            <right_val>-0.8173074722290039</right_val></_>
          <_>
            <!-- node 18 -->
            <feature>
              <rects>
                <_>
                  5 15 1 4 -1.</_>
                <_>
                  5 17 1 2 2.</_></rects>
              <tilted>0</tilted></feature>
            <threshold>-1.8406669551040977e-004</threshold>
            <left_val>0.5300291776657105</left_val>
            <right_val>-0.9999998211860657</right_val></_>
          <_>
            <!-- node 19 -->
            <feature>
              <rects>
                <_>
                  0 10 7 12 -1.</_>
                <_>
                  0 14 7 4 3.</_></rects>
              <tilted>0</tilted></feature>
            <threshold>-0.0586873702704906</threshold>
            <left_val>-0.5442841053009033</left_val>
            <right_val>0.4647277891635895</right_val></_></_>
        <_>
          <!-- tree 2 -->
          <_>
            <!-- root node -->
            <feature>
              <rects>
                <_>
                  3 23 3 1 -1.</_>
                <_>
                  4 23 1 1 3.</_></rects>
              <tilted>0</tilted></feature>
            <threshold>-6.5083167282864451e-004</threshold>
            <left_node>16</left_node>
            <right_node>1</right_node></_>
          <_>
            <!-- node 1 -->
            <feature>
              <rects>
                <_>
                  21 22 2 2 -1.</_>
                <_>
                  22 22 1 2 2.</_></rects>
              <tilted>0</tilted></feature>
            <threshold>-2.2237160010263324e-004</threshold>
            <left_node>6</left_node>
            <right_node>2</right_node></_>
          <_>
            <!-- node 2 -->
            <feature>
              <rects>
                <_>
                  1 22 1 2 -1.</_>
                <_>
                  1 23 1 1 2.</_></rects>
              <tilted>0</tilted></feature>
            <threshold>-4.3099510367028415e-004</threshold>
            <left_node>12</left_node>
            <right_node>3</right_node></_>
          <_>
            <!-- node 3 -->
            <feature>
              <rects>
                <_>
                  0 20 2 4 -1.</_>
                <_>
                  1 20 1 4 2.</_></rects>
              <tilted>0</tilted></feature>
            <threshold>-7.2243572503793985e-005</threshold>
            <left_node>5</left_node>
            <right_node>4</right_node></_>
          <_>
            <!-- node 4 -->
            <feature>
              <rects>
                <_>
                  9 17 3 2 -1.</_>
                <_>
                  9 17 3 1 2.</_></rects>
              <tilted>1</tilted></feature>
            <threshold>-1.1977580143138766e-003</threshold>
            <left_node>9</left_node>
            <right_node>7</right_node></_>
          <_>
            <!-- node 5 -->
            <feature>
              <rects>
                <_>
                  22 23 2 1 -1.</_>
                <_>
                  23 23 1 1 2.</_></rects>
              <tilted>0</tilted></feature>
            <threshold>-2.6522838743403554e-004</threshold>
            <left_node>15</left_node>
            <right_node>8</right_node></_>
          <_>
            <!-- node 6 -->
            <feature>
              <rects>
                <_>
                  10 18 10 6 -1.</_>
                <_>
                  10 21 10 3 2.</_></rects>
              <tilted>0</tilted></feature>
            <threshold>0.0613607801496983</threshold>
            <left_val>-0.5243741869926453</left_val>
            <right_node>14</right_node></_>
          <_>
            <!-- node 7 -->
            <feature>
              <rects>
                <_>
                  8 0 1 4 -1.</_>
                <_>
                  8 1 1 2 2.</_></rects>
              <tilted>0</tilted></feature>
            <threshold>-1.7257500439882278e-003</threshold>
            <left_val>0.3962518870830536</left_val>
            <right_node>11</right_node></_>
          <_>
            <!-- node 8 -->
            <feature>
              <rects>
                <_>
                  6 22 3 2 -1.</_>
                <_>
                  7 22 1 2 3.</_></rects>
              <tilted>0</tilted></feature>
            <threshold>8.8011770276352763e-004</threshold>
            <left_node>10</left_node>
            <right_val>-0.5017290711402893</right_val></_>
          <_>
            <!-- node 9 -->
            <feature>
              <rects>
                <_>
                  10 19 2 1 -1.</_>
                <_>
                  11 19 1 1 2.</_></rects>
              <tilted>0</tilted></feature>
            <threshold>2.5764311430975795e-004</threshold>
            <left_node>18</left_node>
            <right_val>-0.8111851811408997</right_val></_>
          <_>
            <!-- node 10 -->
            <feature>
              <rects>
                <_>
                  7 21 3 3 -1.</_>
                <_>
                  8 21 1 3 3.</_></rects>
              <tilted>0</tilted></feature>
            <threshold>1.0773380054160953e-003</threshold>
            <left_node>13</left_node>
            <right_val>-0.4316050112247467</right_val></_>
          <_>
            <!-- node 11 -->
            <feature>
              <rects>
                <_>
                  22 3 2 20 -1.</_>
                <_>
                  22 3 1 10 2.</_>
                <_>
                  23 13 1 10 2.</_></rects>
              <tilted>0</tilted></feature>
            <threshold>4.6891490928828716e-003</threshold>
            <left_val>-0.6945762038230896</left_val>
            <right_val>0.1580096036195755</right_val></_>
          <_>
            <!-- node 12 -->
            <feature>
              <rects>
                <_>
                  6 4 16 20 -1.</_>
                <_>
                  6 9 16 10 2.</_></rects>
              <tilted>0</tilted></feature>
            <threshold>-0.0846606791019440</threshold>
            <left_val>0.1567984968423843</left_val>
            <right_val>-0.7388607859611511</right_val></_>
          <_>
            <!-- node 13 -->
            <feature>
              <rects>
                <_>
                  15 3 4 4 -1.</_>
                <_>
                  15 3 2 4 2.</_></rects>
              <tilted>1</tilted></feature>
            <threshold>0.0344764217734337</threshold>
            <left_node>17</left_node>
            <right_val>-0.7236003279685974</right_val></_>
          <_>
            <!-- node 14 -->
            <feature>
              <rects>
                <_>
                  0 18 24 1 -1.</_>
                <_>
                  6 18 12 1 2.</_></rects>
              <tilted>0</tilted></feature>
            <threshold>-0.0106247197836638</threshold>
            <left_val>0.6237792968750000</left_val>
            <right_val>-0.8838765025138855</right_val></_>
          <_>
            <!-- node 15 -->
            <feature>
              <rects>
                <_>
                  2 2 4 6 -1.</_>
                <_>
                  2 2 2 3 2.</_>
                <_>
                  4 5 2 3 2.</_></rects>
              <tilted>0</tilted></feature>
            <threshold>-8.1988982856273651e-003</threshold>
            <left_val>0.7747731208801270</left_val>
            <right_val>-0.8626766800880432</right_val></_>
          <_>
            <!-- node 16 -->
            <feature>
              <rects>
                <_>
                  0 1 6 20 -1.</_>
                <_>
                  0 1 3 10 2.</_>
                <_>
