<?xml version="1.0"?>
<opencv_storage>
<data type_id="opencv-haar-classifier">
  <size>
    24 24</size>
  <stages>
    <_>
      <!-- stage 0 -->
      <trees>
        <_>
          <!-- tree 0 -->
          <_>
            <!-- root node -->
            <feature>
              <rects>
                <_>
                  0 22 24 2 -1.</_>
                <_>
                  6 22 12 2 2.</_></rects>
              <tilted>0</tilted></feature>
            <threshold>1.1684380006045103e-003</threshold>
            <left_node>1</left_node>
            <right_node>4</right_node></_>
          <_>
            <!-- node 1 -->
            <feature>
              <rects>
                <_>
                  1 6 5 16 -1.</_>
                <_>
                  1 14 5 8 2.</_></rects>
              <tilted>0</tilted></feature>
            <threshold>-0.0167337395250797</threshold>
            <left_node>2</left_node>
            <right_node>6</right_node></_>
          <_>
            <!-- node 2 -->
            <feature>
              <rects>
                <_>
                  14 22 3 2 -1.</_>
                <_>
                  14 23 3 1 2.</_></rects>
              <tilted>0</tilted></feature>
            <threshold>-2.7015159503207542e-005</threshold>
            <left_node>5</left_node>
            <right_node>3</right_node></_>
          <_>
            <!-- node 3 -->
            <feature>
              <rects>
                <_>
                  13 23 6 1 -1.</_>
                <_>
                  15 23 2 1 3.</_></rects>
              <tilted>0</tilted></feature>
            <threshold>1.0311569785699248e-003</threshold>
            <left_node>7</left_node>
            <right_val>-0.5353779792785645</right_val></_>
          <_>
            <!-- node 4 -->
            <feature>
              <rects>
                <_>
                  2 17 18 6 -1.</_>
                <_>
                  2 19 18 2 3.</_></rects>
              <tilted>0</tilted></feature>
            <threshold>-0.0539464689791203</threshold>
            <left_node>13</left_node>
            <right_node>12</right_node></_>
          <_>
            <!-- node 5 -->
            <feature>
              <rects>
                <_>
                  3 0 18 9 -1.</_>
                <_>
                  3 3 18 3 3.</_></rects>
              <tilted>0</tilted></feature>
            <threshold>-0.0477286912500858</threshold>
            <left_val>0.7063086032867432</left_val>
            <right_node>9</right_node></_>
          <_>
            <!-- node 6 -->
            <feature>
              <rects>
                <_>
                  3 22 21 2 -1.</_>
                <_>
                  3 23 21 1 2.</_></rects>
              <tilted>0</tilted></feature>
            <threshold>0.0162859801203012</threshold>
            <left_node>8</left_node>
            <right_val>0.4693940877914429</right_val></_>
          <_>
            <!-- node 7 -->
            <feature>
              <rects>
                <_>
                  14 22 2 2 -1.</_>
                <_>
                  15 22 1 2 2.</_></rects>
              <tilted>0</tilted></feature>
            <threshold>-4.6641568769700825e-004</threshold>
            <left_val>-0.3728313148021698</left_val>
            <right_node>11</right_node></_>
          <_>
            <!-- node 8 -->
            <feature>
              <rects>
                <_>
                  6 19 12 4 -1.</_>
                <_>
                  6 21 12 2 2.</_></rects>
              <tilted>0</tilted></feature>
            <threshold>0.0321408882737160</threshold>
            <left_node>18</left_node>
            <right_val>0.5165271162986755</right_val></_>
          <_>
            <!-- node 9 -->
            <feature>
              <rects>
                <_>
                  0 0 16 3 -1.</_>
                <_>
                  0 1 16 1 3.</_></rects>
              <tilted>0</tilted></feature>
            <threshold>-3.0142629984766245e-003</threshold>
            <left_val>0.3822908103466034</left_val>
            <right_node>10</right_node></_>
          <_>
            <!-- node 10 -->
            <feature>
              <rects>
                <_>
                  3 0 21 3 -1.</_>
                <_>
                  3 1 21 1 3.</_></rects>
              <tilted>0</tilted></feature>
            <threshold>0.0129140196368098</threshold>
            <left_val>-0.7698568105697632</left_val>
            <right_val>0.6972569227218628</right_val></_>
          <_>
            <!-- node 11 -->
            <feature>
              <rects>
                <_>
                  8 23 3 1 -1.</_>
                <_>
                  9 23 1 1 3.</_></rects>
              <tilted>0</tilted></feature>
            <threshold>5.3347961511462927e-004</threshold>
            <left_node>14</left_node>
            <right_val>-0.4815317094326019</right_val></_>
          <_>
            <!-- node 12 -->
            <feature>
              <rects>
                <_>
                  0 20 13 4 -1.</_>
                <_>
                  0 22 13 2 2.</_></rects>
              <tilted>0</tilted></feature>
            <threshold>0.0495954491198063</threshold>
            <left_node>15</left_node>
            <right_val>0.1900254935026169</right_val></_>
          <_>
            <!-- node 13 -->
            <feature>
              <rects>
                <_>
                  0 13 24 6 -1.</_>
                <_>
                  8 15 8 2 9.</_></rects>
              <tilted>0</tilted></feature>
            <threshold>4.6583879739046097e-003</threshold>
            <left_val>0.4698554873466492</left_val>
            <right_node>16</right_node></_>
          <_>
            <!-- node 14 -->
            <feature>
              <rects>
                <_>
                  10 0 14 10 -1.</_>
                <_>
                  10 0 14 5 2.</_></rects>
              <tilted>1</tilted></feature>
            <threshold>0.3159221112728119</threshold>
            <left_node>17</left_node>
            <right_val>-0.5542349815368652</right_val></_>
          <_>
            <!-- node 15 -->
            <feature>
              <rects>
                <_>
                  8 0 15 2 -1.</_>
                <_>
                  8 1 15 1 2.</_></rects>
              <tilted>0</tilted></feature>
            <threshold>0.0185390207916498</threshold>
            <left_val>-0.9239835739135742</left_val>
            <right_val>0.0854969099164009</right_val></_>
          <_>
            <!-- node 16 -->
            <feature>
              <rects>
                <_>
                  1 4 23 8 -1.</_>
                <_>
                  1 6 23 4 2.</_></rects>
              <tilted>0</tilted></feature>
            <threshold>0.0501501895487309</threshold>
            <left_val>-0.8321529030799866</left_val>
            <right_val>0.6657621264457703</right_val></_>
          <_>
            <!-- node 17 -->
            <feature>
              <rects>
                <_>
                  6 2 12 21 -1.</_>
                <_>
                  10 9 4 7 9.</_></rects>
              <tilted>0</tilted></feature>
            <threshold>-0.3321669995784760</threshold>
            <left_val>-0.9999998807907105</left_val>
            <right_node>19</right_node></_>
          <_>
            <!-- node 18 -->
            <feature>
              <rects>
                <_>
                  2 13 21 8 -1.</_>
                <_>
                  2 17 21 4 2.</_></rects>
              <tilted>0</tilted></feature>
            <threshold>-0.1106738001108170</threshold>
            <left_val>-0.1334320008754730</left_val>
            <right_val>-0.8840991258621216</right_val></_>
          <_>
            <!-- node 19 -->
            <feature>
              <rects>
                <_>
                  8 22 3 2 -1.</_>
                <_>
                  9 22 1 2 3.</_></rects>
              <tilted>0</tilted></feature>
            <threshold>-1.7888270085677505e-003</threshold>
            <left_val>-0.6759750843048096</left_val>
            <right_val>0.9035673737525940</right_val></_></_>
        <_>
          <!-- tree 1 -->
          <_>
            <!-- root node -->
            <feature>
              <rects>
                <_>
                  22 22 2 2 -1.</_>
                <_>
                  23 22 1 2 2.</_></rects>
              <tilted>0</tilted></feature>
            <threshold>-1.4427069982048124e-004</threshold>
            <left_node>6</left_node>
            <right_node>1</right_node></_>
          <_>
            <!-- node 1 -->
            <feature>
              <rects>
                <_>
                  1 12 8 1 -1.</_>
                <_>
                  1 12 4 1 2.</_></rects>
              <tilted>1</tilted></feature>
            <threshold>9.2650222359225154e-004</threshold>
            <left_node>3</left_node>
            <right_node>2</right_node></_>
          <_>
            <!-- node 2 -->
            <feature>
              <rects>
                <_>
                  12 22 3 2 -1.</_>
                <_>
                  13 22 1 2 3.</_></rects>
              <tilted>0</tilted></feature>
            <threshold>5.6864612270146608e-004</threshold>
            <left_node>4</left_node>
            <right_node>18</right_node></_>
          <_>
            <!-- node 3 -->
            <feature>
              <rects>
                <_>
                  1 9 8 1 -1.</_>
                <_>
                  1 9 4 1 2.</_></rects>
              <tilted>1</tilted></feature>
            <threshold>4.4346350478008389e-004</threshold>
            <left_node>11</left_node>
            <right_node>8</right_node></_>
          <_>
            <!-- node 4 -->
            <feature>
              <rects>
                <_>
                  12 23 2 1 -1.</_>
                <_>
                  13 23 1 1 2.</_></rects>
              <tilted>0</tilted></feature>
            <threshold>-2.8972121072001755e-004</threshold>
            <left_node>17</left_node>
            <right_node>5</right_node></_>
          <_>
            <!-- node 5 -->
            <feature>
              <rects>
                <_>
                  0 2 24 22 -1.</_>
                <_>
                  0 13 24 11 2.</_></rects>
              <tilted>0</tilted></feature>
            <threshold>-0.7844498157501221</threshold>
            <left_node>15</left_node>
            <right_node>7</right_node></_>
          <_>
            <!-- node 6 -->
            <feature>
              <rects>
                <_>
                  0 1 24 3 -1.</_>
                <_>
                  0 2 24 1 3.</_></rects>
              <tilted>0</tilted></feature>
            <threshold>-0.0201592799276114</threshold>
            <left_val>0.4508700072765350</left_val>
            <right_node>9</right_node></_>
          <_>
            <!-- node 7 -->
            <feature>
              <rects>
                <_>
                  0 14 20 10 -1.</_>
                <_>
                  10 14 10 10 2.</_></rects>
              <tilted>0</tilted></feature>
            <threshold>0.1088021993637085</threshold>
            <left_node>10</left_node>
            <right_val>-0.5153983235359192</right_val></_>
          <_>
            <!-- node 8 -->
            <feature>
              <rects>
                <_>
                  6 13 12 5 -1.</_>
                <_>
                  12 13 6 5 2.</_></rects>
              <tilted>0</tilted></feature>
            <threshold>0.0232576392591000</threshold>
            <left_node>12</left_node>
            <right_val>-0.9081999063491821</right_val></_>
          <_>
            <!-- node 9 -->
            <feature>
              <rects>
                <_>
                  4 2 12 4 -1.</_>
                <_>
                  4 3 12 2 2.</_></rects>
              <tilted>0</tilted></feature>
            <threshold>-0.0186085198074579</threshold>
            <left_val>0.2742472887039185</left_val>
            <right_val>-0.8040912151336670</right_val></_>
          <_>
            <!-- node 10 -->
            <feature>
              <rects>
                <_>
                  11 17 3 1 -1.</_>
                <_>
                  12 17 1 1 3.</_></rects>
              <tilted>0</tilted></feature>
            <threshold>-1.4945219736546278e-003</threshold>
            <left_val>-0.5923905968666077</left_val>
            <right_node>13</right_node></_>
          <_>
            <!-- node 11 -->
            <feature>
              <rects>
                <_>
                  8 0 10 2 -1.</_>
                <_>
                  8 1 10 1 2.</_></rects>
              <tilted>0</tilted></feature>
            <threshold>-0.0134282596409321</threshold>
            <left_val>0.6056839227676392</left_val>
            <right_val>-0.8578715920448303</right_val></_>
          <_>
            <!-- node 12 -->
            <feature>
              <rects>
                <_>
                  2 21 1 2 -1.</_>
                <_>
                  2 21 1 1 2.</_></rects>
              <tilted>1</tilted></feature>
            <threshold>1.0211180051555857e-004</threshold>
            <left_node>19</left_node>
            <right_val>-0.4014646112918854</right_val></_>
          <_>
            <!-- node 13 -->
            <feature>
              <rects>
                <_>
                  16 2 5 20 -1.</_>
                <_>
                  16 12 5 10 2.</_></rects>
              <tilted>0</tilted></feature>
            <threshold>0.0449387095868587</threshold>
            <left_node>14</left_node>
            <right_val>-0.6815872788429260</right_val></_>
          <_>
            <!-- node 14 -->
            <feature>
              <rects>
                <_>
                  0 12 23 12 -1.</_>
                <_>
                  0 18 23 6 2.</_></rects>
              <tilted>0</tilted></feature>
            <threshold>-0.5163375139236450</threshold>
            <left_val>-0.8048716187477112</left_val>
            <right_node>16</right_node></_>
          <_>
            <!-- node 15 -->
            <feature>
              <rects>
                <_>
                  7 13 17 3 -1.</_>
                <_>
                  7 14 17 1 3.</_></rects>
              <tilted>0</tilted></feature>
            <threshold>-8.5383672267198563e-003</threshold>
            <left_val>0.6506975293159485</left_val>
            <right_val>-0.6647433042526245</right_val></_>
          <_>
            <!-- node 16 -->
            <feature>
              <rects>
                <_>
                  12 0 12 6 -1.</_>
                <_>
                  12 0 6 6 2.</_></rects>
              <tilted>1</tilted></feature>
            <threshold>0.2043108940124512</threshold>
            <left_val>0.8199893236160278</left_val>
            <right_val>-0.3780714869499207</right_val></_>
          <_>
            <!-- node 17 -->
            <feature>
              <rects>
                <_>
                  3 9 15 3 -1.</_>
                <_>
                  3 10 15 1 3.</_></rects>
              <tilted>0</tilted></feature>
            <threshold>0.0165049303323030</threshold>
            <left_val>-0.7189390063285828</left_val>
            <right_val>0.6488019824028015</right_val></_>
          <_>
            <!-- node 18 -->
            <feature>
              <rects>
                <_>
                  2 7 15 4 -1.</_>
                <_>
                  2 8 15 2 2.</_></rects>
              <tilted>0</tilted></feature>
            <threshold>-0.0148134501650929</threshold>
            <left_val>0.6560804843902588</left_val>
            <right_val>-0.7334364056587219</right_val></_>
          <_>
            <!-- node 19 -->
            <feature>
              <rects>
                <_>
                  4 21 20 2 -1.</_>
                <_>
                  9 21 10 2 2.</_></rects>
              <tilted>0</tilted></feature>
            <threshold>3.6820498644374311e-004</threshold>
            <left_val>0.7035261988639832</left_val>
            <right_val>-0.3528263866901398</right_val></_></_></trees>
      <stage_threshold>-1.3254480361938477</stage_threshold>
      <parent>-1</parent>
      <next>-1</next></_>
    <_>
      <!-- stage 1 -->
      <trees>
        <_>
          <!-- tree 0 -->
          <_>
            <!-- root node -->
            <feature>
              <rects>
                <_>
                  0 3 24 20 -1.</_>
                <_>
                  0 13 24 10 2.</_></rects>
              <tilted>0</tilted></feature>
            <threshold>-0.1674221009016037</threshold>
            <left_node>1</left_node>
            <right_node>6</right_node></_>
          <_>
            <!-- node 1 -->
            <feature>
              <rects>
                <_>
                  10 22 10 2 -1.</_>
                <_>
                  10 23 10 1 2.</_></rects>
              <tilted>0</tilted></feature>
            <threshold>1.9549899734556675e-003</threshold>
            <left_node>3</left_node>
            <right_node>2</right_node></_>
          <_>
            <!-- node 2 -->
            <feature>
              <rects>
                <_>
                  18 23 6 1 -1.</_>
                <_>
                  21 23 3 1 2.</_></rects>
              <tilted>0</tilted></feature>
            <threshold>-8.3994737360626459e-004</threshold>
            <left_val>-0.4356116950511932</left_val>
            <right_node>5</right_node></_>
          <_>
            <!-- node 3 -->
            <feature>
              <rects>
                <_>
                  3 19 13 3 -1.</_>
                <_>
                  3 20 13 1 3.</_></rects>
              <tilted>0</tilted></feature>
            <threshold>-5.4180580191314220e-003</threshold>
            <left_node>8</left_node>
            <right_node>4</right_node></_>
          <_>
            <!-- node 4 -->
            <feature>
              <rects>
                <_>
                  2 18 18 3 -1.</_>
                <_>
                  2 19 18 1 3.</_></rects>
              <tilted>0</tilted></feature>
            <threshold>-7.8363027423620224e-003</threshold>
            <left_node>12</left_node>
            <right_node>9</right_node></_>
          <_>
            <!-- node 5 -->
            <feature>
              <rects>
                <_>
                  7 23 12 1 -1.</_>
                <_>
                  10 23 6 1 2.</_></rects>
              <tilted>0</tilted></feature>
            <threshold>1.6507180407643318e-003</threshold>
            <left_node>10</left_node>
            <right_val>-0.2723146975040436</right_val></_>
          <_>
            <!-- node 6 -->
            <feature>
              <rects>
                <_>
                  16 3 8 19 -1.</_>
                <_>
                  20 3 4 19 2.</_></rects>
              <tilted>0</tilted></feature>
            <threshold>0.0644319802522659</threshold>
            <left_node>16</left_node>
            <right_node>7</right_node></_>
          <_>
            <!-- node 7 -->
            <feature>
              <rects>
                <_>
                  10 0 7 10 -1.</_>
                <_>
                  10 5 7 5 2.</_></rects>
              <tilted>0</tilted></feature>
            <threshold>-0.0235994607210159</threshold>
            <left_node>11</left_node>
            <right_val>-0.8147811889648438</right_val></_>
          <_>
            <!-- node 8 -->
            <feature>
              <rects>
                <_>
                  9 23 3 1 -1.</_>
                <_>
                  10 23 1 1 3.</_></rects>
              <tilted>0</tilted></feature>
            <threshold>-6.3939398387447000e-004</threshold>
            <left_val>-0.8658859729766846</left_val>
            <right_node>13</right_node></_>
          <_>
            <!-- node 9 -->
            <feature>
              <rects>
                <_>
                  1 17 2 1 -1.</_>
                <_>
                  1 17 1 1 2.</_></rects>
              <tilted>1</tilted></feature>
            <threshold>4.3343580910004675e-004</threshold>
            <left_val>-0.7377945780754089</left_val>
            <right_node>14</right_node></_>
          <_>
            <!-- node 10 -->
            <feature>
              <rects>
                <_>
                  0 23 4 1 -1.</_>
                <_>
                  2 23 2 1 2.</_></rects>
              <tilted>0</tilted></feature>
            <threshold>7.9774612095206976e-004</threshold>
            <left_node>17</left_node>
            <right_val>-0.2476938962936401</right_val></_>
          <_>
            <!-- node 11 -->
            <feature>
              <rects>
                <_>
                  11 5 10 14 -1.</_>
                <_>
                  11 12 10 7 2.</_></rects>
              <tilted>0</tilted></feature>
            <threshold>-3.2515509519726038e-003</threshold>
            <left_val>0.6590490937232971</left_val>
            <right_val>-0.4840235114097595</right_val></_>
          <_>
            <!-- node 12 -->
            <feature>
              <rects>
                <_>
                  11 21 3 3 -1.</_>
                <_>
                  12 22 1 1 9.</_></rects>
              <tilted>0</tilted></feature>
            <threshold>7.1286218008026481e-004</threshold>
            <left_val>0.6757680773735046</left_val>
            <right_val>-0.5663446784019470</right_val></_>
          <_>
            <!-- node 13 -->
            <feature>
              <rects>
                <_>
                  9 23 2 1 -1.</_>
                <_>
                  10 23 1 1 2.</_></rects>
              <tilted>0</tilted></feature>
            <threshold>2.3618720297235996e-004</threshold>
            <left_val>0.7458034753799439</left_val>
            <right_val>-0.5192322731018066</right_val></_>
          <_>
            <!-- node 14 -->
            <feature>
              <rects>
                <_>
                  4 23 15 1 -1.</_>
                <_>
                  9 23 5 1 3.</_></rects>
              <tilted>0</tilted></feature>
            <threshold>3.9602330070920289e-004</threshold>
            <left_node>15</left_node>
            <right_val>-0.8333144783973694</right_val></_>
          <_>
            <!-- node 15 -->
            <feature>
              <rects>
                <_>
                  11 23 6 1 -1.</_>
                <_>
                  14 23 3 1 2.</_></rects>
              <tilted>0</tilted></feature>
            <threshold>6.9974199868738651e-004</threshold>
            <left_val>0.3000993132591248</left_val>
            <right_val>-0.7739611864089966</right_val></_>
          <_>
            <!-- node 16 -->
            <feature>
              <rects>
                <_>
                  3 8 19 16 -1.</_>
                <_>
                  3 16 19 8 2.</_></rects>
              <tilted>0</tilted></feature>
            <threshold>-0.2695589959621429</threshold>
            <left_node>18</left_node>
            <right_node>19</right_node></_>
          <_>
            <!-- node 17 -->
            <feature>
              <rects>
                <_>
                  17 23 4 1 -1.</_>
                <_>
                  19 23 2 1 2.</_></rects>
              <tilted>0</tilted></feature>
            <threshold>-8.1624457379803061e-004</threshold>
            <left_val>-0.5785663127899170</left_val>
            <right_val>0.8955215811729431</right_val></_>
          <_>
            <!-- node 18 -->
            <feature>
              <rects>
                <_>
                  0 0 19 6 -1.</_>
                <_>
                  0 3 19 3 2.</_></rects>
              <tilted>0</tilted></feature>
            <threshold>-0.0238086301833391</threshold>
            <left_val>0.5113847255706787</left_val>
            <right_val>-0.8614677190780640</right_val></_>
          <_>
            <!-- node 19 -->
            <feature>
              <rects>
                <_>
                  4 20 14 3 -1.</_>
                <_>
                  4 21 14 1 3.</_></rects>
              <tilted>0</tilted></feature>
            <threshold>-0.0477570481598377</threshold>
            <left_val>0.1672237962484360</left_val>
            <right_val>-0.9264379143714905</right_val></_></_>
        <_>
          <!-- tree 1 -->
          <_>
            <!-- root node -->
            <feature>
              <rects>
                <_>
                  17 0 5 22 -1.</_>
                <_>
                  17 11 5 11 2.</_></rects>
              <tilted>0</tilted></feature>
            <threshold>-0.0180296804755926</threshold>
            <left_node>1</left_node>
            <right_node>6</right_node></_>
          <_>
            <!-- node 1 -->
            <feature>
              <rects>
                <_>
                  10 23 2 1 -1.</_>
                <_>
                  11 23 1 1 2.</_></rects>
              <tilted>0</tilted></feature>
            <threshold>-3.1287889578379691e-004</threshold>
            <left_val>-0.6856877803802490</left_val>
            <right_node>2</right_node></_>
          <_>
            <!-- node 2 -->
            <feature>
              <rects>
                <_>
                  10 23 2 1 -1.</_>
                <_>
                  11 23 1 1 2.</_></rects>
              <tilted>0</tilted></feature>
            <threshold>2.7111321105621755e-004</threshold>
            <left_node>3</left_node>
            <right_node>15</right_node></_>
          <_>
            <!-- node 3 -->
            <feature>
              <rects>
                <_>
                  0 21 24 2 -1.</_>
                <_>
                  8 21 8 2 3.</_></rects>
              <tilted>0</tilted></feature>
            <threshold>-3.2455800101161003e-003</threshold>
            <left_node>5</left_node>
            <right_node>4</right_node></_>
          <_>
            <!-- node 4 -->
            <feature>
              <rects>
                <_>
                  7 18 10 3 -1.</_>
                <_>
                  7 19 10 1 3.</_></rects>
              <tilted>0</tilted></feature>
            <threshold>-6.3298409804701805e-003</threshold>
            <left_node>19</left_node>
            <right_node>8</right_node></_>
          <_>
            <!-- node 5 -->
            <feature>
              <rects>
                <_>
                  1 0 18 24 -1.</_>
                <_>
                  1 0 9 12 2.</_>
                <_>
                  10 12 9 12 2.</_></rects>
              <tilted>0</tilted></feature>
            <threshold>-0.1858021020889282</threshold>
            <left_val>-0.3983081877231598</left_val>
            <right_node>7</right_node></_>
          <_>
            <!-- node 6 -->
            <feature>
              <rects>
                <_>
                  1 10 20 12 -1.</_>
                <_>
                  1 16 20 6 2.</_></rects>
              <tilted>0</tilted></feature>
            <threshold>-0.1817197054624558</threshold>
            <left_node>14</left_node>
            <right_node>10</right_node></_>
          <_>
            <!-- node 7 -->
            <feature>
              <rects>
                <_>
                  9 22 6 2 -1.</_>
                <_>
                  11 22 2 2 3.</_></rects>
              <tilted>0</tilted></feature>
            <threshold>-2.0272650290280581e-003</threshold>
            <left_val>-0.3579699099063873</left_val>
            <right_node>9</right_node></_>
          <_>
            <!-- node 8 -->
            <feature>
              <rects>
                <_>
                  0 19 19 3 -1.</_>
                <_>
                  0 20 19 1 3.</_></rects>
              <tilted>0</tilted></feature>
            <threshold>-0.0212268996983767</threshold>
            <left_val>0.6063690185546875</left_val>
            <right_node>11</right_node></_>
          <_>
            <!-- node 9 -->
            <feature>
              <rects>
                <_>
                  2 2 22 18 -1.</_>
                <_>
                  2 8 22 6 3.</_></rects>
              <tilted>0</tilted></feature>
            <threshold>-0.3522416055202484</threshold>
            <left_val>-0.6505702137947083</left_val>
            <right_node>16</right_node></_>
          <_>
            <!-- node 10 -->
            <feature>
              <rects>
                <_>
                  0 1 4 18 -1.</_>
                <_>
                  0 1 2 9 2.</_>
                <_>
                  2 10 2 9 2.</_></rects>
              <tilted>0</tilted></feature>
            <threshold>-0.0343353115022182</threshold>
            <left_node>18</left_node>
            <right_node>12</right_node></_>
          <_>
            <!-- node 11 -->
            <feature>
              <rects>
                <_>
                  5 17 10 6 -1.</_>
                <_>
                  5 19 10 2 3.</_></rects>
              <tilted>0</tilted></feature>
            <threshold>0.0126863503828645</threshold>
            <left_node>13</left_node>
            <right_val>0.3052350878715515</right_val></_>
          <_>
            <!-- node 12 -->
            <feature>
              <rects>
                <_>
                  3 18 14 2 -1.</_>
                <_>
                  3 19 14 1 2.</_></rects>
              <tilted>0</tilted></feature>
            <threshold>0.0328841209411621</threshold>
            <left_val>-0.8943251967430115</left_val>
            <right_val>0.2831516861915588</right_val></_>
          <_>
            <!-- node 13 -->
            <feature>
              <rects>
                <_>
                  15 11 8 1 -1.</_>
                <_>
                  17 11 4 1 2.</_></rects>
              <tilted>0</tilted></feature>
            <threshold>3.1571539584547281e-003</threshold>
            <left_val>-0.7481011152267456</left_val>
            <right_val>0.2679336071014404</right_val></_>
          <_>
            <!-- node 14 -->
            <feature>
              <rects>
                <_>
                  10 0 2 6 -1.</_>
                <_>
                  10 3 2 3 2.</_></rects>
              <tilted>0</tilted></feature>
            <threshold>-6.8785590119659901e-003</threshold>
            <left_val>0.4798156917095184</left_val>
            <right_node>17</right_node></_>
          <_>
            <!-- node 15 -->
            <feature>
              <rects>
                <_>
                  0 19 20 2 -1.</_>
                <_>
                  0 20 20 1 2.</_></rects>
              <tilted>0</tilted></feature>
            <threshold>0.0245786104351282</threshold>
            <left_val>-0.6670734286308289</left_val>
            <right_val>0.6142070293426514</right_val></_>
          <_>
            <!-- node 16 -->
            <feature>
              <rects>
                <_>
                  6 22 4 2 -1.</_>
                <_>
                  7 22 2 2 2.</_></rects>
              <tilted>0</tilted></feature>
            <threshold>1.0819119634106755e-003</threshold>
            <left_val>0.7618628740310669</left_val>
            <right_val>-0.5342339277267456</right_val></_>
          <_>
            <!-- node 17 -->
            <feature>
              <rects>
                <_>
                  6 11 17 3 -1.</_>
                <_>
                  6 12 17 1 3.</_></rects>
              <tilted>0</tilted></feature>
            <threshold>-0.0137551696971059</threshold>
            <left_val>0.5264201760292053</left_val>
            <right_val>-0.5841075181961060</right_val></_>
          <_>
            <!-- node 18 -->
            <feature>
              <rects>
                <_>
                  14 8 9 7 -1.</_>
                <_>
                  17 11 3 7 3.</_></rects>
              <tilted>1</tilted></feature>
            <threshold>-0.0269519593566656</threshold>
            <left_val>0.6404289007186890</left_val>
            <right_val>-0.7840561866760254</right_val></_>
          <_>
            <!-- node 19 -->
            <feature>
              <rects>
                <_>
                  6 19 6 1 -1.</_>
                <_>
                  9 19 3 1 2.</_></rects>
              <tilted>0</tilted></feature>
            <threshold>-2.5975629687309265e-003</threshold>
            <left_val>-0.9999998807907105</left_val>
            <right_val>0.6782413721084595</right_val></_></_></trees>
      <stage_threshold>-1.3247460126876831</stage_threshold>
      <parent>0</parent>
      <next>-1</next></_>
    <_>
      <!-- stage 2 -->
      <trees>
        <_>
          <!-- tree 0 -->
          <_>
            <!-- root node -->
            <feature>
              <rects>
                <_>
                  2 21 1 2 -1.</_>
                <_>
                  2 21 1 1 2.</_></rects>
              <tilted>1</tilted></feature>
            <threshold>-3.8424489321187139e-004</threshold>
            <left_node>1</left_node>
            <right_node>3</right_node></_>
          <_>
            <!-- node 1 -->
            <feature>
              <rects>
                <_>
                  9 23 12 1 -1.</_>
                <_>
                  13 23 4 1 3.</_></rects>
              <tilted>0</tilted></feature>
            <threshold>1.4803260564804077e-003</threshold>
            <left_node>2</left_node>
            <right_val>-0.6527755260467529</right_val></_>
          <_>
            <!-- node 2 -->
            <feature>
              <rects>
                <_>
                  10 23 6 1 -1.</_>
                <_>
                  13 23 3 1 2.</_></rects>
              <tilted>0</tilted></feature>
            <threshold>-1.2421980500221252e-003</threshold>
            <left_node>14</left_node>
            <right_node>5</right_node></_>
          <_>
            <!-- node 3 -->
            <feature>
              <rects>
                <_>
                  9 0 6 3 -1.</_>
                <_>
                  9 1 6 1 3.</_></rects>
              <tilted>0</tilted></feature>
            <threshold>-6.7469719797372818e-003</threshold>
            <left_node>11</left_node>
            <right_node>4</right_node></_>
          <_>
            <!-- node 4 -->
            <feature>
              <rects>
                <_>
                  9 1 6 3 -1.</_>
                <_>
                  9 2 6 1 3.</_></rects>
              <tilted>0</tilted></feature>
            <threshold>-0.0119731901213527</threshold>
            <left_node>18</left_node>
            <right_node>6</right_node></_>
          <_>
            <!-- node 5 -->
            <feature>
              <rects>
                <_>
                  18 22 6 2 -1.</_>
                <_>
                  21 22 3 2 2.</_></rects>
              <tilted>0</tilted></feature>
            <threshold>6.1539751186501235e-005</threshold>
            <left_node>9</left_node>
            <right_node>7</right_node></_>
          <_>
            <!-- node 6 -->
            <feature>
              <rects>
                <_>
                  5 0 10 9 -1.</_>
                <_>
                  5 3 10 3 3.</_></rects>
              <tilted>0</tilted></feature>
            <threshold>-0.0362801812589169</threshold>
            <left_node>10</left_node>
            <right_node>12</right_node></_>
          <_>
            <!-- node 7 -->
            <feature>
              <rects>
                <_>
                  0 15 22 8 -1.</_>
                <_>
                  11 15 11 8 2.</_></rects>
              <tilted>0</tilted></feature>
            <threshold>0.1019878983497620</threshold>
            <left_node>8</left_node>
            <right_val>-0.4180434048175812</right_val></_>
          <_>
            <!-- node 8 -->
            <feature>
              <rects>
                <_>
                  0 19 18 5 -1.</_>
                <_>
                  9 19 9 5 2.</_></rects>
              <tilted>0</tilted></feature>
            <threshold>-0.0650774985551834</threshold>
            <left_val>-0.4202277064323425</left_val>
            <right_node>16</right_node></_>
          <_>
            <!-- node 9 -->
            <feature>
              <rects>
                <_>
                  1 6 12 8 -1.</_>
                <_>
                  1 6 6 4 2.</_>
                <_>
                  7 10 6 4 2.</_></rects>
              <tilted>0</tilted></feature>
            <threshold>0.0108137903735042</threshold>
            <left_node>17</left_node>
            <right_val>0.5146182179450989</right_val></_>
          <_>
            <!-- node 10 -->
            <feature>
              <rects>
                <_>
                  3 15 9 9 -1.</_>
                <_>
                  3 18 9 3 3.</_></rects>
              <tilted>0</tilted></feature>
            <threshold>-0.0112552596256137</threshold>
            <left_node>15</left_node>
            <right_val>-0.5679007172584534</right_val></_>
          <_>
            <!-- node 11 -->
            <feature>
              <rects>
                <_>
                  4 23 2 1 -1.</_>
                <_>
                  5 23 1 1 2.</_></rects>
              <tilted>0</tilted></feature>
            <threshold>1.8637310131452978e-004</threshold>
            <left_node>13</left_node>
            <right_val>-0.7120640873908997</right_val></_>
          <_>
            <!-- node 12 -->
            <feature>
              <rects>
                <_>
                  0 0 14 2 -1.</_>
                <_>
                  0 0 7 1 2.</_>
                <_>
                  7 1 7 1 2.</_></rects>
              <tilted>0</tilted></feature>
            <threshold>0.0105352299287915</threshold>
            <left_node>19</left_node>
            <right_val>8.1010479480028152e-003</right_val></_>
          <_>
            <!-- node 13 -->
            <feature>
              <rects>
                <_>
                  6 23 2 1 -1.</_>
                <_>
                  7 23 1 1 2.</_></rects>
              <tilted>0</tilted></feature>
            <threshold>1.8298870418220758e-004</threshold>
            <left_val>0.6202912926673889</left_val>
            <right_val>-0.8150088191032410</right_val></_>
          <_>
            <!-- node 14 -->
            <feature>
              <rects>
                <_>
                  10 22 6 2 -1.</_>
                <_>
                  13 22 3 2 2.</_></rects>
              <tilted>0</tilted></feature>
            <threshold>-3.7263880949467421e-003</threshold>
            <left_val>-0.8498920798301697</left_val>
            <right_val>-0.0731537565588951</right_val></_>
          <_>
            <!-- node 15 -->
            <feature>
              <rects>
                <_>
                  8 16 12 6 -1.</_>
                <_>
                  14 16 6 6 2.</_></rects>
              <tilted>0</tilted></feature>
            <threshold>0.0155373895540833</threshold>
            <left_val>0.4272108078002930</left_val>
            <right_val>-0.8555170297622681</right_val></_>
          <_>
            <!-- node 16 -->
            <feature>
              <rects>
                <_>
                  3 22 16 2 -1.</_>
                <_>
                  7 22 8 2 2.</_></rects>
              <tilted>0</tilted></feature>
            <threshold>1.6400530003011227e-003</threshold>
            <left_val>0.8694244027137756</left_val>
            <right_val>0.1398046016693115</right_val></_>
          <_>
            <!-- node 17 -->
            <feature>
              <rects>
                <_>
                  1 0 3 7 -1.</_>
                <_>
                  2 0 1 7 3.</_></rects>
              <tilted>0</tilted></feature>
            <threshold>-8.6782011203467846e-004</threshold>
            <left_val>0.2023452967405319</left_val>
            <right_val>-0.6233127117156982</right_val></_>
          <_>
            <!-- node 18 -->
            <feature>
              <rects>
                <_>
                  8 23 9 1 -1.</_>
                <_>
                  11 23 3 1 3.</_></rects>
              <tilted>0</tilted></feature>
            <threshold>7.6056318357586861e-004</threshold>
            <left_val>0.5869920849800110</left_val>
            <right_val>-0.6894537806510925</right_val></_>
          <_>
            <!-- node 19 -->
            <feature>
              <rects>
                <_>
                  4 12 6 3 -1.</_>
                <_>
                  4 13 6 1 3.</_></rects>
              <tilted>0</tilted></feature>
            <threshold>-5.4739410988986492e-003</threshold>
            <left_val>-0.2703134119510651</left_val>
            <right_val>-0.8097081184387207</right_val></_></_>
        <_>
          <!-- tree 1 -->
          <_>
            <!-- root node -->
            <feature>
              <rects>
                <_>
                  0 23 2 1 -1.</_>
                <_>
                  1 23 1 1 2.</_></rects>
              <tilted>0</tilted></feature>
            <threshold>1.0212659981334582e-004</threshold>
            <left_node>1</left_node>
            <right_node>9</right_node></_>
          <_>
            <!-- node 1 -->
            <feature>
              <rects>
                <_>
                  8 22 16 2 -1.</_>
                <_>
                  8 23 16 1 2.</_></rects>
              <tilted>0</tilted></feature>
            <threshold>6.5221530385315418e-003</threshold>
            <left_node>2</left_node>
            <right_node>4</right_node></_>
          <_>
            <!-- node 2 -->
            <feature>
              <rects>
                <_>
                  7 19 11 3 -1.</_>
                <_>
                  7 20 11 1 3.</_></rects>
              <tilted>0</tilted></feature>
            <threshold>-6.2893778085708618e-003</threshold>
            <left_node>13</left_node>
            <right_node>3</right_node></_>
          <_>
            <!-- node 3 -->
            <feature>
              <rects>
                <_>
                  4 18 18 3 -1.</_>
                <_>
                  4 19 18 1 3.</_></rects>
              <tilted>0</tilted></feature>
            <threshold>-6.8744029849767685e-003</threshold>
            <left_node>8</left_node>
            <right_node>6</right_node></_>
          <_>
            <!-- node 4 -->
            <feature>
              <rects>
                <_>
                  9 22 3 1 -1.</_>
                <_>
                  10 22 1 1 3.</_></rects>
              <tilted>0</tilted></feature>
            <threshold>-5.4573029046878219e-004</threshold>
            <left_val>-0.8007053136825562</left_val>
            <right_node>5</right_node></_>
          <_>
            <!-- node 5 -->
            <feature>
              <rects>
                <_>
                  1 6 6 16 -1.</_>
                <_>
                  1 14 6 8 2.</_></rects>
              <tilted>0</tilted></feature>
            <threshold>-0.0226855408400297</threshold>
            <left_node>7</left_node>
            <right_node>17</right_node></_>
          <_>
            <!-- node 6 -->
            <feature>
              <rects>
                <_>
                  4 17 12 3 -1.</_>
                <_>
                  4 18 12 1 3.</_></rects>
              <tilted>0</tilted></feature>
            <threshold>-4.4047599658370018e-003</threshold>
            <left_node>18</left_node>
            <right_node>12</right_node></_>
          <_>
            <!-- node 7 -->
            <feature>
              <rects>
                <_>
                  20 23 2 1 -1.</_>
                <_>
                  21 23 1 1 2.</_></rects>
              <tilted>0</tilted></feature>
            <threshold>-2.6162571157328784e-004</threshold>
            <left_val>-0.2881118953227997</left_val>
            <right_node>15</right_node></_>
          <_>
            <!-- node 8 -->
            <feature>
              <rects>
                <_>
                  3 23 21 1 -1.</_>
                <_>
                  10 23 7 1 3.</_></rects>
              <tilted>0</tilted></feature>
            <threshold>-1.2146739754825830e-004</threshold>
            <left_node>10</left_node>
            <right_val>-0.4967699050903320</right_val></_>
          <_>
            <!-- node 9 -->
            <feature>
              <rects>
                <_>
                  0 5 2 7 -1.</_>
                <_>
                  1 5 1 7 2.</_></rects>
              <tilted>0</tilted></feature>
            <threshold>-4.5311328722164035e-004</threshold>
            <left_node>11</left_node>
            <right_val>-0.7329369783401489</right_val></_>
          <_>
            <!-- node 10 -->
            <feature>
              <rects>
                <_>
                  3 19 18 5 -1.</_>
                <_>
                  9 19 6 5 3.</_></rects>
              <tilted>0</tilted></feature>
            <threshold>-0.0513851903378963</threshold>
            <left_val>-0.9631158113479614</left_val>
            <right_val>0.5537456870079041</right_val></_>
          <_>
            <!-- node 11 -->
            <feature>
              <rects>
                <_>
                  18 3 6 17 -1.</_>
                <_>
                  21 3 3 17 2.</_></rects>
              <tilted>0</tilted></feature>
            <threshold>0.0300217792391777</threshold>
            <left_node>19</left_node>
            <right_val>0.3707610964775085</right_val></_>
          <_>
            <!-- node 12 -->
            <feature>
              <rects>
                <_>
                  21 8 3 3 -1.</_>
                <_>
                  21 9 3 1 3.</_></rects>
              <tilted>0</tilted></feature>
            <threshold>-1.9685789011418819e-003</threshold>
            <left_val>-0.0576715394854546</left_val>
            <right_val>-0.7822201251983643</right_val></_>
          <_>
            <!-- node 13 -->
            <feature>
              <rects>
                <_>
                  9 21 3 3 -1.</_>
                <_>
                  10 21 1 3 3.</_></rects>
              <tilted>0</tilted></feature>
            <threshold>7.8041310189291835e-004</threshold>
            <left_node>14</left_node>
            <right_val>-0.4341824054718018</right_val></_>
          <_>
            <!-- node 14 -->
            <feature>
              <rects>
                <_>
                  10 11 1 12 -1.</_>
                <_>
                  10 15 1 4 3.</_></rects>
              <tilted>0</tilted></feature>
            <threshold>9.8970383405685425e-003</threshold>
            <left_val>0.6727089285850525</left_val>
            <right_val>-0.4092943072319031</right_val></_>
          <_>
            <!-- node 15 -->
            <feature>
              <rects>
                <_>
                  1 15 10 9 -1.</_>
                <_>
                  1 18 10 3 3.</_></rects>
              <tilted>0</tilted></feature>
            <threshold>-0.1329485028982163</threshold>
            <left_val>-0.8767591714859009</left_val>
            <right_node>16</right_node></_>
          <_>
            <!-- node 16 -->
            <feature>
              <rects>
                <_>
                  13 17 1 6 -1.</_>
                <_>
                  13 17 1 3 2.</_></rects>
              <tilted>1</tilted></feature>
            <threshold>0.0110101802274585</threshold>
            <left_val>0.8540887832641602</left_val>
            <right_val>-0.4654836058616638</right_val></_>
          <_>
            <!-- node 17 -->
            <feature>
              <rects>
                <_>
                  6 17 7 3 -1.</_>
                <_>
                  6 18 7 1 3.</_></rects>
              <tilted>0</tilted></feature>
            <threshold>-4.8560388386249542e-003</threshold>
            <left_val>0.6082345843315125</left_val>
            <right_val>-0.5034453868865967</right_val></_>
          <_>
            <!-- node 18 -->
            <feature>
              <rects>
                <_>
                  5 19 11 2 -1.</_>
                <_>
                  5 20 11 1 2.</_></rects>
              <tilted>0</tilted></feature>
            <threshold>-2.0361130591481924e-003</threshold>
            <left_val>0.5446264147758484</left_val>
            <right_val>-0.2747085988521576</right_val></_>
          <_>
            <!-- node 19 -->
            <feature>
              <rects>
                <_>
                  12 0 6 9 -1.</_>
                <_>
                  14 3 2 3 9.</_></rects>
              <tilted>0</tilted></feature>
            <threshold>-0.0207453090697527</threshold>
            <left_val>0.0518059693276882</left_val>
            <right_val>-0.8761743903160095</right_val></_></_>
        <_>
          <!-- tree 2 -->
          <_>
            <!-- root node -->
            <feature>
              <rects>
                <_>
                  14 23 4 1 -1.</_>
                <_>
                  16 23 2 1 2.</_></rects>
              <tilted>0</tilted></feature>
            <threshold>-5.8400607667863369e-004</threshold>
            <left_node>7</left_node>
            <right_node>1</right_node></_>
          <_>
            <!-- node 1 -->
            <feature>
              <rects>
                <_>
                  12 23 12 1 -1.</_>
                <_>
                  16 23 4 1 3.</_></rects>
              <tilted>0</tilted></feature>
            <threshold>6.9423718377947807e-004</threshold>
            <left_node>2</left_node>
            <right_node>5</right_node></_>
          <_>
            <!-- node 2 -->
            <feature>
              <rects>
                <_>
                  0 22 10 2 -1.</_>
                <_>
                  5 22 5 2 2.</_></rects>
              <tilted>0</tilted></feature>
            <threshold>2.3603900335729122e-003</threshold>
            <left_node>3</left_node>
            <right_node>14</right_node></_>
          <_>
            <!-- node 3 -->
            <feature>
              <rects>
                <_>
                  19 9 2 10 -1.</_>
                <_>
                  19 14 2 5 2.</_></rects>
              <tilted>0</tilted></feature>
            <threshold>-2.9487630818039179e-003</threshold>
            <left_node>4</left_node>
            <right_node>6</right_node></_>
          <_>
            <!-- node 4 -->
            <feature>
              <rects>
                <_>
                  3 18 18 3 -1.</_>
                <_>
                  12 18 9 3 2.</_></rects>
              <tilted>0</tilted></feature>
            <threshold>-0.0376296304166317</threshold>
            <left_val>-0.5413392186164856</left_val>
            <right_node>8</right_node></_>
          <_>
            <!-- node 5 -->
            <feature>
              <rects>
                <_>
                  0 6 15 4 -1.</_>
                <_>
                  5 6 5 4 3.</_></rects>
              <tilted>0</tilted></feature>
            <threshold>-0.0178552102297544</threshold>
            <left_node>10</left_node>
            <right_node>11</right_node></_>
          <_>
            <!-- node 6 -->
            <feature>
              <rects>
                <_>
                  20 14 1 4 -1.</_>
                <_>
                  20 16 1 2 2.</_></rects>
              <tilted>0</tilted></feature>
            <threshold>-4.4754581176675856e-004</threshold>
            <left_val>0.4783228933811188</left_val>
            <right_node>13</right_node></_>
          <_>
            <!-- node 7 -->
            <feature>
              <rects>
                <_>
                  3 20 21 3 -1.</_>
                <_>
                  3 21 21 1 3.</_></rects>
              <tilted>0</tilted></feature>
            <threshold>-0.0249722804874182</threshold>
            <left_val>0.2355991005897522</left_val>
            <right_val>-0.7580301165580750</right_val></_>
          <_>
            <!-- node 8 -->
            <feature>
              <rects>
                <_>
                  0 12 24 10 -1.</_>
                <_>
                  0 17 24 5 2.</_></rects>
              <tilted>0</tilted></feature>
            <threshold>-0.3967421948909760</threshold>
            <left_val>-0.7817469835281372</left_val>
            <right_node>9</right_node></_>
          <_>
            <!-- node 9 -->
            <feature>
              <rects>
                <_>
                  15 23 3 1 -1.</_>
                <_>
                  16 23 1 1 3.</_></rects>
              <tilted>0</tilted></feature>
            <threshold>3.9863100391812623e-004</threshold>
            <left_node>12</left_node>
            <right_val>-0.4544638097286224</right_val></_>
          <_>
            <!-- node 10 -->
            <feature>
              <rects>
                <_>
                  0 23 8 1 -1.</_>
                <_>
                  4 23 4 1 2.</_></rects>
              <tilted>0</tilted></feature>
            <threshold>-4.1531571187078953e-003</threshold>
            <left_val>-0.8473939895629883</left_val>
            <right_node>16</right_node></_>
          <_>
            <!-- node 11 -->
            <feature>
              <rects>
                <_>
                  10 7 12 3 -1.</_>
                <_>
                  10 8 12 1 3.</_></rects>
              <tilted>0</tilted></feature>
            <threshold>-5.6883092038333416e-003</threshold>
            <left_node>19</left_node>
            <right_node>17</right_node></_>
          <_>
            <!-- node 12 -->
            <feature>
              <rects>
                <_>
                  5 5 15 15 -1.</_>
                <_>
                  10 10 5 5 9.</_></rects>
              <tilted>0</tilted></feature>
            <threshold>-0.2284417003393173</threshold>
            <left_val>-0.4559389948844910</left_val>
            <right_node>15</right_node></_>
          <_>
            <!-- node 13 -->
            <feature>
              <rects>
                <_>
                  3 14 17 3 -1.</_>
                <_>
                  3 15 17 1 3.</_></rects>
              <tilted>0</tilted></feature>
            <threshold>-0.0115561503916979</threshold>
            <left_val>0.5599045157432556</left_val>
            <right_val>-0.5641394257545471</right_val></_>
          <_>
            <!-- node 14 -->
            <feature>
              <rects>
                <_>
                  3 3 7 2 -1.</_>
                <_>
                  3 3 7 1 2.</_></rects>
              <tilted>1</tilted></feature>
            <threshold>-1.2593440478667617e-003</threshold>
            <left_val>0.0619258992373943</left_val>
            <right_val>-0.7612050771713257</right_val></_>
          <_>
            <!-- node 15 -->
            <feature>
              <rects>
                <_>
                  14 9 6 15 -1.</_>
                <_>
                  16 14 2 5 9.</_></rects>
              <tilted>0</tilted></feature>
            <threshold>-0.1835899949073792</threshold>
            <left_val>-0.8556569814682007</left_val>
            <right_node>18</right_node></_>
          <_>
            <!-- node 16 -->
            <feature>
              <rects>
                <_>
                  5 8 12 16 -1.</_>
                <_>
                  5 8 6 8 2.</_>
                <_>
                  11 16 6 8 2.</_></rects>
              <tilted>0</tilted></feature>
            <threshold>-0.0673918575048447</threshold>
            <left_val>-0.8976150155067444</left_val>
            <right_val>0.4377517104148865</right_val></_>
          <_>
            <!-- node 17 -->
            <feature>
              <rects>
                <_>
                  6 7 9 2 -1.</_>
                <_>
                  6 8 9 1 2.</_></rects>
              <tilted>0</tilted></feature>
            <threshold>9.1809239238500595e-003</threshold>
            <left_val>-0.8039038777351379</left_val>
            <right_val>0.2494055032730103</right_val></_>
          <_>
            <!-- node 18 -->
            <feature>
              <rects>
                <_>
                  8 0 16 8 -1.</_>
                <_>
                  8 0 16 4 2.</_></rects>
              <tilted>1</tilted></feature>
            <threshold>0.2213091999292374</threshold>
            <left_val>0.7459635138511658</left_val>
            <right_val>-0.4536297917366028</right_val></_>
          <_>
            <!-- node 19 -->
            <feature>
              <rects>
                <_>
                  14 13 3 1 -1.</_>
                <_>
                  15 13 1 1 3.</_></rects>
              <tilted>0</tilted></feature>
            <threshold>2.2540839563589543e-004</threshold>
            <left_val>0.2989616990089417</left_val>
            <right_val>-0.9202507138252258</right_val></_></_></trees>
      <stage_threshold>-1.0598659515380859</stage_threshold>
      <parent>1</parent>
      <next>-1</next></_>
    <_>
      <!-- stage 3 -->
      <trees>
        <_>
          <!-- tree 0 -->
          <_>
            <!-- root node -->
            <feature>
              <rects>
                <_>
                  1 22 20 2 -1.</_>
                <_>
                  1 23 20 1 2.</_></rects>
              <tilted>0</tilted></feature>
            <threshold>0.0104984501376748</threshold>
            <left_node>1</left_node>
            <right_node>2</right_node></_>
          <_>
            <!-- node 1 -->
            <feature>
              <rects>
                <_>
                  9 23 8 1 -1.</_>
                <_>
                  11 23 4 1 2.</_></rects>
              <tilted>0</tilted></feature>
            <threshold>5.2564730867743492e-004</threshold>
            <left_node>3</left_node>
            <right_val>-0.7930684089660645</right_val></_>
          <_>
            <!-- node 2 -->
            <feature>
              <rects>
                <_>
                  0 22 20 1 -1.</_>
                <_>
                  5 22 10 1 2.</_></rects>
              <tilted>0</tilted></feature>
            <threshold>-6.4988176745828241e-005</threshold>
            <left_node>4</left_node>
            <right_val>-0.5064622163772583</right_val></_>
          <_>
            <!-- node 3 -->
            <feature>
              <rects>
                <_>
                  5 23 9 1 -1.</_>
                <_>
                  8 23 3 1 3.</_></rects>
              <tilted>0</tilted></feature>
            <threshold>8.8220398174598813e-004</threshold>
            <left_node>5</left_node>
            <right_val>-0.7074459791183472</right_val></_>
          <_>
            <!-- node 4 -->
            <feature>
              <rects>
                <_>
                  9 22 15 1 -1.</_>
                <_>
                  14 22 5 1 3.</_></rects>
              <tilted>0</tilted></feature>
            <threshold>1.0799430310726166e-003</threshold>
            <left_node>6</left_node>
            <right_val>-0.4799607098102570</right_val></_>
          <_>
            <!-- node 5 -->
            <feature>
              <rects>
                <_>
                  0 18 4 4 -1.</_>
                <_>
                  1 18 2 4 2.</_></rects>
              <tilted>0</tilted></feature>
            <threshold>-9.9441804923117161e-004</threshold>
            <left_node>9</left_node>
            <right_node>7</right_node></_>
          <_>
            <!-- node 6 -->
            <feature>
              <rects>
                <_>
                  7 22 8 2 -1.</_>
                <_>
                  9 22 4 2 2.</_></rects>
              <tilted>0</tilted></feature>
            <threshold>1.0800199816003442e-003</threshold>
            <left_node>10</left_node>
            <right_val>-0.3352434933185577</right_val></_>
          <_>
            <!-- node 7 -->
            <feature>
              <rects>
                <_>
                  5 0 12 3 -1.</_>
                <_>
                  5 1 12 1 3.</_></rects>
              <tilted>0</tilted></feature>
            <threshold>-0.0127472197636962</threshold>
            <left_node>12</left_node>
            <right_node>8</right_node></_>
          <_>
            <!-- node 8 -->
            <feature>
              <rects>
                <_>
                  10 0 6 3 -1.</_>
                <_>
                  10 1 6 1 3.</_></rects>
              <tilted>0</tilted></feature>
            <threshold>9.4560198485851288e-003</threshold>
            <left_node>14</left_node>
            <right_node>13</right_node></_>
          <_>
            <!-- node 9 -->
            <feature>
              <rects>
                <_>
                  12 23 12 1 -1.</_>
                <_>
                  15 23 6 1 2.</_></rects>
              <tilted>0</tilted></feature>
            <threshold>1.1056449729949236e-003</threshold>
            <left_node>11</left_node>
            <right_val>-0.4611280858516693</right_val></_>
          <_>
            <!-- node 10 -->
            <feature>
              <rects>
                <_>
                  8 22 6 2 -1.</_>
                <_>
                  10 22 2 2 3.</_></rects>
              <tilted>0</tilted></feature>
            <threshold>-2.9590090271085501e-003</threshold>
            <left_val>-0.8573654294013977</left_val>
            <right_node>15</right_node></_>
          <_>
            <!-- node 11 -->
            <feature>
              <rects>
                <_>
                  1 6 2 16 -1.</_>
                <_>
                  1 14 2 8 2.</_></rects>
              <tilted>0</tilted></feature>
            <threshold>-7.6381671242415905e-003</threshold>
            <left_node>18</left_node>
            <right_val>-0.3158785104751587</right_val></_>
          <_>
            <!-- node 12 -->
            <feature>
              <rects>
                <_>
                  16 0 1 6 -1.</_>
                <_>
                  16 0 1 3 2.</_></rects>
              <tilted>1</tilted></feature>
            <threshold>-0.0108059803023934</threshold>
            <left_val>-0.7225174903869629</left_val>
            <right_val>0.5034629702568054</right_val></_>
          <_>
            <!-- node 13 -->
            <feature>
              <rects>
                <_>
                  20 0 3 3 -1.</_>
                <_>
                  20 1 3 1 3.</_></rects>
              <tilted>0</tilted></feature>
            <threshold>4.2358660139143467e-003</threshold>
            <left_val>0.5778205990791321</left_val>
            <right_val>-0.4250442087650299</right_val></_>
          <_>
            <!-- node 14 -->
            <feature>
              <rects>
                <_>
                  6 10 15 3 -1.</_>
                <_>
                  6 11 15 1 3.</_></rects>
              <tilted>0</tilted></feature>
            <threshold>-5.7570948265492916e-003</threshold>
            <left_val>-0.0442429296672344</left_val>
            <right_node>16</right_node></_>
          <_>
            <!-- node 15 -->
            <feature>
              <rects>
                <_>
                  13 22 1 2 -1.</_>
                <_>
                  13 23 1 1 2.</_></rects>
              <tilted>0</tilted></feature>
            <threshold>1.5663770318496972e-004</threshold>
            <left_val>-0.7594302892684937</left_val>
            <right_node>17</right_node></_>
          <_>
            <!-- node 16 -->
            <feature>
              <rects>
                <_>
                  10 11 14 3 -1.</_>
                <_>
                  10 12 14 1 3.</_></rects>
              <tilted>0</tilted></feature>
            <threshold>-4.5537268742918968e-003</threshold>
            <left_val>-0.1630998998880386</left_val>
            <right_val>-0.7366526126861572</right_val></_>
          <_>
            <!-- node 17 -->
            <feature>
              <rects>
                <_>
                  1 17 16 6 -1.</_>
                <_>
                  1 20 16 3 2.</_></rects>
              <tilted>0</tilted></feature>
            <threshold>-0.1073471009731293</threshold>
            <left_val>-0.9999995827674866</left_val>
            <right_val>0.8546270132064819</right_val></_>
          <_>
            <!-- node 18 -->
            <feature>
              <rects>
                <_>
                  6 23 3 1 -1.</_>
                <_>
                  7 23 1 1 3.</_></rects>
              <tilted>0</tilted></feature>
            <threshold>4.4313989928923547e-004</threshold>
            <left_node>19</left_node>
            <right_val>-0.7429193854331970</right_val></_>
          <_>
            <!-- node 19 -->
            <feature>
              <rects>
                <_>
                  13 5 11 15 -1.</_>
                <_>
                  13 10 11 5 3.</_></rects>
              <tilted>0</tilted></feature>
            <threshold>-0.1328942030668259</threshold>
            <left_val>-0.7305200099945068</left_val>
            <right_val>0.7334768176078796</right_val></_></_>
        <_>
          <!-- tree 1 -->
          <_>
            <!-- root node -->
            <feature>
              <rects>
                <_>
                  0 23 12 1 -1.</_>
                <_>
                  3 23 6 1 2.</_></rects>
              <tilted>0</tilted></feature>
            <threshold>9.3823688803240657e-004</threshold>
            <left_node>1</left_node>
            <right_node>6</right_node></_>
          <_>
            <!-- node 1 -->
            <feature>
              <rects>
                <_>
                  22 22 2 2 -1.</_>
                <_>
                  23 22 1 2 2.</_></rects>
              <tilted>0</tilted></feature>
            <threshold>5.9776979469461367e-005</threshold>
            <left_node>4</left_node>
            <right_node>2</right_node></_>
          <_>
            <!-- node 2 -->
            <feature>
              <rects>
                <_>
                  8 23 2 1 -1.</_>
                <_>
                  9 23 1 1 2.</_></rects>
              <tilted>0</tilted></feature>
            <threshold>2.1884810121264309e-004</threshold>
            <left_node>3</left_node>
            <right_node>10</right_node></_>
          <_>
            <!-- node 3 -->
            <feature>
              <rects>
                <_>
                  3 18 3 3 -1.</_>
                <_>
                  4 19 1 3 3.</_></rects>
              <tilted>1</tilted></feature>
            <threshold>-1.9805249758064747e-003</threshold>
            <left_node>13</left_node>
            <right_node>7</right_node></_>
          <_>
            <!-- node 4 -->
            <feature>
              <rects>
                <_>
                  5 3 3 4 -1.</_>
                <_>
                  6 4 1 4 3.</_></rects>
              <tilted>1</tilted></feature>
            <threshold>-4.9994881264865398e-003</threshold>
            <left_node>15</left_node>
            <right_node>5</right_node></_>
          <_>
            <!-- node 5 -->
            <feature>
              <rects>
                <_>
                  0 6 4 6 -1.</_>
                <_>
                  0 6 2 3 2.</_>
                <_>
                  2 9 2 3 2.</_></rects>
              <tilted>0</tilted></feature>
            <threshold>-3.6813619080930948e-003</threshold>
            <left_node>12</left_node>
            <right_node>9</right_node></_>
          <_>
            <!-- node 6 -->
            <feature>
              <rects>
                <_>
                  13 2 10 16 -1.</_>
                <_>
                  13 2 5 8 2.</_>
                <_>
                  18 10 5 8 2.</_></rects>
              <tilted>0</tilted></feature>
            <threshold>-0.0415011383593082</threshold>
            <left_node>14</left_node>
            <right_node>19</right_node></_>
          <_>
            <!-- node 7 -->
            <feature>
              <rects>
                <_>
                  9 23 2 1 -1.</_>
                <_>
                  10 23 1 1 2.</_></rects>
              <tilted>0</tilted></feature>
            <threshold>2.7750228764489293e-004</threshold>
            <left_node>8</left_node>
            <right_val>-0.9447032809257507</right_val></_>
          <_>
            <!-- node 8 -->
            <feature>
              <rects>
                <_>
                  0 4 24 3 -1.</_>
                <_>
                  6 4 12 3 2.</_></rects>
              <tilted>0</tilted></feature>
            <threshold>-0.0136474296450615</threshold>
            <left_node>17</left_node>
            <right_node>11</right_node></_>
          <_>
            <!-- node 9 -->
            <feature>
              <rects>
                <_>
                  3 8 4 2 -1.</_>
                <_>
                  3 8 2 1 2.</_>
                <_>
                  5 9 2 1 2.</_></rects>
              <tilted>0</tilted></feature>
            <threshold>-1.0639299871399999e-003</threshold>
            <left_val>0.1518999934196472</left_val>
            <right_node>16</right_node></_>
          <_>
            <!-- node 10 -->
            <feature>
              <rects>
                <_>
                  0 0 11 10 -1.</_>
                <_>
                  0 5 11 5 2.</_></rects>
              <tilted>0</tilted></feature>
            <threshold>-0.0526781417429447</threshold>
            <left_val>0.2035633027553558</left_val>
            <right_val>-0.6966540813446045</right_val></_>
          <_>
            <!-- node 11 -->
            <feature>
              <rects>
                <_>
                  3 23 20 1 -1.</_>
                <_>
                  8 23 10 1 2.</_></rects>
              <tilted>0</tilted></feature>
            <threshold>-5.9437507297843695e-004</threshold>
            <left_val>0.2695586085319519</left_val>
            <right_node>18</right_node></_>
          <_>
            <!-- node 12 -->
            <feature>
              <rects>
                <_>
                  7 23 6 1 -1.</_>
                <_>
                  10 23 3 1 2.</_></rects>
              <tilted>0</tilted></feature>
            <threshold>1.0094019817188382e-003</threshold>
            <left_val>0.3403064012527466</left_val>
            <right_val>-0.9334720969200134</right_val></_>
          <_>
            <!-- node 13 -->
            <feature>
              <rects>
                <_>
                  22 8 2 12 -1.</_>
                <_>
                  22 8 2 6 2.</_></rects>
              <tilted>1</tilted></feature>
            <threshold>-7.6317568309605122e-003</threshold>
            <left_val>-0.2844541072845459</left_val>
            <right_val>0.7454013228416443</right_val></_>
          <_>
            <!-- node 14 -->
            <feature>
              <rects>
                <_>
                  2 18 4 2 -1.</_>
                <_>
                  3 19 2 2 2.</_></rects>
              <tilted>1</tilted></feature>
            <threshold>-3.2002308871597052e-003</threshold>
            <left_val>0.4757950901985169</left_val>
            <right_val>-0.4862251877784729</right_val></_>
          <_>
            <!-- node 15 -->
            <feature>
              <rects>
                <_>
                  6 13 2 5 -1.</_>
                <_>
                  6 13 1 5 2.</_></rects>
              <tilted>1</tilted></feature>
            <threshold>3.4177949419245124e-004</threshold>
            <left_val>-0.4138427972793579</left_val>
            <right_val>0.5125256776809692</right_val></_>
          <_>
            <!-- node 16 -->
            <feature>
              <rects>
                <_>
                  0 2 2 2 -1.</_>
                <_>
                  0 2 1 1 2.</_>
                <_>
                  1 3 1 1 2.</_></rects>
              <tilted>0</tilted></feature>
            <threshold>-1.6312530497089028e-003</threshold>
            <left_val>0.6468178033828735</left_val>
            <right_val>-0.6685572266578674</right_val></_>
          <_>
            <!-- node 17 -->
            <feature>
              <rects>
                <_>
                  7 0 12 7 -1.</_>
                <_>
                  11 0 4 7 3.</_></rects>
              <tilted>0</tilted></feature>
            <threshold>-0.0432908684015274</threshold>
            <left_val>-0.2347774952650070</left_val>
            <right_val>0.6588814854621887</right_val></_>
          <_>
            <!-- node 18 -->
            <feature>
              <rects>
                <_>
                  3 6 20 7 -1.</_>
                <_>
                  8 6 10 7 2.</_></rects>
              <tilted>0</tilted></feature>
            <threshold>0.0370851494371891</threshold>
            <left_val>-0.7872400879859924</left_val>
            <right_val>0.2159899026155472</right_val></_>
          <_>
            <!-- node 19 -->
            <feature>
              <rects>
                <_>
                  0 3 2 12 -1.</_>
                <_>
                  0 3 1 6 2.</_>
                <_>
                  1 9 1 6 2.</_></rects>
              <tilted>0</tilted></feature>
            <threshold>-5.9661380946636200e-003</threshold>
            <left_val>-0.0441286414861679</left_val>
            <right_val>-0.7399153709411621</right_val></_></_>
        <_>
          <!-- tree 2 -->
          <_>
            <!-- root node -->
            <feature>
              <rects>
                <_>
                  17 9 5 10 -1.</_>
                <_>
                  17 14 5 5 2.</_></rects>
              <tilted>0</tilted></feature>
            <threshold>-7.9245269298553467e-003</threshold>
            <left_node>1</left_node>
            <right_node>6</right_node></_>
          <_>
            <!-- node 1 -->
            <feature>
              <rects>
                <_>
                  22 16 2 2 -1.</_>
                <_>
                  22 16 2 1 2.</_></rects>
              <tilted>1</tilted></feature>
            <threshold>2.2865840583108366e-004</threshold>
            <left_node>2</left_node>
            <right_node>3</right_node></_>
          <_>
            <!-- node 2 -->
            <feature>
              <rects>
                <_>
                  13 18 1 6 -1.</_>
                <_>
                  13 20 1 2 3.</_></rects>
              <tilted>0</tilted></feature>
            <threshold>-1.2839980190619826e-003</threshold>
            <left_node>10</left_node>
            <right_node>13</right_node></_>
          <_>
            <!-- node 3 -->
            <feature>
              <rects>
                <_>
                  1 2 18 22 -1.</_>
                <_>
                  1 2 9 11 2.</_>
                <_>
                  10 13 9 11 2.</_></rects>
              <tilted>0</tilted></feature>
            <threshold>-0.1478693038225174</threshold>
            <left_node>18</left_node>
            <right_node>4</right_node></_>
          <_>
            <!-- node 4 -->
            <feature>
              <rects>
                <_>
                  6 23 2 1 -1.</_>
                <_>
                  7 23 1 1 2.</_></rects>
              <tilted>0</tilted></feature>
            <threshold>1.3681840209756047e-004</threshold>
            <left_node>5</left_node>
            <right_node>15</right_node></_>
          <_>
            <!-- node 5 -->
            <feature>
              <rects>
                <_>
                  6 23 3 1 -1.</_>
                <_>
                  7 23 1 1 3.</_></rects>
              <tilted>0</tilted></feature>
            <threshold>-4.1945200064219534e-004</threshold>
            <left_node>17</left_node>
            <right_node>7</right_node></_>
          <_>
            <!-- node 6 -->
            <feature>
              <rects>
                <_>
                  16 8 8 8 -1.</_>
                <_>
                  14 10 8 4 2.</_></rects>
              <tilted>1</tilted></feature>
            <threshold>-0.0163823608309031</threshold>
            <left_node>8</left_node>
            <right_node>14</right_node></_>
          <_>
            <!-- node 7 -->
            <feature>
              <rects>
                <_>
                  18 13 3 6 -1.</_>
                <_>
                  18 13 3 3 2.</_></rects>
              <tilted>1</tilted></feature>
            <threshold>0.0507903918623924</threshold>
            <left_node>9</left_node>
            <right_val>-0.5766065120697022</right_val></_>
          <_>
            <!-- node 8 -->
            <feature>
              <rects>
                <_>
                  9 11 2 7 -1.</_>
                <_>
                  10 11 1 7 2.</_></rects>
              <tilted>0</tilted></feature>
            <threshold>-1.2988729868084192e-003</threshold>
            <left_val>-0.7125611901283264</left_val>
            <right_node>12</right_node></_>
          <_>
            <!-- node 9 -->
            <feature>
              <rects>
                <_>
                  22 20 2 1 -1.</_>
                <_>
                  23 20 1 1 2.</_></rects>
              <tilted>0</tilted></feature>
            <threshold>6.5250977058894932e-005</threshold>
            <left_node>11</left_node>
            <right_val>0.7184879779815674</right_val></_>
          <_>
            <!-- node 10 -->
            <feature>
              <rects>
                <_>
                  9 22 9 2 -1.</_>
                <_>
                  12 22 3 2 3.</_></rects>
              <tilted>0</tilted></feature>
            <threshold>1.3691890053451061e-003</threshold>
            <left_node>16</left_node>
            <right_val>-0.6278783082962036</right_val></_>
          <_>
            <!-- node 11 -->
            <feature>
              <rects>
                <_>
                  6 21 18 3 -1.</_>
                <_>
                  12 22 6 1 9.</_></rects>
              <tilted>0</tilted></feature>
            <threshold>-5.1830629818141460e-003</threshold>
            <left_val>0.5380303263664246</left_val>
            <right_val>-0.1316915005445480</right_val></_>
          <_>
            <!-- node 12 -->
            <feature>
              <rects>
                <_>
                  4 11 2 4 -1.</_>
                <_>
                  4 11 1 4 2.</_></rects>
              <tilted>1</tilted></feature>
            <threshold>6.5870408434420824e-004</threshold>
            <left_val>-0.4674589037895203</left_val>
            <right_val>0.6035265922546387</right_val></_>
          <_>
            <!-- node 13 -->
            <feature>
              <rects>
                <_>
                  7 19 11 3 -1.</_>
                <_>
                  7 20 11 1 3.</_></rects>
              <tilted>0</tilted></feature>
            <threshold>0.0136623904109001</threshold>
            <left_node>19</left_node>
            <right_val>0.3271346092224121</right_val></_>
          <_>
            <!-- node 14 -->
            <feature>
              <rects>
                <_>
                  8 13 7 3 -1.</_>
                <_>
                  8 14 7 1 3.</_></rects>
              <tilted>0</tilted></feature>
            <threshold>-2.1256790496408939e-003</threshold>
            <left_val>-0.1019420027732849</left_val>
            <right_val>-0.7026277184486389</right_val></_>
          <_>
            <!-- node 15 -->
            <feature>
              <rects>
                <_>
                  12 12 1 12 -1.</_>
                <_>
                  12 16 1 4 3.</_></rects>
              <tilted>0</tilted></feature>
            <threshold>-8.8783698156476021e-003</threshold>
            <left_val>0.3693389892578125</left_val>
            <right_val>-0.5631353855133057</right_val></_>
          <_>
            <!-- node 16 -->
            <feature>
              <rects>
                <_>
                  13 21 8 3 -1.</_>
                <_>
                  15 21 4 3 2.</_></rects>
              <tilted>0</tilted></feature>
            <threshold>3.3040350535884500e-004</threshold>
            <left_val>0.5492349863052368</left_val>
            <right_val>-0.2067379057407379</right_val></_>
          <_>
            <!-- node 17 -->
            <feature>
              <rects>
                <_>
                  6 1 9 2 -1.</_>
                <_>
                  9 4 3 2 3.</_></rects>
              <tilted>1</tilted></feature>
            <threshold>-0.0232296194881201</threshold>
            <left_val>0.5598909258842468</left_val>
            <right_val>-0.6253156065940857</right_val></_>
          <_>
            <!-- node 18 -->
            <feature>
              <rects>
                <_>
                  5 0 6 6 -1.</_>
                <_>
                  5 3 6 3 2.</_></rects>
              <tilted>0</tilted></feature>
            <threshold>0.0105536403134465</threshold>
            <left_val>-0.7357754111289978</left_val>
            <right_val>0.3903517127037048</right_val></_>
          <_>
            <!-- node 19 -->
            <feature>
              <rects>
                <_>
                  10 5 9 6 -1.</_>
                <_>
                  13 7 3 2 9.</_></rects>
              <tilted>0</tilted></feature>
            <threshold>-3.9590247906744480e-003</threshold>
            <left_val>-0.2502296864986420</left_val>
            <right_val>-0.8180081248283386</right_val></_></_></trees>
      <stage_threshold>-0.9630299210548401</stage_threshold>
      <parent>2</parent>
      <next>-1</next></_>
    <_>
      <!-- stage 4 -->
      <trees>
        <_>
          <!-- tree 0 -->
          <_>
            <!-- root node -->
            <feature>
              <rects>
                <_>
                  8 22 6 2 -1.</_>
                <_>
                  8 23 6 1 2.</_></rects>
              <tilted>0</tilted></feature>
            <threshold>2.0196759141981602e-003</threshold>
            <left_node>3</left_node>
            <right_node>1</right_node></_>
          <_>
            <!-- node 1 -->
            <feature>
              <rects>
                <_>
                  8 22 16 2 -1.</_>
                <_>
                  12 22 8 2 2.</_></rects>
              <tilted>0</tilted></feature>
            <threshold>2.6244181208312511e-004</threshold>
            <left_node>2</left_node>
            <right_val>-0.4320277869701386</right_val></_>
          <_>
            <!-- node 2 -->
            <feature>
              <rects>
                <_>
                  0 22 16 2 -1.</_>
                <_>
                  4 22 8 2 2.</_></rects>
              <tilted>0</tilted></feature>
            <threshold>4.7160379472188652e-004</threshold>
            <left_node>6</left_node>
            <right_node>17</right_node></_>
          <_>
            <!-- node 3 -->
            <feature>
              <rects>
                <_>
                  4 19 20 3 -1.</_>
                <_>
                  4 20 20 1 3.</_></rects>
              <tilted>0</tilted></feature>
            <threshold>-0.0142161203548312</threshold>
            <left_node>11</left_node>
            <right_node>4</right_node></_>
          <_>
            <!-- node 4 -->
            <feature>
              <rects>
                <_>
                  5 18 12 3 -1.</_>
                <_>
                  5 19 12 1 3.</_></rects>
              <tilted>0</tilted></feature>
            <threshold>-4.8511410132050514e-003</threshold>
            <left_node>5</left_node>
            <right_node>7</right_node></_>
          <_>
            <!-- node 5 -->
            <feature>
              <rects>
                <_>
                  3 21 18 3 -1.</_>
                <_>
                  9 22 6 1 9.</_></rects>
              <tilted>0</tilted></feature>
            <threshold>-5.7961861602962017e-003</threshold>
            <left_node>9</left_node>
            <right_val>-0.4406181871891022</right_val></_>
          <_>
            <!-- node 6 -->
            <feature>
              <rects>
                <_>
                  13 23 4 1 -1.</_>
                <_>
                  15 23 2 1 2.</_></rects>
              <tilted>0</tilted></feature>
            <threshold>-5.8693101163953543e-004</threshold>
            <left_val>-0.3292686939239502</left_val>
            <right_node>8</right_node></_>
          <_>
            <!-- node 7 -->
            <feature>
              <rects>
                <_>
                  4 0 12 3 -1.</_>
                <_>
                  4 1 12 1 3.</_></rects>
              <tilted>0</tilted></feature>
            <threshold>-0.0257156100124121</threshold>
            <left_node>19</left_node>
            <right_node>13</right_node></_>
          <_>
            <!-- node 8 -->
            <feature>
              <rects>
                <_>
                  7 22 4 2 -1.</_>
                <_>
                  9 22 2 2 2.</_></rects>
              <tilted>0</tilted></feature>
            <threshold>1.4832390006631613e-003</threshold>
            <left_node>10</left_node>
            <right_val>-0.7274224758148193</right_val></_>
          <_>
            <!-- node 9 -->
            <feature>
              <rects>
                <_>
                  20 23 4 1 -1.</_>
                <_>
                  22 23 2 1 2.</_></rects>
              <tilted>0</tilted></feature>
            <threshold>4.7741410526214167e-005</threshold>
            <left_val>-0.4423184096813202</left_val>
            <right_val>0.4913322031497955</right_val></_>
          <_>
            <!-- node 10 -->
            <feature>
              <rects>
                <_>
                  4 23 9 1 -1.</_>
                <_>
                  7 23 3 1 3.</_></rects>
              <tilted>0</tilted></feature>
            <threshold>1.6782870516180992e-003</threshold>
            <left_node>14</left_node>
            <right_val>-0.6762142181396484</right_val></_>
          <_>
            <!-- node 11 -->
            <feature>
              <rects>
                <_>
                  6 20 12 1 -1.</_>
                <_>
                  12 20 6 1 2.</_></rects>
              <tilted>0</tilted></feature>
            <threshold>-3.4337260294705629e-003</threshold>
            <left_val>-0.4595960080623627</left_val>
            <right_node>12</right_node></_>
          <_>
            <!-- node 12 -->
            <feature>
              <rects>
                <_>
                  9 19 8 5 -1.</_>
                <_>
                  13 19 4 5 2.</_></rects>
              <tilted>0</tilted></feature>
            <threshold>4.2866901494562626e-003</threshold>
            <left_val>0.5556560754776001</left_val>
            <right_val>-0.1787201017141342</right_val></_>
          <_>
            <!-- node 13 -->
            <feature>
              <rects>
                <_>
                  3 17 15 3 -1.</_>
                <_>
                  3 18 15 1 3.</_></rects>
              <tilted>0</tilted></feature>
            <threshold>-4.9045127816498280e-003</threshold>
            <left_node>15</left_node>
            <right_node>16</right_node></_>
          <_>
            <!-- node 14 -->
            <feature>
              <rects>
                <_>
                  0 9 6 15 -1.</_>
                <_>
                  0 14 6 5 3.</_></rects>
              <tilted>0</tilted></feature>
            <threshold>-0.1436392068862915</threshold>
            <left_val>-0.9999998211860657</left_val>
            <right_val>0.8226227164268494</right_val></_>
          <_>
            <!-- node 15 -->
            <feature>
              <rects>
                <_>
                  1 0 23 24 -1.</_>
                <_>
                  1 12 23 12 2.</_></rects>
              <tilted>0</tilted></feature>
            <threshold>-0.3531804084777832</threshold>
            <left_val>-0.0970219820737839</left_val>
            <right_val>-0.7792872190475464</right_val></_>
          <_>
            <!-- node 16 -->
            <feature>
              <rects>
                <_>
                  0 13 21 3 -1.</_>
                <_>
                  0 14 21 1 3.</_></rects>
              <tilted>0</tilted></feature>
            <threshold>0.0188378896564245</threshold>
            <left_val>-0.8138008117675781</left_val>
            <right_val>-0.0781730636954308</right_val></_>
          <_>
            <!-- node 17 -->
            <feature>
              <rects>
                <_>
                  16 23 8 1 -1.</_>
                <_>
                  18 23 4 1 2.</_></rects>
              <tilted>0</tilted></feature>
            <threshold>3.1682319240644574e-004</threshold>
            <left_node>18</left_node>
            <right_val>-0.8822113275527954</right_val></_>
          <_>
            <!-- node 18 -->
            <feature>
              <rects>
                <_>
                  14 22 6 2 -1.</_>
                <_>
                  16 22 2 2 3.</_></rects>
              <tilted>0</tilted></feature>
            <threshold>7.7834131661802530e-004</threshold>
            <left_val>0.1008327007293701</left_val>
            <right_val>-0.8810511231422424</right_val></_>
          <_>
            <!-- node 19 -->
            <feature>
              <rects>
                <_>
                  4 17 20 7 -1.</_>
                <_>
                  9 17 10 7 2.</_></rects>
              <tilted>0</tilted></feature>
            <threshold>-8.3370562642812729e-003</threshold>
            <left_val>0.4797740876674652</left_val>
            <right_val>-0.6154969930648804</right_val></_></_>
        <_>
          <!-- tree 1 -->
          <_>
            <!-- root node -->
            <feature>
              <rects>
                <_>
                  0 16 6 7 -1.</_>
                <_>
                  2 16 2 7 3.</_></rects>
              <tilted>0</tilted></feature>
            <threshold>-6.4433291554450989e-003</threshold>
            <left_node>2</left_node>
            <right_node>1</right_node></_>
          <_>
            <!-- node 1 -->
            <feature>
              <rects>
                <_>
                  18 9 6 14 -1.</_>
                <_>
                  20 9 2 14 3.</_></rects>
              <tilted>0</tilted></feature>
            <threshold>-8.1360759213566780e-003</threshold>
            <left_node>5</left_node>
            <right_node>3</right_node></_>
          <_>
            <!-- node 2 -->
            <feature>
              <rects>
                <_>
                  0 23 18 1 -1.</_>
                <_>
                  6 23 6 1 3.</_></rects>
              <tilted>0</tilted></feature>
            <threshold>-0.0100299296900630</threshold>
            <left_val>-0.4591150879859924</left_val>
            <right_node>4</right_node></_>
          <_>
            <!-- node 3 -->
            <feature>
              <rects>
                <_>
                  7 0 12 9 -1.</_>
                <_>
                  7 3 12 3 3.</_></rects>
              <tilted>0</tilted></feature>
            <threshold>-0.0400541909039021</threshold>
            <left_node>6</left_node>
            <right_node>7</right_node></_>
          <_>
            <!-- node 4 -->
            <feature>
              <rects>
                <_>
                  3 16 2 1 -1.</_>
                <_>
                  4 16 1 1 2.</_></rects>
              <tilted>0</tilted></feature>
            <threshold>5.9486931422725320e-004</threshold>
            <left_node>8</left_node>
            <right_node>13</right_node></_>
          <_>
            <!-- node 5 -->
            <feature>
              <rects>
                <_>
                  6 17 4 2 -1.</_>
                <_>
                  8 17 2 2 2.</_></rects>
              <tilted>0</tilted></feature>
            <threshold>-6.0146092437207699e-004</threshold>
            <left_val>-0.3114810883998871</left_val>
            <right_node>9</right_node></_>
          <_>
            <!-- node 6 -->
            <feature>
              <rects>
                <_>
                  9 3 10 3 -1.</_>
                <_>
                  9 4 10 1 3.</_></rects>
              <tilted>0</tilted></feature>
            <threshold>-2.6136019732803106e-003</threshold>
            <left_node>11</left_node>
            <right_node>12</right_node></_>
          <_>
            <!-- node 7 -->
            <feature>
              <rects>
                <_>
                  7 10 17 3 -1.</_>
                <_>
                  7 11 17 1 3.</_></rects>
              <tilted>0</tilted></feature>
            <threshold>-9.6387518569827080e-003</threshold>
            <left_node>16</left_node>
            <right_node>10</right_node></_>
          <_>
            <!-- node 8 -->
            <feature>
              <rects>
                <_>
                  7 17 6 1 -1.</_>
                <_>
                  9 17 2 1 3.</_></rects>
              <tilted>0</tilted></feature>
            <threshold>-1.9541908986866474e-003</threshold>
            <left_val>-0.4091827869415283</left_val>
            <right_node>14</right_node></_>
          <_>
            <!-- node 9 -->
            <feature>
              <rects>
                <_>
                  4 22 4 2 -1.</_>
                <_>
                  5 22 2 2 2.</_></rects>
              <tilted>0</tilted></feature>
            <threshold>4.0464461199007928e-004</threshold>
            <left_node>15</left_node>
            <right_val>-0.4339298903942108</right_val></_>
          <_>
            <!-- node 10 -->
            <feature>
              <rects>
                <_>
                  6 1 4 6 -1.</_>
                <_>
                  7 2 2 6 2.</_></rects>
              <tilted>1</tilted></feature>
            <threshold>0.0243922099471092</threshold>
            <left_node>17</left_node>
            <right_val>0.3228541016578674</right_val></_>
          <_>
            <!-- node 11 -->
            <feature>
              <rects>
                <_>
                  21 6 3 5 -1.</_>
                <_>
                  22 6 1 5 3.</_></rects>
              <tilted>0</tilted></feature>
            <threshold>-2.1264620590955019e-003</threshold>
            <left_val>0.3311851918697357</left_val>
            <right_val>-0.6120898127555847</right_val></_>
          <_>
            <!-- node 12 -->
            <feature>
              <rects>
                <_>
                  13 11 11 8 -1.</_>
                <_>
                  13 15 11 4 2.</_></rects>
              <tilted>0</tilted></feature>
            <threshold>-0.0164239499717951</threshold>
            <left_val>0.4919939935207367</left_val>
            <right_val>-0.3951339125633240</right_val></_>
          <_>
            <!-- node 13 -->
            <feature>
              <rects>
                <_>
                  9 9 15 4 -1.</_>
                <_>
                  9 10 15 2 2.</_></rects>
              <tilted>0</tilted></feature>
            <threshold>-4.9388250336050987e-003</threshold>
            <left_val>0.4083571135997772</left_val>
            <right_val>-0.6894057989120483</right_val></_>
          <_>
            <!-- node 14 -->
            <feature>
              <rects>
                <_>
                  5 23 3 1 -1.</_>
                <_>
                  6 23 1 1 3.</_></rects>
              <tilted>0</tilted></feature>
            <threshold>6.2389380764216185e-004</threshold>
            <left_node>18</left_node>
            <right_val>-0.3910214900970459</right_val></_>
          <_>
            <!-- node 15 -->
            <feature>
              <rects>
                <_>
                  23 12 1 8 -1.</_>
                <_>
                  23 12 1 4 2.</_></rects>
              <tilted>1</tilted></feature>
            <threshold>1.7351729911752045e-004</threshold>
            <left_val>0.0133612100034952</left_val>
            <right_val>0.6577485799789429</right_val></_>
          <_>
            <!-- node 16 -->
            <feature>
              <rects>
                <_>
                  2 10 14 8 -1.</_>
                <_>
                  2 14 14 4 2.</_></rects>
