<?xml version="1.0"?>
<opencv_storage>
<data type_id="opencv-haar-classifier">
  <size>
    24 24</size>
  <stages>
    <_>
      <!-- stage 0 -->
      <trees>
        <_>
          <!-- tree 0 -->
          <_>
            <!-- root node -->
            <feature>
              <rects>
                <_>
                  0 6 24 16 -1.</_>
                <_>
                  0 14 24 8 2.</_></rects>
              <tilted>0</tilted></feature>
            <threshold>-0.1580310016870499</threshold>
            <left_node>1</left_node>
            <right_node>3</right_node></_>
          <_>
            <!-- node 1 -->
            <feature>
              <rects>
                <_>
                  0 22 24 2 -1.</_>
                <_>
                  6 22 12 2 2.</_></rects>
              <tilted>0</tilted></feature>
            <threshold>3.7149928975850344e-003</threshold>
            <left_node>2</left_node>
            <right_node>7</right_node></_>
          <_>
            <!-- node 2 -->
            <feature>
              <rects>
                <_>
                  12 22 10 2 -1.</_>
                <_>
                  12 23 10 1 2.</_></rects>
              <tilted>0</tilted></feature>
            <threshold>1.4792629517614841e-003</threshold>
            <left_node>4</left_node>
            <right_node>8</right_node></_>
          <_>
            <!-- node 3 -->
            <feature>
              <rects>
                <_>
                  1 0 22 20 -1.</_>
                <_>
                  1 10 22 10 2.</_></rects>
              <tilted>0</tilted></feature>
            <threshold>-0.1328563988208771</threshold>
            <left_node>5</left_node>
            <right_node>14</right_node></_>
          <_>
            <!-- node 4 -->
            <feature>
              <rects>
                <_>
                  0 18 22 4 -1.</_>
                <_>
                  0 19 22 2 2.</_></rects>
              <tilted>0</tilted></feature>
            <threshold>-7.6131541281938553e-003</threshold>
            <left_node>13</left_node>
            <right_node>6</right_node></_>
          <_>
            <!-- node 5 -->
            <feature>
              <rects>
                <_>
                  5 12 17 12 -1.</_>
                <_>
                  5 16 17 4 3.</_></rects>
              <tilted>0</tilted></feature>
            <threshold>-0.0579223781824112</threshold>
            <left_node>9</left_node>
            <right_node>10</right_node></_>
          <_>
            <!-- node 6 -->
            <feature>
              <rects>
                <_>
                  5 17 19 3 -1.</_>
                <_>
                  5 18 19 1 3.</_></rects>
              <tilted>0</tilted></feature>
            <threshold>-4.9090930260717869e-003</threshold>
            <left_node>17</left_node>
            <right_node>11</right_node></_>
          <_>
            <!-- node 7 -->
            <feature>
              <rects>
                <_>
                  5 17 14 6 -1.</_>
                <_>
                  5 19 14 2 3.</_></rects>
              <tilted>0</tilted></feature>
            <threshold>-0.0369673594832420</threshold>
            <left_val>0.3039500117301941</left_val>
            <right_val>-0.7511655092239380</right_val></_>
          <_>
            <!-- node 8 -->
            <feature>
              <rects>
                <_>
                  9 22 3 2 -1.</_>
                <_>
                  10 22 1 2 3.</_></rects>
              <tilted>0</tilted></feature>
            <threshold>-9.8983477801084518e-004</threshold>
            <left_val>-0.6536530852317810</left_val>
            <right_node>12</right_node></_>
          <_>
            <!-- node 9 -->
            <feature>
              <rects>
                <_>
                  16 4 8 15 -1.</_>
                <_>
                  20 4 4 15 2.</_></rects>
              <tilted>0</tilted></feature>
            <threshold>0.0326466783881187</threshold>
            <left_val>-0.3413152098655701</left_val>
            <right_val>0.7404478192329407</right_val></_>
          <_>
            <!-- node 10 -->
            <feature>
              <rects>
                <_>
                  7 16 13 3 -1.</_>
                <_>
                  7 17 13 1 3.</_></rects>
              <tilted>0</tilted></feature>
            <threshold>-0.0173370391130447</threshold>
            <left_val>0.7253993749618530</left_val>
            <right_node>19</right_node></_>
          <_>
            <!-- node 11 -->
            <feature>
              <rects>
                <_>
                  12 7 12 3 -1.</_>
                <_>
                  12 8 12 1 3.</_></rects>
              <tilted>0</tilted></feature>
            <threshold>0.0113685401156545</threshold>
            <left_val>-0.6460071206092835</left_val>
            <right_val>0.4051321148872376</right_val></_>
          <_>
            <!-- node 12 -->
            <feature>
              <rects>
                <_>
                  20 23 4 1 -1.</_>
                <_>
                  22 23 2 1 2.</_></rects>
              <tilted>0</tilted></feature>
            <threshold>-6.0075719375163317e-004</threshold>
            <left_val>-0.0192997492849827</left_val>
            <right_node>16</right_node></_>
          <_>
            <!-- node 13 -->
            <feature>
              <rects>
                <_>
                  13 23 4 1 -1.</_>
                <_>
                  15 23 2 1 2.</_></rects>
              <tilted>0</tilted></feature>
            <threshold>-5.6341919116675854e-004</threshold>
            <left_val>-0.7479351758956909</left_val>
            <right_val>0.7831103801727295</right_val></_>
          <_>
            <!-- node 14 -->
            <feature>
              <rects>
                <_>
                  3 10 17 12 -1.</_>
                <_>
                  3 16 17 6 2.</_></rects>
              <tilted>0</tilted></feature>
            <threshold>-0.2127518057823181</threshold>
            <left_val>0.2305878996849060</left_val>
            <right_node>15</right_node></_>
          <_>
            <!-- node 15 -->
            <feature>
              <rects>
                <_>
                  6 18 12 3 -1.</_>
                <_>
                  6 19 12 1 3.</_></rects>
              <tilted>0</tilted></feature>
            <threshold>-0.0324770994484425</threshold>
            <left_val>0.1238989979028702</left_val>
            <right_node>18</right_node></_>
          <_>
            <!-- node 16 -->
            <feature>
              <rects>
                <_>
                  7 18 10 6 -1.</_>
                <_>
                  12 18 5 6 2.</_></rects>
              <tilted>0</tilted></feature>
            <threshold>-0.0343633703887463</threshold>
            <left_val>-0.4845213890075684</left_val>
            <right_val>0.9370281100273132</right_val></_>
          <_>
            <!-- node 17 -->
            <feature>
              <rects>
                <_>
                  14 16 2 2 -1.</_>
                <_>
                  15 16 1 2 2.</_></rects>
              <tilted>0</tilted></feature>
            <threshold>6.8444112548604608e-004</threshold>
            <left_val>0.5854603052139282</left_val>
            <right_val>-0.8382940292358398</right_val></_>
          <_>
            <!-- node 18 -->
            <feature>
              <rects>
                <_>
                  5 19 12 3 -1.</_>
                <_>
                  5 20 12 1 3.</_></rects>
              <tilted>0</tilted></feature>
            <threshold>-0.0371810682117939</threshold>
            <left_val>-2.0819220226258039e-003</left_val>
            <right_val>-0.9737067222595215</right_val></_>
          <_>
            <!-- node 19 -->
            <feature>
              <rects>
                <_>
                  0 11 6 8 -1.</_>
                <_>
                  3 11 3 8 2.</_></rects>
              <tilted>0</tilted></feature>
            <threshold>-0.0405909903347492</threshold>
            <left_val>0.1083377972245216</left_val>
            <right_val>-0.8937097191810608</right_val></_></_>
        <_>
          <!-- tree 1 -->
          <_>
            <!-- root node -->
            <feature>
              <rects>
                <_>
                  15 8 7 12 -1.</_>
                <_>
                  15 14 7 6 2.</_></rects>
              <tilted>0</tilted></feature>
            <threshold>-0.0181692596524954</threshold>
            <left_node>1</left_node>
            <right_node>4</right_node></_>
          <_>
            <!-- node 1 -->
            <feature>
              <rects>
                <_>
                  0 23 8 1 -1.</_>
                <_>
                  4 23 4 1 2.</_></rects>
              <tilted>0</tilted></feature>
            <threshold>9.9262688308954239e-004</threshold>
            <left_node>2</left_node>
            <right_node>6</right_node></_>
          <_>
            <!-- node 2 -->
            <feature>
              <rects>
                <_>
                  8 23 9 1 -1.</_>
                <_>
                  11 23 3 1 3.</_></rects>
              <tilted>0</tilted></feature>
            <threshold>1.1752359569072723e-003</threshold>
            <left_node>3</left_node>
            <right_node>17</right_node></_>
          <_>
            <!-- node 3 -->
            <feature>
              <rects>
                <_>
                  8 23 8 1 -1.</_>
                <_>
                  10 23 4 1 2.</_></rects>
              <tilted>0</tilted></feature>
            <threshold>-1.2044480536133051e-003</threshold>
            <left_node>18</left_node>
            <right_node>5</right_node></_>
          <_>
            <!-- node 4 -->
            <feature>
              <rects>
                <_>
                  0 20 19 4 -1.</_>
                <_>
                  0 21 19 2 2.</_></rects>
              <tilted>0</tilted></feature>
            <threshold>-0.0261275898665190</threshold>
            <left_node>9</left_node>
            <right_node>10</right_node></_>
          <_>
            <!-- node 5 -->
            <feature>
              <rects>
                <_>
                  0 6 24 14 -1.</_>
                <_>
                  0 6 12 7 2.</_>
                <_>
                  12 13 12 7 2.</_></rects>
              <tilted>0</tilted></feature>
            <threshold>-0.1702976971864700</threshold>
            <left_val>-0.5670058727264404</left_val>
            <right_node>7</right_node></_>
          <_>
            <!-- node 6 -->
            <feature>
              <rects>
                <_>
                  10 18 6 6 -1.</_>
                <_>
                  10 20 6 2 3.</_></rects>
              <tilted>0</tilted></feature>
            <threshold>-0.0178096406161785</threshold>
            <left_node>15</left_node>
            <right_val>-0.7992042899131775</right_val></_>
          <_>
            <!-- node 7 -->
            <feature>
              <rects>
                <_>
                  9 22 2 2 -1.</_>
                <_>
                  10 22 1 2 2.</_></rects>
              <tilted>0</tilted></feature>
            <threshold>5.9212732594460249e-004</threshold>
            <left_node>8</left_node>
            <right_val>-0.5286254286766052</right_val></_>
          <_>
            <!-- node 8 -->
            <feature>
              <rects>
                <_>
                  0 2 24 22 -1.</_>
                <_>
                  0 13 24 11 2.</_></rects>
              <tilted>0</tilted></feature>
            <threshold>-0.7532765865325928</threshold>
            <left_node>12</left_node>
            <right_node>13</right_node></_>
          <_>
            <!-- node 9 -->
            <feature>
              <rects>
                <_>
                  1 6 12 1 -1.</_>
                <_>
                  1 6 6 1 2.</_></rects>
              <tilted>1</tilted></feature>
            <threshold>3.3519060816615820e-003</threshold>
            <left_val>-0.8194242715835571</left_val>
            <right_val>0.6738548874855042</right_val></_>
          <_>
            <!-- node 10 -->
            <feature>
              <rects>
                <_>
                  1 10 23 4 -1.</_>
                <_>
                  1 12 23 2 2.</_></rects>
              <tilted>0</tilted></feature>
            <threshold>-0.0152105698361993</threshold>
            <left_node>11</left_node>
            <right_val>-0.8555089831352234</right_val></_>
          <_>
            <!-- node 11 -->
            <feature>
              <rects>
                <_>
                  3 17 21 6 -1.</_>
                <_>
                  10 19 7 2 9.</_></rects>
              <tilted>0</tilted></feature>
            <threshold>-0.0362942107021809</threshold>
            <left_node>16</left_node>
            <right_val>-0.8349261879920960</right_val></_>
          <_>
            <!-- node 12 -->
            <feature>
              <rects>
                <_>
                  0 21 24 2 -1.</_>
                <_>
                  6 21 12 2 2.</_></rects>
              <tilted>0</tilted></feature>
            <threshold>-4.8021129332482815e-003</threshold>
            <left_val>0.5751349925994873</left_val>
            <right_val>-0.6994997262954712</right_val></_>
          <_>
            <!-- node 13 -->
            <feature>
              <rects>
                <_>
                  13 23 2 1 -1.</_>
                <_>
                  14 23 1 1 2.</_></rects>
              <tilted>0</tilted></feature>
            <threshold>-3.0201268964447081e-004</threshold>
            <left_val>-0.4576162993907929</left_val>
            <right_node>14</right_node></_>
          <_>
            <!-- node 14 -->
            <feature>
              <rects>
                <_>
                  0 0 23 14 -1.</_>
                <_>
                  0 7 23 7 2.</_></rects>
              <tilted>0</tilted></feature>
            <threshold>0.4623666107654572</threshold>
            <left_node>19</left_node>
            <right_val>-0.9993770122528076</right_val></_>
          <_>
            <!-- node 15 -->
            <feature>
              <rects>
                <_>
                  0 6 24 3 -1.</_>
                <_>
                  8 6 8 3 3.</_></rects>
              <tilted>0</tilted></feature>
            <threshold>-0.0174796804785728</threshold>
            <left_val>0.6978204846382141</left_val>
            <right_val>-0.5899713039398193</right_val></_>
          <_>
            <!-- node 16 -->
            <feature>
              <rects>
                <_>
                  0 2 21 6 -1.</_>
                <_>
                  0 5 21 3 2.</_></rects>
              <tilted>0</tilted></feature>
            <threshold>-3.8286859635263681e-003</threshold>
            <left_val>0.4922342002391815</left_val>
            <right_val>-0.6019607186317444</right_val></_>
          <_>
            <!-- node 17 -->
            <feature>
              <rects>
                <_>
                  5 22 9 2 -1.</_>
                <_>
                  5 23 9 1 2.</_></rects>
              <tilted>0</tilted></feature>
            <threshold>9.9273845553398132e-003</threshold>
            <left_val>-0.7494124770164490</left_val>
            <right_val>0.4074837863445282</right_val></_>
          <_>
            <!-- node 18 -->
            <feature>
              <rects>
                <_>
                  3 12 17 3 -1.</_>
                <_>
                  3 13 17 1 3.</_></rects>
              <tilted>0</tilted></feature>
            <threshold>-0.0149015998467803</threshold>
            <left_val>0.5581234097480774</left_val>
            <right_val>-0.5856950283050537</right_val></_>
          <_>
            <!-- node 19 -->
            <feature>
              <rects>
                <_>
                  5 6 15 15 -1.</_>
                <_>
                  10 11 5 5 9.</_></rects>
              <tilted>0</tilted></feature>
            <threshold>-0.2641605138778687</threshold>
            <left_val>-0.5520778894424439</left_val>
            <right_val>0.8507643938064575</right_val></_></_></trees>
      <stage_threshold>-0.8575909137725830</stage_threshold>
      <parent>-1</parent>
      <next>-1</next></_>
    <_>
      <!-- stage 1 -->
      <trees>
        <_>
          <!-- tree 0 -->
          <_>
            <!-- root node -->
            <feature>
              <rects>
                <_>
                  1 6 4 16 -1.</_>
                <_>
                  1 14 4 8 2.</_></rects>
              <tilted>0</tilted></feature>
            <threshold>-0.0190418697893620</threshold>
            <left_node>1</left_node>
            <right_node>5</right_node></_>
          <_>
            <!-- node 1 -->
            <feature>
              <rects>
                <_>
                  6 23 18 1 -1.</_>
                <_>
                  12 23 6 1 3.</_></rects>
              <tilted>0</tilted></feature>
            <threshold>1.5679559437558055e-003</threshold>
            <left_node>2</left_node>
            <right_node>9</right_node></_>
          <_>
            <!-- node 2 -->
            <feature>
              <rects>
                <_>
                  3 23 12 1 -1.</_>
                <_>
                  7 23 4 1 3.</_></rects>
              <tilted>0</tilted></feature>
            <threshold>1.3768590288236737e-003</threshold>
            <left_node>3</left_node>
            <right_node>12</right_node></_>
          <_>
            <!-- node 3 -->
            <feature>
              <rects>
                <_>
                  11 22 6 2 -1.</_>
                <_>
                  11 23 6 1 2.</_></rects>
              <tilted>0</tilted></feature>
            <threshold>1.0551740415394306e-003</threshold>
            <left_node>4</left_node>
            <right_node>7</right_node></_>
          <_>
            <!-- node 4 -->
            <feature>
              <rects>
                <_>
                  0 0 20 9 -1.</_>
                <_>
                  0 3 20 3 3.</_></rects>
              <tilted>0</tilted></feature>
            <threshold>-0.0478080697357655</threshold>
            <left_val>0.6213752031326294</left_val>
            <right_node>6</right_node></_>
          <_>
            <!-- node 5 -->
            <feature>
              <rects>
                <_>
                  3 0 16 4 -1.</_>
                <_>
                  3 2 16 2 2.</_></rects>
              <tilted>0</tilted></feature>
            <threshold>-0.0299072992056608</threshold>
            <left_node>11</left_node>
            <right_node>10</right_node></_>
          <_>
            <!-- node 6 -->
            <feature>
              <rects>
                <_>
                  11 0 4 3 -1.</_>
                <_>
                  11 1 4 1 3.</_></rects>
              <tilted>0</tilted></feature>
            <threshold>-4.1365688666701317e-003</threshold>
            <left_val>0.6137564182281494</left_val>
            <right_node>8</right_node></_>
          <_>
            <!-- node 7 -->
            <feature>
              <rects>
                <_>
                  0 23 9 1 -1.</_>
                <_>
                  3 23 3 1 3.</_></rects>
              <tilted>0</tilted></feature>
            <threshold>2.4608599487692118e-003</threshold>
            <left_node>16</left_node>
            <right_val>-0.4385063052177429</right_val></_>
          <_>
            <!-- node 8 -->
            <feature>
              <rects>
                <_>
                  2 0 4 2 -1.</_>
                <_>
                  3 1 2 2 2.</_></rects>
              <tilted>1</tilted></feature>
            <threshold>-1.9905299413949251e-003</threshold>
            <left_val>0.2433408945798874</left_val>
            <right_node>18</right_node></_>
          <_>
            <!-- node 9 -->
            <feature>
              <rects>
                <_>
                  17 20 4 4 -1.</_>
                <_>
                  17 22 4 2 2.</_></rects>
              <tilted>0</tilted></feature>
            <threshold>7.3149320669472218e-003</threshold>
            <left_val>-0.8160734772682190</left_val>
            <right_node>13</right_node></_>
          <_>
            <!-- node 10 -->
            <feature>
              <rects>
                <_>
                  9 22 15 2 -1.</_>
                <_>
                  9 23 15 1 2.</_></rects>
              <tilted>0</tilted></feature>
            <threshold>0.0131792696192861</threshold>
            <left_node>17</left_node>
            <right_node>15</right_node></_>
          <_>
            <!-- node 11 -->
            <feature>
              <rects>
                <_>
                  4 19 14 5 -1.</_>
                <_>
                  11 19 7 5 2.</_></rects>
              <tilted>0</tilted></feature>
            <threshold>-0.0210944898426533</threshold>
            <left_val>-0.9390850067138672</left_val>
            <right_node>14</right_node></_>
          <_>
            <!-- node 12 -->
            <feature>
              <rects>
                <_>
                  6 0 8 4 -1.</_>
                <_>
                  8 2 4 4 2.</_></rects>
              <tilted>1</tilted></feature>
            <threshold>-0.0249238107353449</threshold>
            <left_val>0.1576697975397110</left_val>
            <right_val>-0.7062594890594482</right_val></_>
          <_>
            <!-- node 13 -->
            <feature>
              <rects>
                <_>
                  0 4 21 4 -1.</_>
                <_>
                  7 4 7 4 3.</_></rects>
              <tilted>0</tilted></feature>
            <threshold>-0.0210996605455875</threshold>
            <left_val>0.4108031094074249</left_val>
            <right_val>-0.6431381106376648</right_val></_>
          <_>
            <!-- node 14 -->
            <feature>
              <rects>
                <_>
                  9 20 10 4 -1.</_>
                <_>
                  14 20 5 4 2.</_></rects>
              <tilted>0</tilted></feature>
            <threshold>0.0118584800511599</threshold>
            <left_val>0.5198323130607605</left_val>
            <right_val>-0.9068220853805542</right_val></_>
          <_>
            <!-- node 15 -->
            <feature>
              <rects>
                <_>
                  16 22 8 2 -1.</_>
                <_>
                  20 22 4 2 2.</_></rects>
              <tilted>0</tilted></feature>
            <threshold>1.0735489922808483e-004</threshold>
            <left_val>-0.7988635897636414</left_val>
            <right_node>19</right_node></_>
          <_>
            <!-- node 16 -->
            <feature>
              <rects>
                <_>
                  14 23 4 1 -1.</_>
                <_>
                  15 23 2 1 2.</_></rects>
              <tilted>0</tilted></feature>
            <threshold>-9.4363989774137735e-004</threshold>
            <left_val>-0.8219370245933533</left_val>
            <right_val>0.8831087946891785</right_val></_>
          <_>
            <!-- node 17 -->
            <feature>
              <rects>
                <_>
                  7 2 8 2 -1.</_>
                <_>
                  7 3 8 1 2.</_></rects>
              <tilted>0</tilted></feature>
            <threshold>-0.0185604095458984</threshold>
            <left_val>0.6862890720367432</left_val>
            <right_val>-0.8538240194320679</right_val></_>
          <_>
            <!-- node 18 -->
            <feature>
              <rects>
                <_>
                  17 18 3 2 -1.</_>
                <_>
                  17 18 3 1 2.</_></rects>
              <tilted>1</tilted></feature>
            <threshold>-1.9071430433541536e-003</threshold>
            <left_val>0.1037143990397453</left_val>
            <right_val>-0.7616205811500549</right_val></_>
          <_>
            <!-- node 19 -->
            <feature>
              <rects>
                <_>
                  19 9 2 10 -1.</_>
                <_>
                  19 14 2 5 2.</_></rects>
              <tilted>0</tilted></feature>
            <threshold>-3.7081399932503700e-003</threshold>
            <left_val>0.5015339851379395</left_val>
            <right_val>-0.7605341076850891</right_val></_></_>
        <_>
          <!-- tree 1 -->
          <_>
            <!-- root node -->
            <feature>
              <rects>
                <_>
                  0 20 2 4 -1.</_>
                <_>
                  1 20 1 4 2.</_></rects>
              <tilted>0</tilted></feature>
            <threshold>-6.9892608735244721e-005</threshold>
            <left_node>1</left_node>
            <right_node>4</right_node></_>
          <_>
            <!-- node 1 -->
            <feature>
              <rects>
                <_>
                  22 23 2 1 -1.</_>
                <_>
                  23 23 1 1 2.</_></rects>
              <tilted>0</tilted></feature>
            <threshold>-1.9746669568121433e-004</threshold>
            <left_node>12</left_node>
            <right_node>2</right_node></_>
          <_>
            <!-- node 2 -->
            <feature>
              <rects>
                <_>
                  7 23 9 1 -1.</_>
                <_>
                  10 23 3 1 3.</_></rects>
              <tilted>0</tilted></feature>
            <threshold>1.2785700382664800e-003</threshold>
            <left_node>3</left_node>
            <right_node>17</right_node></_>
          <_>
            <!-- node 3 -->
            <feature>
              <rects>
                <_>
                  12 23 2 1 -1.</_>
                <_>
                  13 23 1 1 2.</_></rects>
              <tilted>0</tilted></feature>
            <threshold>3.2078090589493513e-004</threshold>
            <left_node>5</left_node>
            <right_node>19</right_node></_>
          <_>
            <!-- node 4 -->
            <feature>
              <rects>
                <_>
                  5 10 16 3 -1.</_>
                <_>
                  5 11 16 1 3.</_></rects>
              <tilted>0</tilted></feature>
            <threshold>-5.7902610860764980e-003</threshold>
            <left_node>10</left_node>
            <right_node>6</right_node></_>
          <_>
            <!-- node 5 -->
            <feature>
              <rects>
                <_>
                  1 16 3 8 -1.</_>
                <_>
                  1 18 3 4 2.</_></rects>
              <tilted>0</tilted></feature>
            <threshold>-2.0280780736356974e-003</threshold>
            <left_node>9</left_node>
            <right_node>8</right_node></_>
          <_>
            <!-- node 6 -->
            <feature>
              <rects>
                <_>
                  5 8 4 4 -1.</_>
                <_>
                  5 9 4 2 2.</_></rects>
              <tilted>0</tilted></feature>
            <threshold>-3.7348140031099319e-003</threshold>
            <left_node>7</left_node>
            <right_node>11</right_node></_>
          <_>
            <!-- node 7 -->
            <feature>
              <rects>
                <_>
                  5 2 19 20 -1.</_>
                <_>
                  5 12 19 10 2.</_></rects>
              <tilted>0</tilted></feature>
            <threshold>-0.2587423920631409</threshold>
            <left_val>0.4054012894630432</left_val>
            <right_val>-0.7278841733932495</right_val></_>
          <_>
            <!-- node 8 -->
            <feature>
              <rects>
                <_>
                  0 10 14 10 -1.</_>
                <_>
                  0 15 14 5 2.</_></rects>
              <tilted>0</tilted></feature>
            <threshold>-0.0344319306313992</threshold>
            <left_node>15</left_node>
            <right_node>13</right_node></_>
          <_>
            <!-- node 9 -->
            <feature>
              <rects>
                <_>
                  12 23 3 1 -1.</_>
                <_>
                  13 23 1 1 3.</_></rects>
              <tilted>0</tilted></feature>
            <threshold>-6.0599041171371937e-004</threshold>
            <left_val>-0.9130219221115112</left_val>
            <right_val>0.7497345209121704</right_val></_>
          <_>
            <!-- node 10 -->
            <feature>
              <rects>
                <_>
                  3 22 6 1 -1.</_>
                <_>
                  5 22 2 1 3.</_></rects>
              <tilted>0</tilted></feature>
            <threshold>9.0095459017902613e-004</threshold>
            <left_node>14</left_node>
            <right_val>-0.8271710276603699</right_val></_>
          <_>
            <!-- node 11 -->
            <feature>
              <rects>
                <_>
                  3 0 18 2 -1.</_>
                <_>
                  3 1 18 1 2.</_></rects>
              <tilted>0</tilted></feature>
            <threshold>-0.0286193396896124</threshold>
            <left_val>0.2367901951074600</left_val>
            <right_node>18</right_node></_>
          <_>
            <!-- node 12 -->
            <feature>
              <rects>
                <_>
                  18 1 1 2 -1.</_>
                <_>
                  18 2 1 1 2.</_></rects>
              <tilted>0</tilted></feature>
            <threshold>-2.8454260900616646e-003</threshold>
            <left_val>0.7372779250144959</left_val>
            <right_val>-0.7162938714027405</right_val></_>
          <_>
            <!-- node 13 -->
            <feature>
              <rects>
                <_>
                  0 17 10 6 -1.</_>
                <_>
                  0 17 5 3 2.</_>
                <_>
                  5 20 5 3 2.</_></rects>
              <tilted>0</tilted></feature>
            <threshold>6.1275041662156582e-003</threshold>
            <left_val>-0.7938985228538513</left_val>
            <right_val>0.4085318148136139</right_val></_>
          <_>
            <!-- node 14 -->
            <feature>
              <rects>
                <_>
                  10 5 12 3 -1.</_>
                <_>
                  14 9 4 3 3.</_></rects>
              <tilted>1</tilted></feature>
            <threshold>-0.0243942607194185</threshold>
            <left_val>-0.4081080853939056</left_val>
            <right_val>0.4817461967468262</right_val></_>
          <_>
            <!-- node 15 -->
            <feature>
              <rects>
                <_>
                  9 4 14 2 -1.</_>
                <_>
                  16 4 7 2 2.</_></rects>
              <tilted>0</tilted></feature>
            <threshold>1.6856320435181260e-003</threshold>
            <left_node>16</left_node>
            <right_val>0.7257289290428162</right_val></_>
          <_>
            <!-- node 16 -->
            <feature>
              <rects>
                <_>
                  5 7 3 1 -1.</_>
                <_>
                  6 8 1 1 3.</_></rects>
              <tilted>1</tilted></feature>
            <threshold>-4.8879778478294611e-004</threshold>
            <left_val>0.5869356989860535</left_val>
            <right_val>-0.4171636104583740</right_val></_>
          <_>
            <!-- node 17 -->
            <feature>
              <rects>
                <_>
                  5 10 14 12 -1.</_>
                <_>
                  5 13 14 6 2.</_></rects>
              <tilted>0</tilted></feature>
            <threshold>-0.0796246230602264</threshold>
            <left_val>0.3138976097106934</left_val>
            <right_val>-0.7341042160987854</right_val></_>
          <_>
            <!-- node 18 -->
            <feature>
              <rects>
                <_>
                  1 1 15 6 -1.</_>
                <_>
                  1 3 15 2 3.</_></rects>
              <tilted>0</tilted></feature>
            <threshold>-0.0324716307222843</threshold>
            <left_val>-0.2767164111137390</left_val>
            <right_val>-0.8804743289947510</right_val></_>
          <_>
            <!-- node 19 -->
            <feature>
              <rects>
                <_>
                  12 4 12 16 -1.</_>
                <_>
                  12 12 12 8 2.</_></rects>
              <tilted>0</tilted></feature>
            <threshold>-0.1520351022481918</threshold>
            <left_val>0.1621699929237366</left_val>
            <right_val>-0.8853350877761841</right_val></_></_></trees>
      <stage_threshold>-0.7228044271469116</stage_threshold>
      <parent>0</parent>
      <next>-1</next></_>
    <_>
      <!-- stage 2 -->
      <trees>
        <_>
          <!-- tree 0 -->
          <_>
            <!-- root node -->
            <feature>
              <rects>
                <_>
                  7 22 16 2 -1.</_>
                <_>
                  7 23 16 1 2.</_></rects>
              <tilted>0</tilted></feature>
            <threshold>7.8333485871553421e-003</threshold>
            <left_node>2</left_node>
            <right_node>1</right_node></_>
          <_>
            <!-- node 1 -->
            <feature>
              <rects>
                <_>
                  6 22 18 2 -1.</_>
                <_>
                  12 22 6 2 3.</_></rects>
              <tilted>0</tilted></feature>
            <threshold>2.1214080043137074e-003</threshold>
            <left_node>3</left_node>
            <right_val>-0.6226266026496887</right_val></_>
          <_>
            <!-- node 2 -->
            <feature>
              <rects>
                <_>
                  5 19 14 3 -1.</_>
                <_>
                  5 20 14 1 3.</_></rects>
              <tilted>0</tilted></feature>
            <threshold>-0.0137987304478884</threshold>
            <left_node>8</left_node>
            <right_node>4</right_node></_>
          <_>
            <!-- node 3 -->
            <feature>
              <rects>
                <_>
                  0 22 16 2 -1.</_>
                <_>
                  4 22 8 2 2.</_></rects>
              <tilted>0</tilted></feature>
            <threshold>9.8500214517116547e-004</threshold>
            <left_node>6</left_node>
            <right_node>16</right_node></_>
          <_>
            <!-- node 4 -->
            <feature>
              <rects>
                <_>
                  5 0 13 3 -1.</_>
                <_>
                  5 1 13 1 3.</_></rects>
              <tilted>0</tilted></feature>
            <threshold>-0.0171372704207897</threshold>
            <left_node>12</left_node>
            <right_node>5</right_node></_>
          <_>
            <!-- node 5 -->
            <feature>
              <rects>
                <_>
                  0 1 18 3 -1.</_>
                <_>
                  0 2 18 1 3.</_></rects>
              <tilted>0</tilted></feature>
            <threshold>-0.0195609200745821</threshold>
            <left_node>11</left_node>
            <right_node>9</right_node></_>
          <_>
            <!-- node 6 -->
            <feature>
              <rects>
                <_>
                  10 22 8 2 -1.</_>
                <_>
                  12 22 4 2 2.</_></rects>
              <tilted>0</tilted></feature>
            <threshold>1.6147310379892588e-003</threshold>
            <left_node>7</left_node>
            <right_val>-0.6074286103248596</right_val></_>
          <_>
            <!-- node 7 -->
            <feature>
              <rects>
                <_>
                  14 23 9 1 -1.</_>
                <_>
                  17 23 3 1 3.</_></rects>
              <tilted>0</tilted></feature>
            <threshold>1.8812400521710515e-003</threshold>
            <left_node>17</left_node>
            <right_val>-0.2776960134506226</right_val></_>
          <_>
            <!-- node 8 -->
            <feature>
              <rects>
                <_>
                  7 23 4 1 -1.</_>
                <_>
                  9 23 2 1 2.</_></rects>
              <tilted>0</tilted></feature>
            <threshold>4.7065189573913813e-004</threshold>
            <left_node>10</left_node>
            <right_val>-0.6699349880218506</right_val></_>
          <_>
            <!-- node 9 -->
            <feature>
              <rects>
                <_>
                  10 0 14 2 -1.</_>
                <_>
                  10 0 7 1 2.</_>
                <_>
                  17 1 7 1 2.</_></rects>
              <tilted>0</tilted></feature>
            <threshold>-7.3653310537338257e-003</threshold>
            <left_val>-0.1162867024540901</left_val>
            <right_node>14</right_node></_>
          <_>
            <!-- node 10 -->
            <feature>
              <rects>
                <_>
                  7 14 16 8 -1.</_>
                <_>
                  7 16 16 4 2.</_></rects>
              <tilted>0</tilted></feature>
            <threshold>0.0621525906026363</threshold>
            <left_node>13</left_node>
            <right_val>-0.6443576812744141</right_val></_>
          <_>
            <!-- node 11 -->
            <feature>
              <rects>
                <_>
                  14 9 8 14 -1.</_>
                <_>
                  14 16 8 7 2.</_></rects>
              <tilted>0</tilted></feature>
            <threshold>-0.0515035688877106</threshold>
            <left_val>0.4807206094264984</left_val>
            <right_val>-0.5869867205619812</right_val></_>
          <_>
            <!-- node 12 -->
            <feature>
              <rects>
                <_>
                  13 0 4 8 -1.</_>
                <_>
                  13 4 4 4 2.</_></rects>
              <tilted>0</tilted></feature>
            <threshold>0.0234945490956306</threshold>
            <left_node>19</left_node>
            <right_val>-0.7988610267639160</right_val></_>
          <_>
            <!-- node 13 -->
            <feature>
              <rects>
                <_>
                  14 23 3 1 -1.</_>
                <_>
                  15 23 1 1 3.</_></rects>
              <tilted>0</tilted></feature>
            <threshold>5.2722828695550561e-004</threshold>
            <left_val>0.6552478075027466</left_val>
            <right_val>-0.8750908970832825</right_val></_>
          <_>
            <!-- node 14 -->
            <feature>
              <rects>
                <_>
                  2 18 11 3 -1.</_>
                <_>
                  2 19 11 1 3.</_></rects>
              <tilted>0</tilted></feature>
            <threshold>-5.7426430284976959e-003</threshold>
            <left_node>15</left_node>
            <right_node>18</right_node></_>
          <_>
            <!-- node 15 -->
            <feature>
              <rects>
                <_>
                  7 21 17 3 -1.</_>
                <_>
                  7 22 17 1 3.</_></rects>
              <tilted>0</tilted></feature>
            <threshold>-1.1006100103259087e-003</threshold>
            <left_val>-0.0253509301692247</left_val>
            <right_val>-0.7161526083946228</right_val></_>
          <_>
            <!-- node 16 -->
            <feature>
              <rects>
                <_>
                  3 11 16 3 -1.</_>
                <_>
                  3 12 16 1 3.</_></rects>
              <tilted>0</tilted></feature>
            <threshold>-0.0120026199147105</threshold>
            <left_val>0.6187874078750610</left_val>
            <right_val>-0.4976216852664948</right_val></_>
          <_>
            <!-- node 17 -->
            <feature>
              <rects>
                <_>
                  4 11 18 12 -1.</_>
                <_>
                  4 14 18 6 2.</_></rects>
              <tilted>0</tilted></feature>
            <threshold>0.1194610968232155</threshold>
            <left_val>0.8488355875015259</left_val>
            <right_val>-1.0006940364837646</right_val></_>
          <_>
            <!-- node 18 -->
            <feature>
              <rects>
                <_>
                  5 20 14 3 -1.</_>
                <_>
                  5 21 14 1 3.</_></rects>
              <tilted>0</tilted></feature>
            <threshold>-0.0129599701613188</threshold>
            <left_val>-0.1455592066049576</left_val>
            <right_val>-0.8486434221267700</right_val></_>
          <_>
            <!-- node 19 -->
            <feature>
              <rects>
                <_>
                  8 22 16 2 -1.</_>
                <_>
                  12 22 8 2 2.</_></rects>
              <tilted>0</tilted></feature>
            <threshold>3.2889209251152351e-005</threshold>
            <left_val>0.6185532212257385</left_val>
            <right_val>-0.3890683948993683</right_val></_></_>
        <_>
          <!-- tree 1 -->
          <_>
            <!-- root node -->
            <feature>
              <rects>
                <_>
                  0 23 2 1 -1.</_>
                <_>
                  1 23 1 1 2.</_></rects>
              <tilted>0</tilted></feature>
            <threshold>1.2988349772058427e-004</threshold>
            <left_node>1</left_node>
            <right_node>9</right_node></_>
          <_>
            <!-- node 1 -->
            <feature>
              <rects>
                <_>
                  18 23 6 1 -1.</_>
                <_>
                  21 23 3 1 2.</_></rects>
              <tilted>0</tilted></feature>
            <threshold>-3.4266291186213493e-004</threshold>
            <left_node>7</left_node>
            <right_node>2</right_node></_>
          <_>
            <!-- node 2 -->
            <feature>
              <rects>
                <_>
                  18 0 4 22 -1.</_>
                <_>
                  18 11 4 11 2.</_></rects>
              <tilted>0</tilted></feature>
            <threshold>-8.7061366066336632e-003</threshold>
            <left_node>3</left_node>
            <right_node>11</right_node></_>
          <_>
            <!-- node 3 -->
            <feature>
              <rects>
                <_>
                  12 23 2 1 -1.</_>
                <_>
                  13 23 1 1 2.</_></rects>
              <tilted>0</tilted></feature>
            <threshold>-3.5572180058807135e-004</threshold>
            <left_val>-0.6326584815979004</left_val>
            <right_node>4</right_node></_>
          <_>
            <!-- node 4 -->
            <feature>
              <rects>
                <_>
                  11 23 6 1 -1.</_>
                <_>
                  13 23 2 1 3.</_></rects>
              <tilted>0</tilted></feature>
            <threshold>7.6528941281139851e-004</threshold>
            <left_node>5</left_node>
            <right_node>10</right_node></_>
          <_>
            <!-- node 5 -->
            <feature>
              <rects>
                <_>
                  20 17 4 6 -1.</_>
                <_>
                  21 17 2 6 2.</_></rects>
              <tilted>0</tilted></feature>
            <threshold>-9.2319701798260212e-004</threshold>
            <left_val>0.7564650177955627</left_val>
            <right_node>6</right_node></_>
          <_>
            <!-- node 6 -->
            <feature>
              <rects>
                <_>
                  3 0 21 12 -1.</_>
                <_>
                  10 4 7 4 9.</_></rects>
              <tilted>0</tilted></feature>
            <threshold>-0.0987417772412300</threshold>
            <left_node>19</left_node>
            <right_node>8</right_node></_>
          <_>
            <!-- node 7 -->
            <feature>
              <rects>
                <_>
                  0 8 9 7 -1.</_>
                <_>
                  3 8 3 7 3.</_></rects>
              <tilted>0</tilted></feature>
            <threshold>-0.0163371600210667</threshold>
            <left_node>17</left_node>
            <right_node>12</right_node></_>
          <_>
            <!-- node 8 -->
            <feature>
              <rects>
                <_>
                  0 22 8 2 -1.</_>
                <_>
                  4 22 4 2 2.</_></rects>
              <tilted>0</tilted></feature>
            <threshold>-1.2726879504043609e-004</threshold>
            <left_node>13</left_node>
            <right_node>18</right_node></_>
          <_>
            <!-- node 9 -->
            <feature>
              <rects>
                <_>
                  6 17 12 3 -1.</_>
                <_>
                  6 18 12 1 3.</_></rects>
              <tilted>0</tilted></feature>
            <threshold>-0.0190050099045038</threshold>
            <left_val>0.2153363972902298</left_val>
            <right_node>15</right_node></_>
          <_>
            <!-- node 10 -->
            <feature>
              <rects>
                <_>
                  18 13 6 11 -1.</_>
                <_>
                  20 13 2 11 3.</_></rects>
              <tilted>0</tilted></feature>
            <threshold>-0.0129136499017477</threshold>
            <left_val>0.4289276897907257</left_val>
            <right_val>-0.6574941873550415</right_val></_>
          <_>
            <!-- node 11 -->
            <feature>
              <rects>
                <_>
                  15 11 9 2 -1.</_>
                <_>
                  15 11 9 1 2.</_></rects>
              <tilted>1</tilted></feature>
            <threshold>0.0109924497082829</threshold>
            <left_val>-0.5534095764160156</left_val>
            <right_val>0.2048093974590302</right_val></_>
          <_>
            <!-- node 12 -->
            <feature>
              <rects>
                <_>
                  11 6 9 3 -1.</_>
                <_>
                  11 7 9 1 3.</_></rects>
              <tilted>0</tilted></feature>
            <threshold>0.0188733693212271</threshold>
            <left_val>-0.6840397119522095</left_val>
            <right_val>0.4529722034931183</right_val></_>
          <_>
            <!-- node 13 -->
            <feature>
              <rects>
                <_>
                  0 14 3 9 -1.</_>
                <_>
                  1 14 1 9 3.</_></rects>
              <tilted>0</tilted></feature>
            <threshold>-1.7938369419425726e-003</threshold>
            <left_val>0.6677461266517639</left_val>
            <right_node>14</right_node></_>
          <_>
            <!-- node 14 -->
            <feature>
              <rects>
                <_>
                  0 8 6 2 -1.</_>
                <_>
                  0 8 3 1 2.</_>
                <_>
                  3 9 3 1 2.</_></rects>
              <tilted>0</tilted></feature>
            <threshold>-2.9179758857935667e-003</threshold>
            <left_val>0.7974342703819275</left_val>
            <right_val>-0.2161578983068466</right_val></_>
          <_>
            <!-- node 15 -->
            <feature>
              <rects>
                <_>
                  18 6 6 14 -1.</_>
                <_>
                  21 6 3 14 2.</_></rects>
              <tilted>0</tilted></feature>
            <threshold>0.0246835593134165</threshold>
            <left_val>-0.8370258212089539</left_val>
            <right_node>16</right_node></_>
          <_>
            <!-- node 16 -->
            <feature>
              <rects>
                <_>
                  2 3 20 6 -1.</_>
                <_>
                  7 3 10 6 2.</_></rects>
              <tilted>0</tilted></feature>
            <threshold>-0.0428865589201450</threshold>
            <left_val>0.1764032989740372</left_val>
            <right_val>-0.7245661020278931</right_val></_>
          <_>
            <!-- node 17 -->
            <feature>
              <rects>
                <_>
                  9 17 6 5 -1.</_>
                <_>
                  11 17 2 5 3.</_></rects>
              <tilted>0</tilted></feature>
            <threshold>-2.1925030741840601e-003</threshold>
            <left_val>-0.7655246257781982</left_val>
            <right_val>0.3579654991626740</right_val></_>
          <_>
            <!-- node 18 -->
            <feature>
              <rects>
                <_>
                  16 4 3 16 -1.</_>
                <_>
                  17 5 1 16 3.</_></rects>
              <tilted>1</tilted></feature>
            <threshold>-0.0101814800873399</threshold>
            <left_val>0.5287259221076965</left_val>
            <right_val>-0.7580757141113281</right_val></_>
          <_>
            <!-- node 19 -->
            <feature>
              <rects>
                <_>
                  10 9 10 1 -1.</_>
                <_>
                  10 9 5 1 2.</_></rects>
              <tilted>1</tilted></feature>
            <threshold>-2.4131550453603268e-003</threshold>
            <left_val>-0.4889098107814789</left_val>
            <right_val>0.6732686161994934</right_val></_></_>
        <_>
          <!-- tree 2 -->
          <_>
            <!-- root node -->
            <feature>
              <rects>
                <_>
                  9 23 3 1 -1.</_>
                <_>
                  10 23 1 1 3.</_></rects>
              <tilted>0</tilted></feature>
            <threshold>2.7214569854550064e-004</threshold>
            <left_node>1</left_node>
            <right_node>17</right_node></_>
          <_>
            <!-- node 1 -->
            <feature>
              <rects>
                <_>
                  9 23 2 1 -1.</_>
                <_>
                  10 23 1 1 2.</_></rects>
              <tilted>0</tilted></feature>
            <threshold>-3.0683560180477798e-004</threshold>
            <left_node>12</left_node>
            <right_node>2</right_node></_>
          <_>
            <!-- node 2 -->
            <feature>
              <rects>
                <_>
                  0 13 4 9 -1.</_>
                <_>
                  1 13 2 9 2.</_></rects>
              <tilted>0</tilted></feature>
            <threshold>-4.2119710706174374e-003</threshold>
            <left_node>9</left_node>
            <right_node>3</right_node></_>
          <_>
            <!-- node 3 -->
            <feature>
              <rects>
                <_>
                  0 21 24 2 -1.</_>
                <_>
                  8 21 8 2 3.</_></rects>
              <tilted>0</tilted></feature>
            <threshold>-4.7003747895359993e-003</threshold>
            <left_node>4</left_node>
            <right_node>5</right_node></_>
          <_>
            <!-- node 4 -->
            <feature>
              <rects>
                <_>
                  2 23 18 1 -1.</_>
                <_>
                  8 23 6 1 3.</_></rects>
              <tilted>0</tilted></feature>
            <threshold>-0.0122722899541259</threshold>
            <left_val>-0.6633530855178833</left_val>
            <right_node>6</right_node></_>
          <_>
            <!-- node 5 -->
            <feature>
              <rects>
                <_>
                  12 3 12 4 -1.</_>
                <_>
                  16 3 4 4 3.</_></rects>
              <tilted>0</tilted></feature>
            <threshold>-0.0130241401493549</threshold>
            <left_node>15</left_node>
            <right_node>8</right_node></_>
          <_>
            <!-- node 6 -->
            <feature>
              <rects>
                <_>
                  3 23 4 1 -1.</_>
                <_>
                  5 23 2 1 2.</_></rects>
              <tilted>0</tilted></feature>
            <threshold>1.6817450523376465e-004</threshold>
            <left_node>7</left_node>
            <right_node>14</right_node></_>
          <_>
            <!-- node 7 -->
            <feature>
              <rects>
                <_>
                  10 19 1 4 -1.</_>
                <_>
                  9 20 1 2 2.</_></rects>
              <tilted>1</tilted></feature>
            <threshold>-3.3393868943676353e-004</threshold>
            <left_node>18</left_node>
            <right_node>10</right_node></_>
          <_>
            <!-- node 8 -->
            <feature>
              <rects>
                <_>
                  4 11 2 2 -1.</_>
                <_>
                  4 11 1 1 2.</_>
                <_>
                  5 12 1 1 2.</_></rects>
              <tilted>0</tilted></feature>
            <threshold>6.5357628045603633e-004</threshold>
            <left_node>13</left_node>
            <right_val>0.4069936871528626</right_val></_>
          <_>
            <!-- node 9 -->
            <feature>
              <rects>
                <_>
                  1 0 12 20 -1.</_>
                <_>
                  1 0 6 10 2.</_>
                <_>
                  7 10 6 10 2.</_></rects>
              <tilted>0</tilted></feature>
            <threshold>-0.0862277671694756</threshold>
            <left_val>-0.6376376152038574</left_val>
            <right_node>11</right_node></_>
          <_>
            <!-- node 10 -->
            <feature>
              <rects>
                <_>
                  4 18 19 3 -1.</_>
                <_>
                  4 19 19 1 3.</_></rects>
              <tilted>0</tilted></feature>
            <threshold>-7.6484549790620804e-003</threshold>
            <left_val>0.6078848838806152</left_val>
            <right_node>16</right_node></_>
          <_>
            <!-- node 11 -->
            <feature>
              <rects>
                <_>
                  22 21 2 3 -1.</_>
                <_>
                  23 21 1 3 2.</_></rects>
              <tilted>0</tilted></feature>
            <threshold>-3.9673398714512587e-004</threshold>
            <left_val>-0.1205542013049126</left_val>
            <right_val>0.7491624951362610</right_val></_>
          <_>
            <!-- node 12 -->
            <feature>
              <rects>
                <_>
                  0 19 11 3 -1.</_>
                <_>
                  0 20 11 1 3.</_></rects>
              <tilted>0</tilted></feature>
            <threshold>0.0162697192281485</threshold>
            <left_val>-0.7555664181709290</left_val>
            <right_val>0.4050242006778717</right_val></_>
          <_>
            <!-- node 13 -->
            <feature>
              <rects>
                <_>
                  20 4 2 20 -1.</_>
                <_>
                  20 4 1 10 2.</_>
                <_>
                  21 14 1 10 2.</_></rects>
              <tilted>0</tilted></feature>
            <threshold>3.4253699705004692e-003</threshold>
            <left_val>-0.7563381791114807</left_val>
            <right_val>5.2916170097887516e-003</right_val></_>
          <_>
            <!-- node 14 -->
            <feature>
              <rects>
                <_>
                  0 10 13 3 -1.</_>
                <_>
                  0 11 13 1 3.</_></rects>
              <tilted>0</tilted></feature>
            <threshold>-7.8135412186384201e-003</threshold>
            <left_val>0.6339790821075440</left_val>
            <right_node>19</right_node></_>
          <_>
            <!-- node 15 -->
            <feature>
              <rects>
                <_>
                  21 3 2 18 -1.</_>
                <_>
                  21 3 2 9 2.</_></rects>
              <tilted>1</tilted></feature>
            <threshold>4.3930490501224995e-003</threshold>
            <left_val>-0.6528773903846741</left_val>
            <right_val>0.4766413867473602</right_val></_>
          <_>
            <!-- node 16 -->
            <feature>
              <rects>
                <_>
                  15 3 3 6 -1.</_>
                <_>
                  16 5 1 2 9.</_></rects>
              <tilted>0</tilted></feature>
            <threshold>-7.6773450709879398e-003</threshold>
            <left_val>0.4382826983928680</left_val>
            <right_val>-0.5459365248680115</right_val></_>
          <_>
            <!-- node 17 -->
            <feature>
              <rects>
                <_>
                  0 1 2 16 -1.</_>
                <_>
                  0 1 1 8 2.</_>
                <_>
                  1 9 1 8 2.</_></rects>
              <tilted>0</tilted></feature>
            <threshold>-0.0159540995955467</threshold>
            <left_val>0.3691000938415527</left_val>
            <right_val>-0.7249410748481751</right_val></_>
          <_>
            <!-- node 18 -->
            <feature>
              <rects>
                <_>
                  5 12 16 12 -1.</_>
                <_>
                  5 15 16 6 2.</_></rects>
              <tilted>0</tilted></feature>
            <threshold>0.0622832290828228</threshold>
            <left_val>0.6932864785194397</left_val>
            <right_val>-0.8556941747665405</right_val></_>
          <_>
            <!-- node 19 -->
            <feature>
              <rects>
                <_>
                  6 12 16 3 -1.</_>
                <_>
                  6 13 16 1 3.</_></rects>
              <tilted>0</tilted></feature>
            <threshold>-9.3392021954059601e-003</threshold>
            <left_val>0.3203383088111877</left_val>
            <right_val>-0.7768943905830383</right_val></_></_></trees>
      <stage_threshold>-0.8996726870536804</stage_threshold>
      <parent>1</parent>
      <next>-1</next></_>
    <_>
      <!-- stage 3 -->
      <trees>
        <_>
          <!-- tree 0 -->
          <_>
            <!-- root node -->
            <feature>
              <rects>
                <_>
                  15 22 1 2 -1.</_>
                <_>
                  15 23 1 1 2.</_></rects>
              <tilted>0</tilted></feature>
            <threshold>4.7204699512803927e-005</threshold>
            <left_node>5</left_node>
            <right_node>1</right_node></_>
          <_>
            <!-- node 1 -->
            <feature>
              <rects>
                <_>
                  11 23 9 1 -1.</_>
                <_>
                  14 23 3 1 3.</_></rects>
              <tilted>0</tilted></feature>
            <threshold>8.3578872727230191e-004</threshold>
            <left_node>2</left_node>
            <right_node>18</right_node></_>
          <_>
            <!-- node 2 -->
            <feature>
              <rects>
                <_>
                  0 21 24 3 -1.</_>
                <_>
                  8 21 8 3 3.</_></rects>
              <tilted>0</tilted></feature>
            <threshold>-4.6150297857820988e-003</threshold>
            <left_node>3</left_node>
            <right_node>7</right_node></_>
          <_>
            <!-- node 3 -->
            <feature>
              <rects>
                <_>
                  13 22 2 2 -1.</_>
                <_>
                  14 22 1 2 2.</_></rects>
              <tilted>0</tilted></feature>
            <threshold>-4.0348171023651958e-004</threshold>
            <left_val>-0.5340480804443359</left_val>
            <right_node>4</right_node></_>
          <_>
            <!-- node 4 -->
            <feature>
              <rects>
                <_>
                  12 22 12 2 -1.</_>
                <_>
                  15 22 6 2 2.</_></rects>
              <tilted>0</tilted></feature>
            <threshold>2.5661691324785352e-004</threshold>
            <left_node>8</left_node>
            <right_node>11</right_node></_>
          <_>
            <!-- node 5 -->
            <feature>
              <rects>
                <_>
                  0 1 24 9 -1.</_>
                <_>
                  8 4 8 3 9.</_></rects>
              <tilted>0</tilted></feature>
            <threshold>-0.1622577011585236</threshold>
            <left_node>6</left_node>
            <right_node>10</right_node></_>
          <_>
            <!-- node 6 -->
            <feature>
              <rects>
                <_>
                  7 9 16 12 -1.</_>
                <_>
                  7 15 16 6 2.</_></rects>
              <tilted>0</tilted></feature>
            <threshold>-0.1388638019561768</threshold>
            <left_node>15</left_node>
            <right_node>9</right_node></_>
          <_>
            <!-- node 7 -->
            <feature>
              <rects>
                <_>
                  1 3 12 3 -1.</_>
                <_>
                  5 3 4 3 3.</_></rects>
              <tilted>0</tilted></feature>
            <threshold>-6.3757551833987236e-003</threshold>
            <left_node>14</left_node>
            <right_node>16</right_node></_>
          <_>
            <!-- node 8 -->
            <feature>
              <rects>
                <_>
                  7 23 12 1 -1.</_>
                <_>
                  10 23 6 1 2.</_></rects>
              <tilted>0</tilted></feature>
            <threshold>1.3301379512995481e-003</threshold>
            <left_node>13</left_node>
            <right_val>-0.5578790903091431</right_val></_>
          <_>
            <!-- node 9 -->
            <feature>
              <rects>
                <_>
                  3 19 10 4 -1.</_>
                <_>
                  3 21 10 2 2.</_></rects>
              <tilted>0</tilted></feature>
            <threshold>0.0466209314763546</threshold>
            <left_val>-0.6431223154067993</left_val>
            <right_val>0.5096654295921326</right_val></_>
          <_>
            <!-- node 10 -->
            <feature>
              <rects>
                <_>
                  12 7 12 4 -1.</_>
                <_>
                  16 7 4 4 3.</_></rects>
              <tilted>0</tilted></feature>
            <threshold>-0.0126743102446198</threshold>
            <left_node>17</left_node>
            <right_node>12</right_node></_>
          <_>
            <!-- node 11 -->
            <feature>
              <rects>
                <_>
                  0 2 12 16 -1.</_>
                <_>
                  3 2 6 16 2.</_></rects>
              <tilted>0</tilted></feature>
            <threshold>-0.0167432092130184</threshold>
            <left_val>0.4634555876255035</left_val>
            <right_node>19</right_node></_>
          <_>
            <!-- node 12 -->
            <feature>
              <rects>
                <_>
                  18 5 6 18 -1.</_>
                <_>
                  18 5 3 9 2.</_>
                <_>
                  21 14 3 9 2.</_></rects>
              <tilted>0</tilted></feature>
            <threshold>0.0470740795135498</threshold>
            <left_val>-0.7810853123664856</left_val>
            <right_val>-0.0745592266321182</right_val></_>
          <_>
            <!-- node 13 -->
            <feature>
              <rects>
                <_>
                  12 22 3 2 -1.</_>
                <_>
                  13 22 1 2 3.</_></rects>
              <tilted>0</tilted></feature>
            <threshold>-7.1036722511053085e-004</threshold>
            <left_val>-0.4635767936706543</left_val>
            <right_val>0.7849733829498291</right_val></_>
          <_>
            <!-- node 14 -->
            <feature>
              <rects>
                <_>
                  6 1 6 2 -1.</_>
                <_>
                  9 1 3 2 2.</_></rects>
              <tilted>0</tilted></feature>
            <threshold>6.2159900553524494e-003</threshold>
            <left_val>0.4337942004203796</left_val>
            <right_val>-0.9999979734420776</right_val></_>
          <_>
            <!-- node 15 -->
            <feature>
              <rects>
                <_>
                  0 19 9 3 -1.</_>
                <_>
                  3 20 3 1 9.</_></rects>
              <tilted>0</tilted></feature>
            <threshold>-1.7105879960581660e-003</threshold>
            <left_val>0.6008886098861694</left_val>
            <right_val>-0.2200527042150497</right_val></_>
          <_>
            <!-- node 16 -->
            <feature>
              <rects>
                <_>
                  6 1 3 6 -1.</_>
                <_>
                  7 2 1 6 3.</_></rects>
              <tilted>1</tilted></feature>
            <threshold>7.1012270636856556e-003</threshold>
            <left_val>-0.7350332140922546</left_val>
            <right_val>0.1137271970510483</right_val></_>
          <_>
            <!-- node 17 -->
            <feature>
              <rects>
                <_>
                  7 12 15 4 -1.</_>
                <_>
                  7 14 15 2 2.</_></rects>
              <tilted>0</tilted></feature>
            <threshold>-0.0266401208937168</threshold>
            <left_val>0.2770603895187378</left_val>
            <right_val>-0.4737094044685364</right_val></_>
          <_>
            <!-- node 18 -->
            <feature>
              <rects>
                <_>
                  0 5 24 2 -1.</_>
                <_>
                  6 5 12 2 2.</_></rects>
              <tilted>0</tilted></feature>
            <threshold>-0.0279227700084448</threshold>
            <left_val>-0.0712667629122734</left_val>
            <right_val>-0.7089228034019470</right_val></_>
          <_>
            <!-- node 19 -->
            <feature>
              <rects>
                <_>
                  5 5 10 18 -1.</_>
                <_>
                  5 5 5 9 2.</_>
                <_>
                  10 14 5 9 2.</_></rects>
              <tilted>0</tilted></feature>
            <threshold>2.0003339741379023e-003</threshold>
            <left_val>-0.8833339810371399</left_val>
            <right_val>0.0573512986302376</right_val></_></_>
        <_>
          <!-- tree 1 -->
          <_>
            <!-- root node -->
            <feature>
              <rects>
                <_>
                  0 17 6 5 -1.</_>
                <_>
                  2 17 2 5 3.</_></rects>
              <tilted>0</tilted></feature>
            <threshold>-7.6797301881015301e-003</threshold>
            <left_node>4</left_node>
            <right_node>1</right_node></_>
          <_>
            <!-- node 1 -->
            <feature>
              <rects>
                <_>
                  16 0 8 6 -1.</_>
                <_>
                  16 0 4 3 2.</_>
                <_>
                  20 3 4 3 2.</_></rects>
              <tilted>0</tilted></feature>
            <threshold>0.0138215404003859</threshold>
            <left_node>2</left_node>
            <right_node>10</right_node></_>
          <_>
            <!-- node 2 -->
            <feature>
              <rects>
                <_>
                  0 3 2 4 -1.</_>
                <_>
                  0 3 1 2 2.</_>
                <_>
                  1 5 1 2 2.</_></rects>
              <tilted>0</tilted></feature>
            <threshold>7.3857081588357687e-004</threshold>
            <left_node>3</left_node>
            <right_node>6</right_node></_>
          <_>
            <!-- node 3 -->
            <feature>
              <rects>
                <_>
                  5 0 3 5 -1.</_>
                <_>
                  6 1 1 5 3.</_></rects>
              <tilted>1</tilted></feature>
            <threshold>-4.8360540531575680e-003</threshold>
            <left_node>12</left_node>
            <right_node>8</right_node></_>
          <_>
            <!-- node 4 -->
            <feature>
              <rects>
                <_>
                  12 10 1 10 -1.</_>
                <_>
                  12 10 1 5 2.</_></rects>
              <tilted>1</tilted></feature>
            <threshold>3.8251551450230181e-004</threshold>
            <left_val>-0.3721972107887268</left_val>
            <right_node>5</right_node></_>
          <_>
            <!-- node 5 -->
            <feature>
              <rects>
                <_>
                  0 14 18 7 -1.</_>
                <_>
                  9 14 9 7 2.</_></rects>
              <tilted>0</tilted></feature>
            <threshold>0.0574181005358696</threshold>
            <left_node>7</left_node>
            <right_val>-0.6594635248184204</right_val></_>
          <_>
            <!-- node 6 -->
            <feature>
              <rects>
                <_>
                  19 11 2 8 -1.</_>
                <_>
                  19 15 2 4 2.</_></rects>
              <tilted>0</tilted></feature>
            <threshold>-1.4049459714442492e-003</threshold>
            <left_node>14</left_node>
            <right_val>-0.5078294873237610</right_val></_>
          <_>
            <!-- node 7 -->
            <feature>
              <rects>
                <_>
                  5 16 8 1 -1.</_>
                <_>
                  9 16 4 1 2.</_></rects>
              <tilted>0</tilted></feature>
            <threshold>-3.6081951111555099e-003</threshold>
            <left_val>-0.5598260760307312</left_val>
            <right_node>9</right_node></_>
          <_>
            <!-- node 8 -->
            <feature>
              <rects>
                <_>
                  5 3 3 5 -1.</_>
                <_>
                  6 4 1 5 3.</_></rects>
              <tilted>1</tilted></feature>
            <threshold>-5.3654848597943783e-003</threshold>
            <left_node>16</left_node>
            <right_node>13</right_node></_>
          <_>
            <!-- node 9 -->
            <feature>
              <rects>
                <_>
                  0 22 2 1 -1.</_>
                <_>
                  1 22 1 1 2.</_></rects>
              <tilted>0</tilted></feature>
            <threshold>1.5834790247026831e-004</threshold>
            <left_node>17</left_node>
            <right_val>-0.5278183817863464</right_val></_>
          <_>
            <!-- node 10 -->
            <feature>
              <rects>
                <_>
                  20 1 2 4 -1.</_>
                <_>
                  20 1 2 2 2.</_></rects>
              <tilted>1</tilted></feature>
            <threshold>-1.1206540511921048e-003</threshold>
            <left_val>-0.4382466077804565</left_val>
            <right_node>11</right_node></_>
          <_>
            <!-- node 11 -->
            <feature>
              <rects>
                <_>
                  17 8 6 14 -1.</_>
                <_>
                  17 15 6 7 2.</_></rects>
              <tilted>0</tilted></feature>
            <threshold>-0.0358026698231697</threshold>
            <left_node>19</left_node>
            <right_val>-0.1820499002933502</right_val></_>
          <_>
            <!-- node 12 -->
            <feature>
              <rects>
                <_>
                  8 23 4 1 -1.</_>
                <_>
                  9 23 2 1 2.</_></rects>
              <tilted>0</tilted></feature>
            <threshold>-3.7080069887451828e-004</threshold>
            <left_val>-0.8943834900856018</left_val>
            <right_node>15</right_node></_>
          <_>
            <!-- node 13 -->
            <feature>
              <rects>
                <_>
                  18 1 6 16 -1.</_>
                <_>
                  18 1 3 8 2.</_>
                <_>
                  21 9 3 8 2.</_></rects>
              <tilted>0</tilted></feature>
            <threshold>0.0175480209290981</threshold>
            <left_val>-0.7778332233428955</left_val>
            <right_val>-0.2341946959495544</right_val></_>
          <_>
            <!-- node 14 -->
            <feature>
              <rects>
                <_>
                  13 16 2 2 -1.</_>
                <_>
                  13 16 1 1 2.</_>
                <_>
                  14 17 1 1 2.</_></rects>
              <tilted>0</tilted></feature>
            <threshold>-3.7066510412842035e-004</threshold>
            <left_val>-0.6344664096832275</left_val>
            <right_val>0.3811304867267609</right_val></_>
          <_>
            <!-- node 15 -->
            <feature>
              <rects>
                <_>
                  0 14 2 8 -1.</_>
                <_>
                  0 18 2 4 2.</_></rects>
              <tilted>0</tilted></feature>
            <threshold>1.6031430277507752e-004</threshold>
            <left_node>18</left_node>
            <right_val>-0.5232846736907959</right_val></_>
          <_>
            <!-- node 16 -->
            <feature>
              <rects>
                <_>
                  8 0 12 10 -1.</_>
                <_>
                  8 0 6 5 2.</_>
                <_>
                  14 5 6 5 2.</_></rects>
              <tilted>0</tilted></feature>
            <threshold>-9.0513098984956741e-003</threshold>
            <left_val>0.3104516863822937</left_val>
            <right_val>-0.4711568057537079</right_val></_>
          <_>
            <!-- node 17 -->
            <feature>
              <rects>
                <_>
                  2 23 3 1 -1.</_>
                <_>
                  3 23 1 1 3.</_></rects>
              <tilted>0</tilted></feature>
            <threshold>8.0366129986941814e-004</threshold>
            <left_val>0.7663435935974121</left_val>
            <right_val>-0.5413203239440918</right_val></_>
          <_>
            <!-- node 18 -->
            <feature>
              <rects>
                <_>
                  1 22 15 1 -1.</_>
                <_>
                  6 22 5 1 3.</_></rects>
              <tilted>0</tilted></feature>
            <threshold>4.9672828754410148e-004</threshold>
            <left_val>0.5349861979484558</left_val>
            <right_val>-0.3449504971504211</right_val></_>
          <_>
            <!-- node 19 -->
            <feature>
              <rects>
                <_>
                  13 23 3 1 -1.</_>
                <_>
                  14 23 1 1 3.</_></rects>
              <tilted>0</tilted></feature>
            <threshold>-4.9837352707982063e-004</threshold>
            <left_val>-0.9999998807907105</left_val>
            <right_val>0.6750457882881165</right_val></_></_>
        <_>
          <!-- tree 2 -->
          <_>
            <!-- root node -->
            <feature>
              <rects>
                <_>
                  1 22 13 2 -1.</_>
                <_>
                  1 23 13 1 2.</_></rects>
              <tilted>0</tilted></feature>
            <threshold>5.8560501784086227e-003</threshold>
            <left_node>1</left_node>
            <right_node>2</right_node></_>
          <_>
            <!-- node 1 -->
            <feature>
              <rects>
                <_>
                  5 18 2 4 -1.</_>
                <_>
                  5 19 2 2 2.</_></rects>
              <tilted>0</tilted></feature>
            <threshold>-4.6464020851999521e-004</threshold>
            <left_node>3</left_node>
            <right_node>7</right_node></_>
          <_>
            <!-- node 2 -->
            <feature>
              <rects>
                <_>
                  4 1 19 22 -1.</_>
                <_>
                  4 12 19 11 2.</_></rects>
              <tilted>0</tilted></feature>
            <threshold>-0.1198280975222588</threshold>
            <left_node>4</left_node>
            <right_val>-0.4406493008136749</right_val></_>
          <_>
            <!-- node 3 -->
            <feature>
              <rects>
                <_>
                  6 23 3 1 -1.</_>
                <_>
                  7 23 1 1 3.</_></rects>
              <tilted>0</tilted></feature>
            <threshold>4.2704181396402419e-004</threshold>
            <left_node>5</left_node>
            <right_val>-0.8555172085762024</right_val></_>
          <_>
            <!-- node 4 -->
            <feature>
              <rects>
                <_>
                  4 22 2 2 -1.</_>
                <_>
                  5 22 1 2 2.</_></rects>
              <tilted>0</tilted></feature>
            <threshold>4.3209659634158015e-004</threshold>
            <left_node>6</left_node>
            <right_val>-0.6056659221649170</right_val></_>
          <_>
            <!-- node 5 -->
            <feature>
              <rects>
                <_>
                  12 18 4 2 -1.</_>
                <_>
                  12 18 2 1 2.</_>
                <_>
                  14 19 2 1 2.</_></rects>
              <tilted>0</tilted></feature>
            <threshold>-9.0463017113506794e-004</threshold>
            <left_val>-0.6432428956031799</left_val>
            <right_node>8</right_node></_>
          <_>
            <!-- node 6 -->
            <feature>
              <rects>
                <_>
                  13 17 2 1 -1.</_>
                <_>
                  14 17 1 1 2.</_></rects>
              <tilted>0</tilted></feature>
            <threshold>5.5600900668650866e-004</threshold>
            <left_node>10</left_node>
            <right_val>-0.6762530803680420</right_val></_>
          <_>
            <!-- node 7 -->
            <feature>
              <rects>
                <_>
                  20 10 3 4 -1.</_>
                <_>
                  21 10 1 4 3.</_></rects>
              <tilted>0</tilted></feature>
            <threshold>-1.3858260354027152e-003</threshold>
            <left_node>13</left_node>
            <right_node>16</right_node></_>
          <_>
            <!-- node 8 -->
            <feature>
              <rects>
                <_>
                  6 23 3 1 -1.</_>
                <_>
                  7 23 1 1 3.</_></rects>
              <tilted>0</tilted></feature>
            <threshold>-5.0391501281410456e-004</threshold>
            <left_val>-0.6789410114288330</left_val>
            <right_node>9</right_node></_>
          <_>
            <!-- node 9 -->
            <feature>
              <rects>
                <_>
                  2 11 8 12 -1.</_>
                <_>
                  2 15 8 4 3.</_></rects>
              <tilted>0</tilted></feature>
            <threshold>0.0889210924506187</threshold>
            <left_node>11</left_node>
            <right_val>-0.6443248987197876</right_val></_>
          <_>
            <!-- node 10 -->
            <feature>
              <rects>
                <_>
                  14 15 9 9 -1.</_>
                <_>
                  14 18 9 3 3.</_></rects>
              <tilted>0</tilted></feature>
            <threshold>-0.1193222999572754</threshold>
            <left_val>-0.9999998807907105</left_val>
            <right_node>12</right_node></_>
          <_>
            <!-- node 11 -->
            <feature>
              <rects>
                <_>
                  10 15 2 2 -1.</_>
                <_>
                  10 15 1 1 2.</_>
                <_>
                  11 16 1 1 2.</_></rects>
              <tilted>0</tilted></feature>
            <threshold>3.8580471300520003e-004</threshold>
            <left_node>19</left_node>
            <right_val>-0.4269038140773773</right_val></_>
          <_>
            <!-- node 12 -->
            <feature>
              <rects>
                <_>
                  1 23 2 1 -1.</_>
                <_>
                  2 23 1 1 2.</_></rects>
              <tilted>0</tilted></feature>
            <threshold>2.1541479509323835e-004</threshold>
            <left_node>14</left_node>
            <right_val>-0.1774884015321732</right_val></_>
          <_>
            <!-- node 13 -->
            <feature>
              <rects>
                <_>
                  15 19 2 1 -1.</_>
                <_>
                  16 19 1 1 2.</_></rects>
              <tilted>0</tilted></feature>
            <threshold>2.1934640244580805e-004</threshold>
            <left_node>18</left_node>
            <right_val>-0.8254595994949341</right_val></_>
          <_>
            <!-- node 14 -->
            <feature>
              <rects>
                <_>
                  1 17 15 6 -1.</_>
                <_>
                  1 20 15 3 2.</_></rects>
              <tilted>0</tilted></feature>
            <threshold>-0.0781980231404305</threshold>
            <left_val>-0.5873594880104065</left_val>
            <right_node>15</right_node></_>
          <_>
            <!-- node 15 -->
            <feature>
              <rects>
                <_>
                  3 23 3 1 -1.</_>
                <_>
                  4 23 1 1 3.</_></rects>
              <tilted>0</tilted></feature>
            <threshold>5.5156677262857556e-004</threshold>
            <left_val>0.7306674718856812</left_val>
            <right_val>-0.4853102862834930</right_val></_>
          <_>
            <!-- node 16 -->
            <feature>
              <rects>
                <_>
                  22 10 2 4 -1.</_>
                <_>
                  22 11 2 2 2.</_></rects>
              <tilted>0</tilted></feature>
            <threshold>-6.6377228358760476e-004</threshold>
            <left_node>17</left_node>
            <right_val>-0.6870744824409485</right_val></_>
          <_>
            <!-- node 17 -->
            <feature>
              <rects>
                <_>
                  1 21 9 3 -1.</_>
                <_>
                  1 22 9 1 3.</_></rects>
              <tilted>0</tilted></feature>
            <threshold>-5.6566362036392093e-004</threshold>
            <left_val>0.1817926019430161</left_val>
            <right_val>-0.5866314172744751</right_val></_>
          <_>
            <!-- node 18 -->
            <feature>
              <rects>
                <_>
                  12 14 8 2 -1.</_>
                <_>
                  14 14 4 2 2.</_></rects>
              <tilted>0</tilted></feature>
            <threshold>2.6044219266623259e-003</threshold>
            <left_val>0.3692497909069061</left_val>
            <right_val>-0.7518407702445984</right_val></_>
          <_>
            <!-- node 19 -->
            <feature>
              <rects>
                <_>
                  0 2 23 20 -1.</_>
                <_>
                  0 12 23 10 2.</_></rects>
              <tilted>0</tilted></feature>
            <threshold>-0.6704720258712769</threshold>
            <left_val>-0.7129722833633423</left_val>
            <right_val>0.5070223808288574</right_val></_></_></trees>
      <stage_threshold>-0.9710351228713989</stage_threshold>
      <parent>2</parent>
      <next>-1</next></_>
    <_>
      <!-- stage 4 -->
      <trees>
        <_>
          <!-- tree 0 -->
          <_>
            <!-- root node -->
            <feature>
              <rects>
                <_>
                  22 21 2 3 -1.</_>
                <_>
                  23 21 1 3 2.</_></rects>
              <tilted>0</tilted></feature>
            <threshold>2.7952000891673379e-005</threshold>
            <left_node>2</left_node>
            <right_node>1</right_node></_>
          <_>
            <!-- node 1 -->
            <feature>
              <rects>
                <_>
                  12 22 8 2 -1.</_>
                <_>
                  12 23 8 1 2.</_></rects>
              <tilted>0</tilted></feature>
            <threshold>4.2625949718058109e-003</threshold>
            <left_node>4</left_node>
            <right_node>3</right_node></_>
          <_>
            <!-- node 2 -->
            <feature>
              <rects>
                <_>
                  0 20 2 2 -1.</_>
                <_>
                  1 20 1 2 2.</_></rects>
              <tilted>0</tilted></feature>
            <threshold>-5.9529960708459839e-005</threshold>
            <left_node>9</left_node>
            <right_val>-0.7083438038825989</right_val></_>
          <_>
            <!-- node 3 -->
            <feature>
              <rects>
                <_>
                  17 23 6 1 -1.</_>
                <_>
                  20 23 3 1 2.</_></rects>
              <tilted>0</tilted></feature>
            <threshold>-7.0597871672362089e-004</threshold>
            <left_val>-0.4890612065792084</left_val>
            <right_node>6</right_node></_>
          <_>
            <!-- node 4 -->
            <feature>
              <rects>
                <_>
                  5 0 14 4 -1.</_>
                <_>
                  5 1 14 2 2.</_></rects>
              <tilted>0</tilted></feature>
            <threshold>0.0284252893179655</threshold>
            <left_node>5</left_node>
            <right_node>16</right_node></_>
          <_>
            <!-- node 5 -->
            <feature>
              <rects>
                <_>
                  3 0 18 4 -1.</_>
                <_>
                  3 1 18 2 2.</_></rects>
              <tilted>0</tilted></feature>
            <threshold>-0.0244639404118061</threshold>
            <left_node>15</left_node>
            <right_node>7</right_node></_>
          <_>
            <!-- node 6 -->
            <feature>
              <rects>
                <_>
                  0 22 14 2 -1.</_>
                <_>
                  7 22 7 2 2.</_></rects>
              <tilted>0</tilted></feature>
            <threshold>7.9929791390895844e-003</threshold>
            <left_node>8</left_node>
            <right_val>-0.7514966130256653</right_val></_>
          <_>
            <!-- node 7 -->
            <feature>
              <rects>
                <_>
                  6 1 11 2 -1.</_>
                <_>
                  6 2 11 1 2.</_></rects>
              <tilted>0</tilted></feature>
            <threshold>-0.0175787303596735</threshold>
            <left_val>0.4573594927787781</left_val>
            <right_node>12</right_node></_>
          <_>
            <!-- node 8 -->
            <feature>
              <rects>
                <_>
                  7 20 1 4 -1.</_>
                <_>
                  7 21 1 2 2.</_></rects>
              <tilted>0</tilted></feature>
            <threshold>-3.7923781201243401e-004</threshold>
            <left_node>10</left_node>
            <right_val>0.1031228005886078</right_val></_>
          <_>
            <!-- node 9 -->
            <feature>
              <rects>
                <_>
                  0 3 4 12 -1.</_>
                <_>
                  0 3 2 6 2.</_>
                <_>
                  2 9 2 6 2.</_></rects>
              <tilted>0</tilted></feature>
            <threshold>-0.0134210903197527</threshold>
            <left_node>18</left_node>
            <right_node>11</right_node></_>
          <_>
            <!-- node 10 -->
            <feature>
              <rects>
                <_>
                  7 22 6 1 -1.</_>
                <_>
                  9 22 2 1 3.</_></rects>
              <tilted>0</tilted></feature>
            <threshold>-1.3055680319666862e-003</threshold>
            <left_val>-0.9999998211860657</left_val>
            <right_val>0.7922626733779907</right_val></_>
          <_>
            <!-- node 11 -->
            <feature>
              <rects>
                <_>
                  0 7 6 1 -1.</_>
                <_>
                  2 7 2 1 3.</_></rects>
              <tilted>0</tilted></feature>
            <threshold>-2.1701210644096136e-003</threshold>
            <left_val>0.1710143983364105</left_val>
            <right_node>19</right_node></_>
          <_>
            <!-- node 12 -->
            <feature>
              <rects>
                <_>
                  5 6 13 6 -1.</_>
                <_>
                  5 8 13 2 3.</_></rects>
              <tilted>0</tilted></feature>
            <threshold>-0.0364003814756870</threshold>
            <left_node>17</left_node>
            <right_node>13</right_node></_>
          <_>
            <!-- node 13 -->
            <feature>
              <rects>
                <_>
                  16 18 8 4 -1.</_>
                <_>
                  16 19 8 2 2.</_></rects>
              <tilted>0</tilted></feature>
            <threshold>-3.5140360705554485e-003</threshold>
            <left_node>14</left_node>
            <right_val>-0.6864050030708313</right_val></_>
          <_>
            <!-- node 14 -->
            <feature>
              <rects>
                <_>
                  0 0 24 3 -1.</_>
                <_>
                  8 1 8 1 9.</_></rects>
              <tilted>0</tilted></feature>
            <threshold>-0.0287937391549349</threshold>
            <left_val>0.2521542012691498</left_val>
            <right_val>-0.5648040771484375</right_val></_>
          <_>
            <!-- node 15 -->
            <feature>
              <rects>
                <_>
                  8 19 4 1 -1.</_>
                <_>
                  9 19 2 1 2.</_></rects>
              <tilted>0</tilted></feature>
            <threshold>4.1055481415241957e-004</threshold>
            <left_val>0.4952642917633057</left_val>
            <right_val>-0.6174951791763306</right_val></_>
          <_>
            <!-- node 16 -->
            <feature>
              <rects>
                <_>
                  22 1 2 4 -1.</_>
                <_>
                  22 3 2 2 2.</_></rects>
              <tilted>0</tilted></feature>
            <threshold>-6.6509451717138290e-003</threshold>
            <left_val>-0.5790771842002869</left_val>
            <right_val>0.7223721146583557</right_val></_>
          <_>
            <!-- node 17 -->
            <feature>
              <rects>
                <_>
                  10 11 3 6 -1.</_>
                <_>
                  10 14 3 3 2.</_></rects>
              <tilted>0</tilted></feature>
            <threshold>-3.7742198910564184e-003</threshold>
            <left_val>0.4656716883182526</left_val>
            <right_val>-0.6982132196426392</right_val></_>
          <_>
            <!-- node 18 -->
            <feature>
              <rects>
                <_>
                  8 17 16 5 -1.</_>
                <_>
                  16 17 8 5 2.</_></rects>
              <tilted>0</tilted></feature>
            <threshold>-0.0248264800757170</threshold>
            <left_val>-0.9999995827674866</left_val>
            <right_val>0.5205615162849426</right_val></_>
          <_>
            <!-- node 19 -->
            <feature>
              <rects>
                <_>
                  22 5 2 6 -1.</_>
                <_>
                  22 5 1 3 2.</_>
                <_>
                  23 8 1 3 2.</_></rects>
              <tilted>0</tilted></feature>
            <threshold>2.0369030535221100e-003</threshold>
            <left_val>-0.5808408856391907</left_val>
            <right_val>0.0872352421283722</right_val></_></_>
        <_>
          <!-- tree 1 -->
          <_>
            <!-- root node -->
            <feature>
              <rects>
                <_>
                  9 23 8 1 -1.</_>
                <_>
                  11 23 4 1 2.</_></rects>
              <tilted>0</tilted></feature>
            <threshold>5.6093011517077684e-004</threshold>
            <left_node>1</left_node>
            <right_node>8</right_node></_>
          <_>
            <!-- node 1 -->
            <feature>
              <rects>
                <_>
                  9 23 9 1 -1.</_>
                <_>
                  12 23 3 1 3.</_></rects>
              <tilted>0</tilted></feature>
            <threshold>-1.7270559910684824e-003</threshold>
            <left_node>11</left_node>
            <right_node>2</right_node></_>
          <_>
            <!-- node 2 -->
            <feature>
              <rects>
                <_>
                  3 22 21 2 -1.</_>
                <_>
                  10 22 7 2 3.</_></rects>
              <tilted>0</tilted></feature>
            <threshold>-2.4055959656834602e-003</threshold>
            <left_node>4</left_node>
            <right_node>3</right_node></_>
          <_>
            <!-- node 3 -->
            <feature>
              <rects>
                <_>
                  5 19 12 3 -1.</_>
                <_>
                  5 20 12 1 3.</_></rects>
              <tilted>0</tilted></feature>
            <threshold>-5.0756018608808517e-003</threshold>
            <left_node>9</left_node>
            <right_node>13</right_node></_>
          <_>
            <!-- node 4 -->
            <feature>
              <rects>
                <_>
                  0 23 4 1 -1.</_>
                <_>
                  2 23 2 1 2.</_></rects>
              <tilted>0</tilted></feature>
            <threshold>-2.9032429665676318e-005</threshold>
            <left_node>5</left_node>
            <right_node>6</right_node></_>
          <_>
            <!-- node 5 -->
            <feature>
              <rects>
                <_>
                  1 20 18 4 -1.</_>
                <_>
                  10 20 9 4 2.</_></rects>
              <tilted>0</tilted></feature>
            <threshold>-0.0401373617351055</threshold>
            <left_val>-0.4682396948337555</left_val>
            <right_node>7</right_node></_>
          <_>
            <!-- node 6 -->
            <feature>
              <rects>
                <_>
                  0 16 3 4 -1.</_>
                <_>
                  0 18 3 2 2.</_></rects>
              <tilted>0</tilted></feature>
            <threshold>-3.3982191234827042e-004</threshold>
            <left_node>16</left_node>
            <right_node>17</right_node></_>
          <_>
            <!-- node 7 -->
            <feature>
              <rects>
                <_>
                  2 0 22 22 -1.</_>
                <_>
                  2 11 22 11 2.</_></rects>
              <tilted>0</tilted></feature>
            <threshold>-9.5299407839775085e-003</threshold>
            <left_node>10</left_node>
            <right_val>-0.4360448122024536</right_val></_>
          <_>
            <!-- node 8 -->
            <feature>
              <rects>
                <_>
                  22 6 2 16 -1.</_>
                <_>
                  23 6 1 16 2.</_></rects>
              <tilted>0</tilted></feature>
            <threshold>0.0135693298652768</threshold>
            <left_val>-0.6837620735168457</left_val>
            <right_val>0.3071612119674683</right_val></_>
          <_>
            <!-- node 9 -->
            <feature>
              <rects>
                <_>
                  18 0 2 24 -1.</_>
                <_>
                  18 12 2 12 2.</_></rects>
              <tilted>0</tilted></feature>
            <threshold>-1.6969280550256371e-003</threshold>
            <left_node>12</left_node>
            <right_val>-0.7139862179756165</right_val></_>
          <_>
            <!-- node 10 -->
            <feature>
              <rects>
                <_>
                  10 23 3 1 -1.</_>
                <_>
                  11 23 1 1 3.</_></rects>
              <tilted>0</tilted></feature>
            <threshold>-5.3418532479554415e-004</threshold>
            <left_val>-0.8806477189064026</left_val>
            <right_node>14</right_node></_>
          <_>
            <!-- node 11 -->
            <feature>
              <rects>
                <_>
                  4 19 16 2 -1.</_>
                <_>
                  4 20 16 1 2.</_></rects>
              <tilted>0</tilted></feature>
            <threshold>0.0233644805848598</threshold>
            <left_node>18</left_node>
            <right_val>0.4474717974662781</right_val></_>
          <_>
            <!-- node 12 -->
            <feature>
              <rects>
                <_>
                  12 21 1 3 -1.</_>
                <_>
                  12 22 1 1 3.</_></rects>
              <tilted>0</tilted></feature>
            <threshold>1.0855420259758830e-004</threshold>
            <left_val>-0.2233563959598541</left_val>
            <right_val>0.5874003767967224</right_val></_>
          <_>
            <!-- node 13 -->
            <feature>
              <rects>
                <_>
                  10 0 5 2 -1.</_>
                <_>
                  10 1 5 1 2.</_></rects>
              <tilted>0</tilted></feature>
            <threshold>5.2267718128859997e-003</threshold>
            <left_val>-0.6298257112503052</left_val>
            <right_val>0.1445571035146713</right_val></_>
          <_>
            <!-- node 14 -->
            <feature>
              <rects>
                <_>
                  2 22 2 2 -1.</_>
                <_>
                  2 23 2 1 2.</_></rects>
              <tilted>0</tilted></feature>
            <threshold>4.1346011130372062e-005</threshold>
            <left_node>15</left_node>
            <right_val>0.7388200759887695</right_val></_>
          <_>
            <!-- node 15 -->
            <feature>
              <rects>
                <_>
                  6 1 6 9 -1.</_>
                <_>
                  8 4 2 3 9.</_></rects>
