<?xml version="1.0"?>
<opencv_storage>
<data type_id="opencv-haar-classifier">
  <size>
    24 24</size>
  <stages>
    <_>
      <!-- stage 0 -->
      <trees>
        <_>
          <!-- tree 0 -->
          <_>
            <!-- root node -->
            <feature>
              <rects>
                <_>
                  0 5 24 18 -1.</_>
                <_>
                  0 14 24 9 2.</_></rects>
              <tilted>0</tilted></feature>
            <threshold>-0.2047064006328583</threshold>
            <left_node>1</left_node>
            <right_node>5</right_node></_>
          <_>
            <!-- node 1 -->
            <feature>
              <rects>
                <_>
                  0 21 24 3 -1.</_>
                <_>
                  8 21 8 3 3.</_></rects>
              <tilted>0</tilted></feature>
            <threshold>-2.6059059891849756e-003</threshold>
            <left_node>2</left_node>
            <right_node>3</right_node></_>
          <_>
            <!-- node 2 -->
            <feature>
              <rects>
                <_>
                  11 23 4 1 -1.</_>
                <_>
                  13 23 2 1 2.</_></rects>
              <tilted>0</tilted></feature>
            <threshold>-5.1488319877535105e-004</threshold>
            <left_val>-0.8798555731773377</left_val>
            <right_node>4</right_node></_>
          <_>
            <!-- node 3 -->
            <feature>
              <rects>
                <_>
                  1 0 21 2 -1.</_>
                <_>
                  1 1 21 1 2.</_></rects>
              <tilted>0</tilted></feature>
            <threshold>-0.0119072804227471</threshold>
            <left_node>14</left_node>
            <right_node>10</right_node></_>
          <_>
            <!-- node 4 -->
            <feature>
              <rects>
                <_>
                  20 23 4 1 -1.</_>
                <_>
                  22 23 2 1 2.</_></rects>
              <tilted>0</tilted></feature>
            <threshold>-5.1076762611046433e-004</threshold>
            <left_val>-1.</left_val>
            <right_node>6</right_node></_>
          <_>
            <!-- node 5 -->
            <feature>
              <rects>
                <_>
                  5 0 10 4 -1.</_>
                <_>
                  5 1 10 2 2.</_></rects>
              <tilted>0</tilted></feature>
            <threshold>-0.0195247102528811</threshold>
            <left_node>8</left_node>
            <right_node>7</right_node></_>
          <_>
            <!-- node 6 -->
            <feature>
              <rects>
                <_>
                  7 23 8 1 -1.</_>
                <_>
                  9 23 4 1 2.</_></rects>
              <tilted>0</tilted></feature>
            <threshold>-3.0407009180635214e-003</threshold>
            <left_val>-0.7349991798400879</left_val>
            <right_node>9</right_node></_>
          <_>
            <!-- node 7 -->
            <feature>
              <rects>
                <_>
                  8 8 2 12 -1.</_>
                <_>
                  8 11 2 6 2.</_></rects>
              <tilted>0</tilted></feature>
            <threshold>0.0446905083954334</threshold>
            <left_node>12</left_node>
            <right_val>0.7638043165206909</right_val></_>
          <_>
            <!-- node 8 -->
            <feature>
              <rects>
                <_>
                  4 6 1 4 -1.</_>
                <_>
                  3 7 1 2 2.</_></rects>
              <tilted>1</tilted></feature>
            <threshold>-1.3457869645208120e-003</threshold>
            <left_node>18</left_node>
            <right_val>-1.0000020265579224</right_val></_>
          <_>
            <!-- node 9 -->
            <feature>
              <rects>
                <_>
                  1 1 22 9 -1.</_>
                <_>
                  12 1 11 9 2.</_></rects>
              <tilted>0</tilted></feature>
            <threshold>-0.1450296044349670</threshold>
            <left_val>-1.</left_val>
            <right_node>11</right_node></_>
          <_>
            <!-- node 10 -->
            <feature>
              <rects>
                <_>
                  18 1 4 3 -1.</_>
                <_>
                  18 2 4 1 3.</_></rects>
              <tilted>0</tilted></feature>
            <threshold>0.0164695400744677</threshold>
            <left_val>-0.9614045023918152</left_val>
            <right_val>0.8001936078071594</right_val></_>
          <_>
            <!-- node 11 -->
            <feature>
              <rects>
                <_>
                  7 17 4 3 -1.</_>
                <_>
                  9 17 2 3 2.</_></rects>
              <tilted>0</tilted></feature>
            <threshold>4.2067780159413815e-003</threshold>
            <left_node>13</left_node>
            <right_val>-1.0006560087203979</right_val></_>
          <_>
            <!-- node 12 -->
            <feature>
              <rects>
                <_>
                  7 1 3 2 -1.</_>
                <_>
                  7 2 3 1 2.</_></rects>
              <tilted>0</tilted></feature>
            <threshold>-0.0127817103639245</threshold>
            <left_val>0.3176510930061340</left_val>
            <right_val>-0.9874728918075562</right_val></_>
          <_>
            <!-- node 13 -->
            <feature>
              <rects>
                <_>
                  2 2 12 22 -1.</_>
                <_>
                  2 2 6 11 2.</_>
                <_>
                  8 13 6 11 2.</_></rects>
              <tilted>0</tilted></feature>
            <threshold>-0.0976614281535149</threshold>
            <left_node>15</left_node>
            <right_node>16</right_node></_>
          <_>
            <!-- node 14 -->
            <feature>
              <rects>
                <_>
                  2 20 21 1 -1.</_>
                <_>
                  9 20 7 1 3.</_></rects>
              <tilted>0</tilted></feature>
            <threshold>3.9228210225701332e-003</threshold>
            <left_val>0.8622338771820068</left_val>
            <right_val>-1.0000020265579224</right_val></_>
          <_>
            <!-- node 15 -->
            <feature>
              <rects>
                <_>
                  4 1 18 3 -1.</_>
                <_>
                  4 2 18 1 3.</_></rects>
              <tilted>0</tilted></feature>
            <threshold>-0.0135009801015258</threshold>
            <left_val>1.</left_val>
            <right_val>-1.0000009536743164</right_val></_>
          <_>
            <!-- node 16 -->
            <feature>
              <rects>
                <_>
                  2 2 18 21 -1.</_>
                <_>
                  8 9 6 7 9.</_></rects>
              <tilted>0</tilted></feature>
            <threshold>-0.3844541013240814</threshold>
            <left_val>-0.9999998807907105</left_val>
            <right_node>17</right_node></_>
          <_>
            <!-- node 17 -->
            <feature>
              <rects>
                <_>
                  3 0 19 24 -1.</_>
                <_>
                  3 12 19 12 2.</_></rects>
              <tilted>0</tilted></feature>
            <threshold>-0.7571048736572266</threshold>
            <left_val>-0.9999998807907105</left_val>
            <right_node>19</right_node></_>
          <_>
            <!-- node 18 -->
            <feature>
              <rects>
                <_>
                  12 1 2 2 -1.</_>
                <_>
                  13 1 1 2 2.</_></rects>
              <tilted>0</tilted></feature>
            <threshold>-1.2077030260115862e-004</threshold>
            <left_val>-0.9999998807907105</left_val>
            <right_val>0.9500625133514404</right_val></_>
          <_>
            <!-- node 19 -->
            <feature>
              <rects>
                <_>
                  16 19 8 5 -1.</_>
                <_>
                  20 19 4 5 2.</_></rects>
              <tilted>0</tilted></feature>
            <threshold>-0.0102236596867442</threshold>
            <left_val>-1.</left_val>
            <right_val>0.9743903875350952</right_val></_></_></trees>
      <stage_threshold>-0.9614045023918152</stage_threshold>
      <parent>-1</parent>
      <next>-1</next></_>
    <_>
      <!-- stage 1 -->
      <trees>
        <_>
          <!-- tree 0 -->
          <_>
            <!-- root node -->
            <feature>
              <rects>
                <_>
                  0 21 24 3 -1.</_>
                <_>
                  8 21 8 3 3.</_></rects>
              <tilted>0</tilted></feature>
            <threshold>-2.6076440699398518e-003</threshold>
            <left_node>1</left_node>
            <right_node>4</right_node></_>
          <_>
            <!-- node 1 -->
            <feature>
              <rects>
                <_>
                  11 23 4 1 -1.</_>
                <_>
                  13 23 2 1 2.</_></rects>
              <tilted>0</tilted></feature>
            <threshold>-5.1032501505687833e-004</threshold>
            <left_val>-0.9719728231430054</left_val>
            <right_node>2</right_node></_>
          <_>
            <!-- node 2 -->
            <feature>
              <rects>
                <_>
                  7 23 8 1 -1.</_>
                <_>
                  9 23 4 1 2.</_></rects>
              <tilted>0</tilted></feature>
            <threshold>-1.3502449728548527e-003</threshold>
            <left_node>6</left_node>
            <right_node>3</right_node></_>
          <_>
            <!-- node 3 -->
            <feature>
              <rects>
                <_>
                  11 18 12 6 -1.</_>
                <_>
                  11 20 12 2 3.</_></rects>
              <tilted>0</tilted></feature>
            <threshold>-4.8168669454753399e-003</threshold>
            <left_node>8</left_node>
            <right_node>5</right_node></_>
          <_>
            <!-- node 4 -->
            <feature>
              <rects>
                <_>
                  1 0 21 2 -1.</_>
                <_>
                  1 1 21 1 2.</_></rects>
              <tilted>0</tilted></feature>
            <threshold>-0.0120802801102400</threshold>
            <left_node>7</left_node>
            <right_node>15</right_node></_>
          <_>
            <!-- node 5 -->
            <feature>
              <rects>
                <_>
                  0 22 24 2 -1.</_>
                <_>
                  0 22 12 1 2.</_>
                <_>
                  12 23 12 1 2.</_></rects>
              <tilted>0</tilted></feature>
            <threshold>1.6651650366839021e-004</threshold>
            <left_node>11</left_node>
            <right_node>9</right_node></_>
          <_>
            <!-- node 6 -->
            <feature>
              <rects>
                <_>
                  5 1 12 1 -1.</_>
                <_>
                  5 1 6 1 2.</_></rects>
              <tilted>1</tilted></feature>
            <threshold>-0.0217173695564270</threshold>
            <left_node>13</left_node>
            <right_node>17</right_node></_>
          <_>
            <!-- node 7 -->
            <feature>
              <rects>
                <_>
                  10 2 9 10 -1.</_>
                <_>
                  13 2 3 10 3.</_></rects>
              <tilted>0</tilted></feature>
            <threshold>-1.5545520000159740e-003</threshold>
            <left_node>10</left_node>
            <right_val>-0.9999942183494568</right_val></_>
          <_>
            <!-- node 8 -->
            <feature>
              <rects>
                <_>
                  16 12 8 12 -1.</_>
                <_>
                  16 15 8 6 2.</_></rects>
              <tilted>0</tilted></feature>
            <threshold>0.0296187493950129</threshold>
            <left_node>12</left_node>
            <right_val>-0.9997028112411499</right_val></_>
          <_>
            <!-- node 9 -->
            <feature>
              <rects>
                <_>
                  1 6 4 14 -1.</_>
                <_>
                  1 13 4 7 2.</_></rects>
              <tilted>0</tilted></feature>
            <threshold>-0.0233085397630930</threshold>
            <left_node>14</left_node>
            <right_val>-1.0000009536743164</right_val></_>
          <_>
            <!-- node 10 -->
            <feature>
              <rects>
                <_>
                  16 8 8 8 -1.</_>
                <_>
                  16 8 4 8 2.</_></rects>
              <tilted>1</tilted></feature>
            <threshold>0.0177091602236032</threshold>
            <left_val>-1.</left_val>
            <right_node>19</right_node></_>
          <_>
            <!-- node 11 -->
            <feature>
              <rects>
                <_>
                  0 12 2 4 -1.</_>
                <_>
                  1 12 1 4 2.</_></rects>
              <tilted>0</tilted></feature>
            <threshold>-4.9847550690174103e-003</threshold>
            <left_val>0.8622015714645386</left_val>
            <right_val>-0.9999976754188538</right_val></_>
          <_>
            <!-- node 12 -->
            <feature>
              <rects>
                <_>
                  0 12 16 12 -1.</_>
                <_>
                  8 12 8 12 2.</_></rects>
              <tilted>0</tilted></feature>
            <threshold>0.0839961618185043</threshold>
            <left_node>16</left_node>
            <right_val>-0.9995424151420593</right_val></_>
          <_>
            <!-- node 13 -->
            <feature>
              <rects>
                <_>
                  13 18 2 4 -1.</_>
                <_>
                  13 19 2 2 2.</_></rects>
              <tilted>0</tilted></feature>
            <threshold>-1.1579380370676517e-003</threshold>
            <left_val>0.9286425709724426</left_val>
            <right_val>-0.9999998807907105</right_val></_>
          <_>
            <!-- node 14 -->
            <feature>
              <rects>
                <_>
                  17 8 6 8 -1.</_>
                <_>
                  17 8 6 4 2.</_></rects>
              <tilted>1</tilted></feature>
            <threshold>0.0851206406950951</threshold>
            <left_val>0.8450232744216919</left_val>
            <right_val>-1.0000050067901611</right_val></_>
          <_>
            <!-- node 15 -->
            <feature>
              <rects>
                <_>
                  22 6 1 6 -1.</_>
                <_>
                  22 6 1 3 2.</_></rects>
              <tilted>1</tilted></feature>
            <threshold>0.0378765799105167</threshold>
            <left_val>-0.9842451810836792</left_val>
            <right_val>0.8961129784584045</right_val></_>
          <_>
            <!-- node 16 -->
            <feature>
              <rects>
                <_>
                  1 22 12 2 -1.</_>
                <_>
                  4 22 6 2 2.</_></rects>
              <tilted>0</tilted></feature>
            <threshold>-0.0102692898362875</threshold>
            <left_val>-0.9999998807907105</left_val>
            <right_node>18</right_node></_>
          <_>
            <!-- node 17 -->
            <feature>
              <rects>
                <_>
                  16 4 4 2 -1.</_>
                <_>
                  16 4 4 1 2.</_></rects>
              <tilted>1</tilted></feature>
            <threshold>0.0147736500948668</threshold>
            <left_val>-0.9999958872795105</left_val>
            <right_val>0.8001105189323425</right_val></_>
          <_>
            <!-- node 18 -->
            <feature>
              <rects>
                <_>
                  16 23 4 1 -1.</_>
                <_>
                  18 23 2 1 2.</_></rects>
              <tilted>0</tilted></feature>
            <threshold>-5.2769208559766412e-004</threshold>
            <left_val>-0.9999998211860657</left_val>
            <right_val>0.9596735239028931</right_val></_>
          <_>
            <!-- node 19 -->
            <feature>
              <rects>
                <_>
                  9 14 8 2 -1.</_>
                <_>
                  11 14 4 2 2.</_></rects>
              <tilted>0</tilted></feature>
            <threshold>1.4423020184040070e-003</threshold>
            <left_val>0.9059749841690064</left_val>
            <right_val>-1.0000009536743164</right_val></_></_></trees>
      <stage_threshold>-0.9719728231430054</stage_threshold>
      <parent>0</parent>
      <next>-1</next></_>
    <_>
      <!-- stage 2 -->
      <trees>
        <_>
          <!-- tree 0 -->
          <_>
            <!-- root node -->
            <feature>
              <rects>
                <_>
                  11 23 4 1 -1.</_>
                <_>
                  13 23 2 1 2.</_></rects>
              <tilted>0</tilted></feature>
            <threshold>-5.0634599756449461e-004</threshold>
            <left_node>12</left_node>
            <right_node>1</right_node></_>
          <_>
            <!-- node 1 -->
            <feature>
              <rects>
                <_>
                  18 22 6 2 -1.</_>
                <_>
                  21 22 3 2 2.</_></rects>
              <tilted>0</tilted></feature>
            <threshold>1.1208099749637768e-004</threshold>
            <left_node>3</left_node>
            <right_node>2</right_node></_>
          <_>
            <!-- node 2 -->
            <feature>
              <rects>
                <_>
                  0 23 2 1 -1.</_>
                <_>
                  1 23 1 1 2.</_></rects>
              <tilted>0</tilted></feature>
            <threshold>2.1852459758520126e-004</threshold>
            <left_node>4</left_node>
            <right_node>6</right_node></_>
          <_>
            <!-- node 3 -->
            <feature>
              <rects>
                <_>
                  19 5 5 8 -1.</_>
                <_>
                  19 7 5 4 2.</_></rects>
              <tilted>0</tilted></feature>
            <threshold>0.0129331201314926</threshold>
            <left_node>8</left_node>
            <right_node>10</right_node></_>
          <_>
            <!-- node 4 -->
            <feature>
              <rects>
                <_>
                  9 6 15 15 -1.</_>
                <_>
                  14 11 5 5 9.</_></rects>
              <tilted>0</tilted></feature>
            <threshold>-0.2280220985412598</threshold>
            <left_val>-1.</left_val>
            <right_node>5</right_node></_>
          <_>
            <!-- node 5 -->
            <feature>
              <rects>
                <_>
                  3 0 21 24 -1.</_>
                <_>
                  3 12 21 12 2.</_></rects>
              <tilted>0</tilted></feature>
            <threshold>-0.0605241395533085</threshold>
            <left_node>7</left_node>
            <right_val>-1.0002750158309937</right_val></_>
          <_>
            <!-- node 6 -->
            <feature>
              <rects>
                <_>
                  0 1 8 2 -1.</_>
                <_>
                  4 1 4 2 2.</_></rects>
              <tilted>0</tilted></feature>
            <threshold>-3.4890430979430676e-003</threshold>
            <left_node>15</left_node>
            <right_val>-0.9999998211860657</right_val></_>
          <_>
            <!-- node 7 -->
            <feature>
              <rects>
                <_>
                  0 8 24 16 -1.</_>
                <_>
                  0 16 24 8 2.</_></rects>
              <tilted>0</tilted></feature>
            <threshold>-0.6610124707221985</threshold>
            <left_val>-1.</left_val>
            <right_node>9</right_node></_>
          <_>
            <!-- node 8 -->
            <feature>
              <rects>
                <_>
                  16 5 4 2 -1.</_>
                <_>
                  17 6 2 2 2.</_></rects>
              <tilted>1</tilted></feature>
            <threshold>0.0131402695551515</threshold>
            <left_val>-1.</left_val>
            <right_val>0.8463004827499390</right_val></_>
          <_>
            <!-- node 9 -->
            <feature>
              <rects>
                <_>
                  16 22 4 2 -1.</_>
                <_>
                  16 23 4 1 2.</_></rects>
              <tilted>0</tilted></feature>
            <threshold>-2.0552850328385830e-003</threshold>
            <left_val>-1.</left_val>
            <right_node>11</right_node></_>
          <_>
            <!-- node 10 -->
            <feature>
              <rects>
                <_>
                  3 15 4 3 -1.</_>
                <_>
                  3 15 2 3 2.</_></rects>
              <tilted>1</tilted></feature>
            <threshold>4.7582359984517097e-003</threshold>
            <left_val>-1.</left_val>
            <right_val>0.8388633131980896</right_val></_>
          <_>
            <!-- node 11 -->
            <feature>
              <rects>
                <_>
                  1 0 15 18 -1.</_>
                <_>
                  1 9 15 9 2.</_></rects>
              <tilted>0</tilted></feature>
            <threshold>-0.3967990875244141</threshold>
            <left_val>-1.</left_val>
            <right_node>13</right_node></_>
          <_>
            <!-- node 12 -->
            <feature>
              <rects>
                <_>
                  5 4 2 8 -1.</_>
                <_>
                  5 6 2 4 2.</_></rects>
              <tilted>0</tilted></feature>
            <threshold>-0.0257171299308538</threshold>
            <left_val>0.4214794039726257</left_val>
            <right_val>-0.9885197281837463</right_val></_>
          <_>
            <!-- node 13 -->
            <feature>
              <rects>
                <_>
                  3 18 21 6 -1.</_>
                <_>
                  10 18 7 6 3.</_></rects>
              <tilted>0</tilted></feature>
            <threshold>-0.1280775070190430</threshold>
            <left_val>-1.</left_val>
            <right_node>14</right_node></_>
          <_>
            <!-- node 14 -->
            <feature>
              <rects>
                <_>
                  10 23 8 1 -1.</_>
                <_>
                  14 23 4 1 2.</_></rects>
              <tilted>0</tilted></feature>
            <threshold>-1.2417749967426062e-003</threshold>
            <left_val>-1.</left_val>
            <right_node>16</right_node></_>
          <_>
            <!-- node 15 -->
            <feature>
              <rects>
                <_>
                  20 0 1 6 -1.</_>
                <_>
                  20 0 1 3 2.</_></rects>
              <tilted>1</tilted></feature>
            <threshold>4.5408130972646177e-004</threshold>
            <left_val>-1.</left_val>
            <right_val>0.9756348133087158</right_val></_>
          <_>
            <!-- node 16 -->
            <feature>
              <rects>
                <_>
                  10 14 4 5 -1.</_>
                <_>
                  12 14 2 5 2.</_></rects>
              <tilted>0</tilted></feature>
            <threshold>9.9687939509749413e-003</threshold>
            <left_node>17</left_node>
            <right_val>-1.0006419420242310</right_val></_>
          <_>
            <!-- node 17 -->
            <feature>
              <rects>
                <_>
                  16 1 5 16 -1.</_>
                <_>
                  16 5 5 8 2.</_></rects>
              <tilted>0</tilted></feature>
            <threshold>0.0980747491121292</threshold>
            <left_node>18</left_node>
            <right_val>-1.0006279945373535</right_val></_>
          <_>
            <!-- node 18 -->
            <feature>
              <rects>
                <_>
                  0 0 22 5 -1.</_>
                <_>
                  11 0 11 5 2.</_></rects>
              <tilted>0</tilted></feature>
            <threshold>0.1817898005247116</threshold>
            <left_node>19</left_node>
            <right_val>-1.0006790161132812</right_val></_>
          <_>
            <!-- node 19 -->
            <feature>
              <rects>
                <_>
                  12 2 12 3 -1.</_>
                <_>
                  16 6 4 3 3.</_></rects>
              <tilted>1</tilted></feature>
            <threshold>-0.0685968101024628</threshold>
            <left_val>-1.</left_val>
            <right_val>0.9561305046081543</right_val></_></_></trees>
      <stage_threshold>0.4214794039726257</stage_threshold>
      <parent>1</parent>
      <next>-1</next></_>
    <_>
      <!-- stage 3 -->
      <trees>
        <_>
          <!-- tree 0 -->
          <_>
            <!-- root node -->
            <feature>
              <rects>
                <_>
                  2 19 3 2 -1.</_>
                <_>
                  3 20 1 2 3.</_></rects>
              <tilted>1</tilted></feature>
            <threshold>-6.9000181974843144e-004</threshold>
            <left_node>1</left_node>
            <right_node>2</right_node></_>
          <_>
            <!-- node 1 -->
            <feature>
              <rects>
                <_>
                  5 20 10 2 -1.</_>
                <_>
                  10 20 5 2 2.</_></rects>
              <tilted>0</tilted></feature>
            <threshold>-3.9375689812004566e-004</threshold>
            <left_node>3</left_node>
            <right_node>5</right_node></_>
          <_>
            <!-- node 2 -->
            <feature>
              <rects>
                <_>
                  7 0 14 3 -1.</_>
                <_>
                  7 1 14 1 3.</_></rects>
              <tilted>0</tilted></feature>
            <threshold>-9.2639075592160225e-003</threshold>
            <left_node>6</left_node>
            <right_node>7</right_node></_>
          <_>
            <!-- node 3 -->
            <feature>
              <rects>
                <_>
                  2 16 8 5 -1.</_>
                <_>
                  6 16 4 5 2.</_></rects>
              <tilted>0</tilted></feature>
            <threshold>-5.4797320626676083e-003</threshold>
            <left_node>8</left_node>
            <right_node>4</right_node></_>
          <_>
            <!-- node 4 -->
            <feature>
              <rects>
                <_>
                  22 23 2 1 -1.</_>
                <_>
                  23 23 1 1 2.</_></rects>
              <tilted>0</tilted></feature>
            <threshold>-1.5197899483609945e-004</threshold>
            <left_val>-1.</left_val>
            <right_node>9</right_node></_>
          <_>
            <!-- node 5 -->
            <feature>
              <rects>
                <_>
                  12 6 3 7 -1.</_>
                <_>
                  13 7 1 7 3.</_></rects>
              <tilted>1</tilted></feature>
            <threshold>3.5213720984756947e-003</threshold>
            <left_node>13</left_node>
            <right_node>15</right_node></_>
          <_>
            <!-- node 6 -->
            <feature>
              <rects>
                <_>
                  1 22 12 2 -1.</_>
                <_>
                  4 22 6 2 2.</_></rects>
              <tilted>0</tilted></feature>
            <threshold>-7.5505289714783430e-005</threshold>
            <left_node>11</left_node>
            <right_val>-0.7450541853904724</right_val></_>
          <_>
            <!-- node 7 -->
            <feature>
              <rects>
                <_>
                  5 1 12 4 -1.</_>
                <_>
                  5 2 12 2 2.</_></rects>
              <tilted>0</tilted></feature>
            <threshold>-0.0109350597485900</threshold>
            <left_node>10</left_node>
            <right_node>12</right_node></_>
          <_>
            <!-- node 8 -->
            <feature>
              <rects>
                <_>
                  0 15 10 6 -1.</_>
                <_>
                  5 15 5 6 2.</_></rects>
              <tilted>0</tilted></feature>
            <threshold>-0.0593212284147739</threshold>
            <left_val>0.6837310791015625</left_val>
            <right_node>19</right_node></_>
          <_>
            <!-- node 9 -->
            <feature>
              <rects>
                <_>
                  13 18 2 2 -1.</_>
                <_>
                  13 18 1 2 2.</_></rects>
              <tilted>1</tilted></feature>
            <threshold>5.6335530243813992e-003</threshold>
            <left_node>14</left_node>
            <right_val>-0.6126254200935364</right_val></_>
          <_>
            <!-- node 10 -->
            <feature>
              <rects>
                <_>
                  2 21 18 3 -1.</_>
                <_>
                  2 22 18 1 3.</_></rects>
              <tilted>0</tilted></feature>
            <threshold>-1.3859289465472102e-003</threshold>
            <left_node>17</left_node>
            <right_val>-0.9051669836044312</right_val></_>
          <_>
            <!-- node 11 -->
            <feature>
              <rects>
                <_>
                  14 16 8 6 -1.</_>
                <_>
                  14 19 8 3 2.</_></rects>
              <tilted>0</tilted></feature>
            <threshold>-8.9425162877887487e-004</threshold>
            <left_node>16</left_node>
            <right_val>-0.8041688799858093</right_val></_>
          <_>
            <!-- node 12 -->
            <feature>
              <rects>
                <_>
                  4 10 11 3 -1.</_>
                <_>
                  4 11 11 1 3.</_></rects>
              <tilted>0</tilted></feature>
            <threshold>0.0262031592428684</threshold>
            <left_val>-0.9374994039535523</left_val>
            <right_val>0.2746776938438416</right_val></_>
          <_>
            <!-- node 13 -->
            <feature>
              <rects>
                <_>
                  4 5 2 3 -1.</_>
                <_>
                  4 5 1 3 2.</_></rects>
              <tilted>1</tilted></feature>
            <threshold>-5.4855328053236008e-003</threshold>
            <left_val>0.2371333986520767</left_val>
            <right_val>-0.9641121029853821</right_val></_>
          <_>
            <!-- node 14 -->
            <feature>
              <rects>
                <_>
                  14 22 4 1 -1.</_>
                <_>
                  16 22 2 1 2.</_></rects>
              <tilted>0</tilted></feature>
            <threshold>-3.9289900450967252e-004</threshold>
            <left_val>-0.5320938229560852</left_val>
            <right_node>18</right_node></_>
          <_>
            <!-- node 15 -->
            <feature>
              <rects>
                <_>
                  11 15 9 4 -1.</_>
                <_>
                  11 16 9 2 2.</_></rects>
              <tilted>0</tilted></feature>
            <threshold>8.2608230877667665e-004</threshold>
            <left_val>-0.6396930217742920</left_val>
            <right_val>0.6190264821052551</right_val></_>
          <_>
            <!-- node 16 -->
            <feature>
              <rects>
                <_>
                  2 23 20 1 -1.</_>
                <_>
                  7 23 10 1 2.</_></rects>
              <tilted>0</tilted></feature>
            <threshold>-1.4145439490675926e-004</threshold>
            <left_val>0.7367873787879944</left_val>
            <right_val>-1.0000139474868774</right_val></_>
          <_>
            <!-- node 17 -->
            <feature>
              <rects>
                <_>
                  1 11 9 7 -1.</_>
                <_>
                  4 11 3 7 3.</_></rects>
              <tilted>0</tilted></feature>
            <threshold>-2.2191710304468870e-003</threshold>
            <left_val>-0.9999998807907105</left_val>
            <right_val>0.5885760784149170</right_val></_>
          <_>
            <!-- node 18 -->
            <feature>
              <rects>
                <_>
                  16 9 5 4 -1.</_>
                <_>
                  16 9 5 2 2.</_></rects>
              <tilted>1</tilted></feature>
            <threshold>0.0345839187502861</threshold>
            <left_val>0.8709722757339478</left_val>
            <right_val>-1.0001469850540161</right_val></_>
          <_>
            <!-- node 19 -->
            <feature>
              <rects>
                <_>
                  5 2 9 9 -1.</_>
                <_>
                  5 5 9 3 3.</_></rects>
              <tilted>0</tilted></feature>
            <threshold>-0.0851498469710350</threshold>
            <left_val>0.6003335714340210</left_val>
            <right_val>-0.9999995827674866</right_val></_></_>
        <_>
          <!-- tree 1 -->
          <_>
            <!-- root node -->
            <feature>
              <rects>
                <_>
                  9 20 5 4 -1.</_>
                <_>
                  9 21 5 2 2.</_></rects>
              <tilted>0</tilted></feature>
            <threshold>-4.2656870209611952e-004</threshold>
            <left_node>1</left_node>
            <right_node>2</right_node></_>
          <_>
            <!-- node 1 -->
            <feature>
              <rects>
                <_>
                  8 2 14 14 -1.</_>
                <_>
                  8 2 7 7 2.</_>
                <_>
                  15 9 7 7 2.</_></rects>
              <tilted>0</tilted></feature>
            <threshold>-0.0174594298005104</threshold>
            <left_node>4</left_node>
            <right_node>3</right_node></_>
          <_>
            <!-- node 2 -->
            <feature>
              <rects>
                <_>
                  13 3 9 8 -1.</_>
                <_>
                  16 3 3 8 3.</_></rects>
              <tilted>0</tilted></feature>
            <threshold>-0.0316648706793785</threshold>
            <left_node>11</left_node>
            <right_node>5</right_node></_>
          <_>
            <!-- node 3 -->
            <feature>
              <rects>
                <_>
                  18 5 6 2 -1.</_>
                <_>
                  20 7 2 2 3.</_></rects>
              <tilted>1</tilted></feature>
            <threshold>0.0183801092207432</threshold>
            <left_node>8</left_node>
            <right_node>18</right_node></_>
          <_>
            <!-- node 4 -->
            <feature>
              <rects>
                <_>
                  22 22 2 2 -1.</_>
                <_>
                  23 22 1 2 2.</_></rects>
              <tilted>0</tilted></feature>
            <threshold>-1.1663339682854712e-004</threshold>
            <left_val>-0.8267499208450317</left_val>
            <right_node>6</right_node></_>
          <_>
            <!-- node 5 -->
            <feature>
              <rects>
                <_>
                  8 4 10 6 -1.</_>
                <_>
                  8 6 10 2 3.</_></rects>
              <tilted>0</tilted></feature>
            <threshold>-0.0190257802605629</threshold>
            <left_node>7</left_node>
            <right_val>-0.9291409254074097</right_val></_>
          <_>
            <!-- node 6 -->
            <feature>
              <rects>
                <_>
                  15 18 9 6 -1.</_>
                <_>
                  15 20 9 2 3.</_></rects>
              <tilted>0</tilted></feature>
            <threshold>-4.7755930572748184e-003</threshold>
            <left_node>10</left_node>
            <right_node>12</right_node></_>
          <_>
            <!-- node 7 -->
            <feature>
              <rects>
                <_>
                  0 14 6 10 -1.</_>
                <_>
                  2 14 2 10 3.</_></rects>
              <tilted>0</tilted></feature>
            <threshold>-6.8151210434734821e-003</threshold>
            <left_node>19</left_node>
            <right_val>-0.6690741181373596</right_val></_>
          <_>
            <!-- node 8 -->
            <feature>
              <rects>
                <_>
                  10 1 10 8 -1.</_>
                <_>
                  10 1 5 8 2.</_></rects>
              <tilted>1</tilted></feature>
            <threshold>0.1336138993501663</threshold>
            <left_node>9</left_node>
            <right_node>16</right_node></_>
          <_>
            <!-- node 9 -->
            <feature>
              <rects>
                <_>
                  6 8 18 1 -1.</_>
                <_>
                  12 8 6 1 3.</_></rects>
              <tilted>0</tilted></feature>
            <threshold>0.0216891001909971</threshold>
            <left_node>14</left_node>
            <right_val>0.6912518739700317</right_val></_>
          <_>
            <!-- node 10 -->
            <feature>
              <rects>
                <_>
                  18 10 6 12 -1.</_>
                <_>
                  18 14 6 4 3.</_></rects>
              <tilted>0</tilted></feature>
            <threshold>-0.0563325993716717</threshold>
            <left_val>-0.6921511888504028</left_val>
            <right_node>13</right_node></_>
          <_>
            <!-- node 11 -->
            <feature>
              <rects>
                <_>
                  16 4 4 16 -1.</_>
                <_>
                  17 5 2 16 2.</_></rects>
              <tilted>1</tilted></feature>
            <threshold>-3.6922029685229063e-003</threshold>
            <left_val>0.7156884074211121</left_val>
            <right_val>-0.5569431781768799</right_val></_>
          <_>
            <!-- node 12 -->
            <feature>
              <rects>
                <_>
                  1 10 6 3 -1.</_>
                <_>
                  1 11 6 1 3.</_></rects>
              <tilted>0</tilted></feature>
            <threshold>-5.4334220476448536e-004</threshold>
            <left_val>0.4659982025623322</left_val>
            <right_val>-0.7224661707878113</right_val></_>
          <_>
            <!-- node 13 -->
            <feature>
              <rects>
                <_>
                  9 22 3 2 -1.</_>
                <_>
                  10 22 1 2 3.</_></rects>
              <tilted>0</tilted></feature>
            <threshold>-6.2073318986222148e-004</threshold>
            <left_val>-1.</left_val>
            <right_node>15</right_node></_>
          <_>
            <!-- node 14 -->
            <feature>
              <rects>
                <_>
                  9 1 14 22 -1.</_>
                <_>
                  9 1 7 11 2.</_>
                <_>
                  16 12 7 11 2.</_></rects>
              <tilted>0</tilted></feature>
            <threshold>-0.0615061298012733</threshold>
            <left_val>0.1033570989966393</left_val>
            <right_val>-0.9601616263389587</right_val></_>
          <_>
            <!-- node 15 -->
            <feature>
              <rects>
                <_>
                  7 17 6 1 -1.</_>
                <_>
                  9 17 2 1 3.</_></rects>
              <tilted>0</tilted></feature>
            <threshold>-1.5160340117290616e-003</threshold>
            <left_val>-0.5532426834106445</left_val>
            <right_node>17</right_node></_>
          <_>
            <!-- node 16 -->
            <feature>
              <rects>
                <_>
                  16 16 3 4 -1.</_>
                <_>
                  17 16 1 4 3.</_></rects>
              <tilted>0</tilted></feature>
            <threshold>-4.6732078772038221e-004</threshold>
            <left_val>0.7634183168411255</left_val>
            <right_val>-0.4519718885421753</right_val></_>
          <_>
            <!-- node 17 -->
            <feature>
              <rects>
                <_>
                  2 18 22 4 -1.</_>
                <_>
                  13 18 11 4 2.</_></rects>
              <tilted>0</tilted></feature>
            <threshold>-0.0536815114319324</threshold>
            <left_val>-1.</left_val>
            <right_val>0.8940796852111816</right_val></_>
          <_>
            <!-- node 18 -->
            <feature>
              <rects>
                <_>
                  7 9 12 13 -1.</_>
                <_>
                  11 9 4 13 3.</_></rects>
              <tilted>0</tilted></feature>
            <threshold>-2.3956470249686390e-004</threshold>
            <left_val>0.7757465839385986</left_val>
            <right_val>-0.8155853748321533</right_val></_>
          <_>
            <!-- node 19 -->
            <feature>
              <rects>
                <_>
                  0 17 14 1 -1.</_>
                <_>
                  7 17 7 1 2.</_></rects>
              <tilted>0</tilted></feature>
            <threshold>-5.1562068983912468e-003</threshold>
            <left_val>-1.</left_val>
            <right_val>0.8153100013732910</right_val></_></_></trees>
      <stage_threshold>-0.3101144134998322</stage_threshold>
      <parent>2</parent>
      <next>-1</next></_>
    <_>
      <!-- stage 4 -->
      <trees>
        <_>
          <!-- tree 0 -->
          <_>
            <!-- root node -->
            <feature>
              <rects>
                <_>
                  1 19 9 3 -1.</_>
                <_>
                  4 19 3 3 3.</_></rects>
              <tilted>0</tilted></feature>
            <threshold>2.0045090932399035e-003</threshold>
            <left_node>2</left_node>
            <right_node>1</right_node></_>
          <_>
            <!-- node 1 -->
            <feature>
              <rects>
                <_>
                  9 21 15 3 -1.</_>
                <_>
                  14 22 5 1 9.</_></rects>
              <tilted>0</tilted></feature>
            <threshold>-4.0636169724166393e-003</threshold>
            <left_node>4</left_node>
            <right_node>9</right_node></_>
          <_>
            <!-- node 2 -->
            <feature>
              <rects>
                <_>
                  0 18 6 6 -1.</_>
                <_>
                  2 18 2 6 3.</_></rects>
              <tilted>0</tilted></feature>
            <threshold>-0.0128386598080397</threshold>
            <left_node>5</left_node>
            <right_node>3</right_node></_>
          <_>
            <!-- node 3 -->
            <feature>
              <rects>
                <_>
                  20 11 4 10 -1.</_>
                <_>
                  21 11 2 10 2.</_></rects>
              <tilted>0</tilted></feature>
            <threshold>-3.4812730737030506e-003</threshold>
            <left_node>10</left_node>
            <right_node>8</right_node></_>
          <_>
            <!-- node 4 -->
            <feature>
              <rects>
                <_>
                  5 20 12 2 -1.</_>
                <_>
                  8 20 6 2 2.</_></rects>
              <tilted>0</tilted></feature>
            <threshold>-6.4308522269129753e-004</threshold>
            <left_node>6</left_node>
            <right_node>16</right_node></_>
          <_>
            <!-- node 5 -->
            <feature>
              <rects>
                <_>
                  4 18 8 5 -1.</_>
                <_>
                  6 18 4 5 2.</_></rects>
              <tilted>0</tilted></feature>
            <threshold>2.7312969323247671e-003</threshold>
            <left_val>-0.6166973114013672</left_val>
            <right_node>14</right_node></_>
          <_>
            <!-- node 6 -->
            <feature>
              <rects>
                <_>
                  5 22 2 2 -1.</_>
                <_>
                  6 22 1 2 2.</_></rects>
              <tilted>0</tilted></feature>
            <threshold>2.8794578975066543e-004</threshold>
            <left_node>7</left_node>
            <right_val>-0.8419470191001892</right_val></_>
          <_>
            <!-- node 7 -->
            <feature>
              <rects>
                <_>
                  1 18 12 6 -1.</_>
                <_>
                  7 18 6 6 2.</_></rects>
              <tilted>0</tilted></feature>
            <threshold>-0.0265763308852911</threshold>
            <left_node>15</left_node>
            <right_node>12</right_node></_>
          <_>
            <!-- node 8 -->
            <feature>
              <rects>
                <_>
                  7 0 2 3 -1.</_>
                <_>
                  7 1 2 1 3.</_></rects>
              <tilted>0</tilted></feature>
            <threshold>-2.3771880660206079e-003</threshold>
            <left_node>11</left_node>
            <right_node>19</right_node></_>
          <_>
            <!-- node 9 -->
            <feature>
              <rects>
                <_>
                  20 9 3 2 -1.</_>
                <_>
                  21 9 1 2 3.</_></rects>
              <tilted>0</tilted></feature>
            <threshold>-5.0402671331539750e-004</threshold>
            <left_node>18</left_node>
            <right_val>-0.8610398769378662</right_val></_>
          <_>
            <!-- node 10 -->
            <feature>
              <rects>
                <_>
                  7 0 3 6 -1.</_>
                <_>
                  8 1 1 6 3.</_></rects>
              <tilted>1</tilted></feature>
            <threshold>-2.9232581146061420e-003</threshold>
            <left_val>0.4751949906349182</left_val>
            <right_node>13</right_node></_>
          <_>
            <!-- node 11 -->
            <feature>
              <rects>
                <_>
                  2 19 15 3 -1.</_>
                <_>
                  7 20 5 1 9.</_></rects>
              <tilted>0</tilted></feature>
            <threshold>-3.0748140998184681e-003</threshold>
            <left_val>0.2124699056148529</left_val>
            <right_val>-0.7967919707298279</right_val></_>
          <_>
            <!-- node 12 -->
            <feature>
              <rects>
                <_>
                  0 19 3 3 -1.</_>
                <_>
                  1 20 1 1 9.</_></rects>
              <tilted>0</tilted></feature>
            <threshold>9.6044561360031366e-004</threshold>
            <left_val>0.8997666239738464</left_val>
            <right_val>-0.5439094901084900</right_val></_>
          <_>
            <!-- node 13 -->
            <feature>
              <rects>
                <_>
                  7 4 8 4 -1.</_>
                <_>
                  6 5 8 2 2.</_></rects>
              <tilted>1</tilted></feature>
            <threshold>0.0146704297512770</threshold>
            <left_node>17</left_node>
            <right_val>0.6042925119400024</right_val></_>
          <_>
            <!-- node 14 -->
            <feature>
              <rects>
                <_>
                  7 17 6 1 -1.</_>
                <_>
                  10 17 3 1 2.</_></rects>
              <tilted>0</tilted></feature>
            <threshold>-1.1337629985064268e-003</threshold>
            <left_val>-0.7094177007675171</left_val>
            <right_val>0.8645371198654175</right_val></_>
          <_>
            <!-- node 15 -->
            <feature>
              <rects>
                <_>
                  9 5 1 4 -1.</_>
                <_>
                  9 5 1 2 2.</_></rects>
              <tilted>1</tilted></feature>
            <threshold>-0.0116551304236054</threshold>
            <left_val>0.8948413133621216</left_val>
            <right_val>-1.</right_val></_>
          <_>
            <!-- node 16 -->
            <feature>
              <rects>
                <_>
                  7 9 4 2 -1.</_>
                <_>
                  8 10 2 2 2.</_></rects>
              <tilted>1</tilted></feature>
            <threshold>-3.6858629900962114e-003</threshold>
            <left_val>0.3718801140785217</left_val>
            <right_val>-0.9999958872795105</right_val></_>
          <_>
            <!-- node 17 -->
            <feature>
              <rects>
                <_>
                  4 9 8 3 -1.</_>
                <_>
                  6 11 4 3 2.</_></rects>
              <tilted>1</tilted></feature>
            <threshold>-0.0309745408594608</threshold>
            <left_val>0.6669576168060303</left_val>
            <right_val>-0.9999964237213135</right_val></_>
          <_>
            <!-- node 18 -->
            <feature>
              <rects>
                <_>
                  3 1 11 2 -1.</_>
                <_>
                  3 2 11 1 2.</_></rects>
              <tilted>0</tilted></feature>
            <threshold>-1.3540900545194745e-003</threshold>
            <left_val>0.5066655874252319</left_val>
            <right_val>-0.8216071724891663</right_val></_>
          <_>
            <!-- node 19 -->
            <feature>
              <rects>
                <_>
                  19 6 2 2 -1.</_>
                <_>
                  19 6 1 1 2.</_>
                <_>
                  20 7 1 1 2.</_></rects>
              <tilted>0</tilted></feature>
            <threshold>-1.0137859499081969e-003</threshold>
            <left_val>-0.1675581932067871</left_val>
            <right_val>-0.9387544989585877</right_val></_></_>
        <_>
          <!-- tree 1 -->
          <_>
            <!-- root node -->
            <feature>
              <rects>
                <_>
                  22 21 2 2 -1.</_>
                <_>
                  23 21 1 2 2.</_></rects>
              <tilted>0</tilted></feature>
            <threshold>3.8163241697475314e-005</threshold>
            <left_node>4</left_node>
            <right_node>1</right_node></_>
          <_>
            <!-- node 1 -->
            <feature>
              <rects>
                <_>
                  7 23 2 1 -1.</_>
                <_>
                  8 23 1 1 2.</_></rects>
              <tilted>0</tilted></feature>
            <threshold>2.3899509687907994e-004</threshold>
            <left_node>2</left_node>
            <right_val>-0.8671255707740784</right_val></_>
          <_>
            <!-- node 2 -->
            <feature>
              <rects>
                <_>
                  3 13 6 6 -1.</_>
                <_>
                  6 13 3 6 2.</_></rects>
              <tilted>0</tilted></feature>
            <threshold>-2.6347069069743156e-003</threshold>
            <left_node>5</left_node>
            <right_node>3</right_node></_>
          <_>
            <!-- node 3 -->
            <feature>
              <rects>
                <_>
                  0 17 14 6 -1.</_>
                <_>
                  7 17 7 6 2.</_></rects>
              <tilted>0</tilted></feature>
            <threshold>5.5371080525219440e-003</threshold>
            <left_node>6</left_node>
            <right_node>7</right_node></_>
          <_>
            <!-- node 4 -->
            <feature>
              <rects>
                <_>
                  8 2 16 18 -1.</_>
                <_>
                  8 2 8 9 2.</_>
                <_>
                  16 11 8 9 2.</_></rects>
              <tilted>0</tilted></feature>
            <threshold>-0.0308425407856703</threshold>
            <left_node>8</left_node>
            <right_node>18</right_node></_>
          <_>
            <!-- node 5 -->
            <feature>
              <rects>
                <_>
                  14 4 1 14 -1.</_>
                <_>
                  14 4 1 7 2.</_></rects>
              <tilted>1</tilted></feature>
            <threshold>-0.0174155402928591</threshold>
            <left_node>16</left_node>
            <right_node>14</right_node></_>
          <_>
            <!-- node 6 -->
            <feature>
              <rects>
                <_>
                  15 23 6 1 -1.</_>
                <_>
                  18 23 3 1 2.</_></rects>
              <tilted>0</tilted></feature>
            <threshold>-8.0657169746700674e-005</threshold>
            <left_node>17</left_node>
            <right_node>9</right_node></_>
          <_>
            <!-- node 7 -->
            <feature>
              <rects>
                <_>
                  7 5 12 8 -1.</_>
                <_>
                  7 5 6 4 2.</_>
                <_>
                  13 9 6 4 2.</_></rects>
              <tilted>0</tilted></feature>
            <threshold>-0.0302420705556870</threshold>
            <left_val>0.5975664258003235</left_val>
            <right_val>-0.7872189283370972</right_val></_>
          <_>
            <!-- node 8 -->
            <feature>
              <rects>
                <_>
                  3 9 14 2 -1.</_>
                <_>
                  3 10 14 1 2.</_></rects>
              <tilted>0</tilted></feature>
            <threshold>-5.8951191604137421e-003</threshold>
            <left_node>12</left_node>
            <right_node>15</right_node></_>
          <_>
            <!-- node 9 -->
            <feature>
              <rects>
                <_>
                  7 0 4 5 -1.</_>
                <_>
                  8 0 2 5 2.</_></rects>
              <tilted>0</tilted></feature>
            <threshold>5.6973258033394814e-003</threshold>
            <left_node>10</left_node>
            <right_val>-0.6147094964981079</right_val></_>
          <_>
            <!-- node 10 -->
            <feature>
              <rects>
                <_>
                  4 22 4 2 -1.</_>
                <_>
                  5 22 2 2 2.</_></rects>
              <tilted>0</tilted></feature>
            <threshold>-8.9597050100564957e-004</threshold>
            <left_val>-1.</left_val>
            <right_node>11</right_node></_>
          <_>
            <!-- node 11 -->
            <feature>
              <rects>
                <_>
                  19 1 5 6 -1.</_>
                <_>
                  19 3 5 2 3.</_></rects>
              <tilted>0</tilted></feature>
            <threshold>-0.0324374213814735</threshold>
            <left_val>-1.</left_val>
            <right_node>13</right_node></_>
          <_>
            <!-- node 12 -->
            <feature>
              <rects>
                <_>
                  16 18 2 4 -1.</_>
                <_>
                  15 19 2 2 2.</_></rects>
              <tilted>1</tilted></feature>
            <threshold>-2.0387060430948623e-005</threshold>
            <left_val>0.7164701819419861</left_val>
            <right_val>-0.9999995231628418</right_val></_>
          <_>
            <!-- node 13 -->
            <feature>
              <rects>
                <_>
                  17 15 4 9 -1.</_>
                <_>
                  17 18 4 3 3.</_></rects>
              <tilted>0</tilted></feature>
            <threshold>-0.0441669188439846</threshold>
            <left_val>-1.</left_val>
            <right_node>19</right_node></_>
          <_>
            <!-- node 14 -->
            <feature>
              <rects>
                <_>
                  20 6 3 3 -1.</_>
                <_>
                  20 7 3 1 3.</_></rects>
              <tilted>0</tilted></feature>
            <threshold>-0.0101134898141027</threshold>
            <left_val>0.6395661830902100</left_val>
            <right_val>-0.8620933294296265</right_val></_>
          <_>
            <!-- node 15 -->
            <feature>
              <rects>
                <_>
                  14 3 8 6 -1.</_>
                <_>
                  16 3 4 6 2.</_></rects>
              <tilted>0</tilted></feature>
            <threshold>-0.0183527301996946</threshold>
            <left_val>0.3375610113143921</left_val>
            <right_val>-0.6774392127990723</right_val></_>
          <_>
            <!-- node 16 -->
            <feature>
              <rects>
                <_>
                  8 15 2 4 -1.</_>
                <_>
                  8 16 2 2 2.</_></rects>
              <tilted>0</tilted></feature>
            <threshold>-5.4187799833016470e-005</threshold>
            <left_val>0.8408818840980530</left_val>
            <right_val>-0.9999992847442627</right_val></_>
          <_>
            <!-- node 17 -->
            <feature>
              <rects>
                <_>
                  2 20 12 2 -1.</_>
                <_>
                  5 20 6 2 2.</_></rects>
              <tilted>0</tilted></feature>
            <threshold>5.8658490888774395e-003</threshold>
            <left_val>-0.9201009273529053</left_val>
            <right_val>0.6988707780838013</right_val></_>
          <_>
            <!-- node 18 -->
            <feature>
              <rects>
                <_>
                  11 1 2 20 -1.</_>
                <_>
                  11 6 2 10 2.</_></rects>
              <tilted>0</tilted></feature>
            <threshold>0.0757235586643219</threshold>
            <left_val>-0.9164599776268005</left_val>
            <right_val>0.9309024214744568</right_val></_>
          <_>
            <!-- node 19 -->
            <feature>
              <rects>
                <_>
                  0 22 18 2 -1.</_>
                <_>
                  6 22 6 2 3.</_></rects>
              <tilted>0</tilted></feature>
            <threshold>-0.0232760496437550</threshold>
            <left_val>-1.</left_val>
            <right_val>0.8264601230621338</right_val></_></_></trees>
      <stage_threshold>-0.3919306099414825</stage_threshold>
      <parent>3</parent>
      <next>-1</next></_></stages></data>
</opencv_storage>
