<?xml version="1.0"?>
<opencv_storage>
<data type_id="opencv-haar-classifier">
  <size>
    24 24</size>
  <stages>
    <_>
      <!-- stage 0 -->
      <trees>
        <_>
          <!-- tree 0 -->
          <_>
            <!-- root node -->
            <feature>
              <rects>
                <_>
                  0 15 24 8 -1.</_>
                <_>
                  6 15 12 8 2.</_></rects>
              <tilted>0</tilted></feature>
            <threshold>-0.0797804072499275</threshold>
            <left_node>1</left_node>
            <right_node>4</right_node></_>
          <_>
            <!-- node 1 -->
            <feature>
              <rects>
                <_>
                  0 0 8 20 -1.</_>
                <_>
                  0 0 4 10 2.</_>
                <_>
                  4 10 4 10 2.</_></rects>
              <tilted>0</tilted></feature>
            <threshold>-0.0224380195140839</threshold>
            <left_node>3</left_node>
            <right_node>2</right_node></_>
          <_>
            <!-- node 2 -->
            <feature>
              <rects>
                <_>
                  5 12 14 12 -1.</_>
                <_>
                  5 16 14 4 3.</_></rects>
              <tilted>0</tilted></feature>
            <threshold>-0.1335987001657486</threshold>
            <left_node>15</left_node>
            <right_node>10</right_node></_>
          <_>
            <!-- node 3 -->
            <feature>
              <rects>
                <_>
                  9 11 8 4 -1.</_>
                <_>
                  13 11 4 4 2.</_></rects>
              <tilted>0</tilted></feature>
            <threshold>0.0117972698062658</threshold>
            <left_node>5</left_node>
            <right_val>-0.8875101804733276</right_val></_>
          <_>
            <!-- node 4 -->
            <feature>
              <rects>
                <_>
                  2 14 21 9 -1.</_>
                <_>
                  9 17 7 3 9.</_></rects>
              <tilted>0</tilted></feature>
            <threshold>-0.3321600854396820</threshold>
            <left_node>14</left_node>
            <right_node>6</right_node></_>
          <_>
            <!-- node 5 -->
            <feature>
              <rects>
                <_>
                  7 12 10 7 -1.</_>
                <_>
                  12 12 5 7 2.</_></rects>
              <tilted>0</tilted></feature>
            <threshold>-0.0297836307436228</threshold>
            <left_val>-0.8854321241378784</left_val>
            <right_node>7</right_node></_>
          <_>
            <!-- node 6 -->
            <feature>
              <rects>
                <_>
                  18 3 4 3 -1.</_>
                <_>
                  17 4 4 1 3.</_></rects>
              <tilted>1</tilted></feature>
            <threshold>-0.0181453805416822</threshold>
            <left_node>12</left_node>
            <right_node>8</right_node></_>
          <_>
            <!-- node 7 -->
            <feature>
              <rects>
                <_>
                  8 12 15 10 -1.</_>
                <_>
                  13 12 5 10 3.</_></rects>
              <tilted>0</tilted></feature>
            <threshold>9.6989143639802933e-003</threshold>
            <left_node>11</left_node>
            <right_val>-0.8159642219543457</right_val></_>
          <_>
            <!-- node 8 -->
            <feature>
              <rects>
                <_>
                  9 6 4 16 -1.</_>
                <_>
                  9 10 4 8 2.</_></rects>
              <tilted>0</tilted></feature>
            <threshold>0.1143115982413292</threshold>
            <left_node>9</left_node>
            <right_val>0.6690837740898132</right_val></_>
          <_>
            <!-- node 9 -->
            <feature>
              <rects>
                <_>
                  3 11 21 12 -1.</_>
                <_>
                  10 15 7 4 9.</_></rects>
              <tilted>0</tilted></feature>
            <threshold>-0.4118466079235077</threshold>
            <left_node>18</left_node>
            <right_node>19</right_node></_>
          <_>
            <!-- node 10 -->
            <feature>
              <rects>
                <_>
                  8 11 9 4 -1.</_>
                <_>
                  8 12 9 2 2.</_></rects>
              <tilted>0</tilted></feature>
            <threshold>-8.9660938829183578e-003</threshold>
            <left_val>0.3639987111091614</left_val>
            <right_node>17</right_node></_>
          <_>
            <!-- node 11 -->
            <feature>
              <rects>
                <_>
                  7 18 6 2 -1.</_>
                <_>
                  9 18 2 2 3.</_></rects>
              <tilted>0</tilted></feature>
            <threshold>3.5528310108929873e-003</threshold>
            <left_node>13</left_node>
            <right_val>-0.9997357726097107</right_val></_>
          <_>
            <!-- node 12 -->
            <feature>
              <rects>
                <_>
                  21 18 2 2 -1.</_>
                <_>
                  21 18 1 2 2.</_></rects>
              <tilted>1</tilted></feature>
            <threshold>-2.0500039681792259e-003</threshold>
            <left_val>0.8764765262603760</left_val>
            <right_val>-1.0000009536743164</right_val></_>
          <_>
            <!-- node 13 -->
            <feature>
              <rects>
                <_>
                  0 5 22 8 -1.</_>
                <_>
                  11 5 11 8 2.</_></rects>
              <tilted>0</tilted></feature>
            <threshold>-0.2047346979379654</threshold>
            <left_val>-1.</left_val>
            <right_node>16</right_node></_>
          <_>
            <!-- node 14 -->
            <feature>
              <rects>
                <_>
                  12 6 1 16 -1.</_>
                <_>
                  12 14 1 8 2.</_></rects>
              <tilted>0</tilted></feature>
            <threshold>-5.3203919378574938e-005</threshold>
            <left_val>0.9021757245063782</left_val>
            <right_val>-1.</right_val></_>
          <_>
            <!-- node 15 -->
            <feature>
              <rects>
                <_>
                  18 23 2 1 -1.</_>
                <_>
                  19 23 1 1 2.</_></rects>
              <tilted>0</tilted></feature>
            <threshold>-2.8195438790135086e-004</threshold>
            <left_val>-1.</left_val>
            <right_val>0.9458770751953125</right_val></_>
          <_>
            <!-- node 16 -->
            <feature>
              <rects>
                <_>
                  14 23 4 1 -1.</_>
                <_>
                  15 23 2 1 2.</_></rects>
              <tilted>0</tilted></feature>
            <threshold>-1.6593630425632000e-003</threshold>
            <left_val>-1.</left_val>
            <right_val>0.9731386899948120</right_val></_>
          <_>
            <!-- node 17 -->
            <feature>
              <rects>
                <_>
                  3 5 14 18 -1.</_>
                <_>
                  3 11 14 6 3.</_></rects>
              <tilted>0</tilted></feature>
            <threshold>-0.3514913022518158</threshold>
            <left_val>1.</left_val>
            <right_val>-0.9597679972648621</right_val></_>
          <_>
            <!-- node 18 -->
            <feature>
              <rects>
                <_>
                  21 0 3 12 -1.</_>
                <_>
                  21 3 3 6 2.</_></rects>
              <tilted>0</tilted></feature>
            <threshold>-2.7372930198907852e-003</threshold>
            <left_val>0.8160805106163025</left_val>
            <right_val>-0.7752634882926941</right_val></_>
          <_>
            <!-- node 19 -->
            <feature>
              <rects>
                <_>
                  0 14 24 3 -1.</_>
                <_>
                  6 14 12 3 2.</_></rects>
              <tilted>0</tilted></feature>
            <threshold>-0.0897860676050186</threshold>
            <left_val>0.7173745036125183</left_val>
            <right_val>-0.9627885222434998</right_val></_></_>
        <_>
          <!-- tree 1 -->
          <_>
            <!-- root node -->
            <feature>
              <rects>
                <_>
                  0 12 8 7 -1.</_>
                <_>
                  4 12 4 7 2.</_></rects>
              <tilted>0</tilted></feature>
            <threshold>-0.0335251688957214</threshold>
            <left_node>2</left_node>
            <right_node>1</right_node></_>
          <_>
            <!-- node 1 -->
            <feature>
              <rects>
                <_>
                  7 14 12 9 -1.</_>
                <_>
                  7 17 12 3 3.</_></rects>
              <tilted>0</tilted></feature>
            <threshold>-0.0700482130050659</threshold>
            <left_node>3</left_node>
            <right_node>6</right_node></_>
          <_>
            <!-- node 2 -->
            <feature>
              <rects>
                <_>
                  12 12 9 12 -1.</_>
                <_>
                  15 12 3 12 3.</_></rects>
              <tilted>0</tilted></feature>
            <threshold>-4.1057742200791836e-003</threshold>
            <left_node>4</left_node>
            <right_node>5</right_node></_>
          <_>
            <!-- node 3 -->
            <feature>
              <rects>
                <_>
                  4 18 18 4 -1.</_>
                <_>
                  10 18 6 4 3.</_></rects>
              <tilted>0</tilted></feature>
            <threshold>-0.0226268693804741</threshold>
            <left_node>12</left_node>
            <right_node>16</right_node></_>
          <_>
            <!-- node 4 -->
            <feature>
              <rects>
                <_>
                  9 13 14 11 -1.</_>
                <_>
                  16 13 7 11 2.</_></rects>
              <tilted>0</tilted></feature>
            <threshold>-0.0474302284419537</threshold>
            <left_val>-1.</left_val>
            <right_node>8</right_node></_>
          <_>
            <!-- node 5 -->
            <feature>
              <rects>
                <_>
                  2 9 19 3 -1.</_>
                <_>
                  2 10 19 1 3.</_></rects>
              <tilted>0</tilted></feature>
            <threshold>0.0170777998864651</threshold>
            <left_node>13</left_node>
            <right_val>0.8751109242439270</right_val></_>
          <_>
            <!-- node 6 -->
            <feature>
              <rects>
                <_>
                  12 6 5 18 -1.</_>
                <_>
                  12 12 5 6 3.</_></rects>
              <tilted>0</tilted></feature>
            <threshold>-0.1248409003019333</threshold>
            <left_node>10</left_node>
            <right_node>7</right_node></_>
          <_>
            <!-- node 7 -->
            <feature>
              <rects>
                <_>
                  5 18 18 6 -1.</_>
                <_>
                  11 20 6 2 9.</_></rects>
              <tilted>0</tilted></feature>
            <threshold>-0.1714707016944885</threshold>
            <left_node>9</left_node>
            <right_val>-0.9751542806625366</right_val></_>
          <_>
            <!-- node 8 -->
            <feature>
              <rects>
                <_>
                  7 3 9 17 -1.</_>
                <_>
                  10 3 3 17 3.</_></rects>
              <tilted>0</tilted></feature>
            <threshold>-0.0233411006629467</threshold>
            <left_node>18</left_node>
            <right_node>11</right_node></_>
          <_>
            <!-- node 9 -->
            <feature>
              <rects>
                <_>
                  2 1 14 12 -1.</_>
                <_>
                  2 5 14 4 3.</_></rects>
              <tilted>0</tilted></feature>
            <threshold>-0.0913320779800415</threshold>
            <left_val>0.8866717219352722</left_val>
            <right_val>-0.8914818763732910</right_val></_>
          <_>
            <!-- node 10 -->
            <feature>
              <rects>
                <_>
                  8 11 9 4 -1.</_>
                <_>
                  8 12 9 2 2.</_></rects>
              <tilted>0</tilted></feature>
            <threshold>1.8793699564412236e-003</threshold>
            <left_val>-0.9147763252258301</left_val>
            <right_val>0.8200637102127075</right_val></_>
          <_>
            <!-- node 11 -->
            <feature>
              <rects>
                <_>
                  15 16 2 3 -1.</_>
                <_>
                  16 16 1 3 2.</_></rects>
              <tilted>0</tilted></feature>
            <threshold>-1.8063449533656240e-003</threshold>
            <left_val>-1.</left_val>
            <right_node>14</right_node></_>
          <_>
            <!-- node 12 -->
            <feature>
              <rects>
                <_>
                  15 21 8 2 -1.</_>
                <_>
                  15 22 8 1 2.</_></rects>
              <tilted>0</tilted></feature>
            <threshold>-3.1338119879364967e-003</threshold>
            <left_val>-1.</left_val>
            <right_node>17</right_node></_>
          <_>
            <!-- node 13 -->
            <feature>
              <rects>
                <_>
                  6 6 12 4 -1.</_>
                <_>
                  6 8 12 2 2.</_></rects>
              <tilted>0</tilted></feature>
            <threshold>0.0412236303091049</threshold>
            <left_val>-0.9379326105117798</left_val>
            <right_val>0.9164924025535584</right_val></_>
          <_>
            <!-- node 14 -->
            <feature>
              <rects>
                <_>
                  6 3 6 19 -1.</_>
                <_>
                  8 3 2 19 3.</_></rects>
              <tilted>0</tilted></feature>
            <threshold>-0.0573239214718342</threshold>
            <left_val>-1.</left_val>
            <right_node>15</right_node></_>
          <_>
            <!-- node 15 -->
            <feature>
              <rects>
                <_>
                  0 1 6 22 -1.</_>
                <_>
                  0 1 3 11 2.</_>
                <_>
                  3 12 3 11 2.</_></rects>
              <tilted>0</tilted></feature>
            <threshold>0.0246565993875265</threshold>
            <left_node>19</left_node>
            <right_val>-0.7621980905532837</right_val></_>
          <_>
            <!-- node 16 -->
            <feature>
              <rects>
                <_>
                  5 13 14 9 -1.</_>
                <_>
                  5 16 14 3 3.</_></rects>
              <tilted>0</tilted></feature>
            <threshold>-0.2344204038381577</threshold>
            <left_val>1.</left_val>
            <right_val>-0.8644090890884399</right_val></_>
          <_>
            <!-- node 17 -->
            <feature>
              <rects>
                <_>
                  8 1 7 22 -1.</_>
                <_>
                  8 12 7 11 2.</_></rects>
              <tilted>0</tilted></feature>
            <threshold>0.0680939406156540</threshold>
            <left_val>0.9583125114440918</left_val>
            <right_val>-1.0000180006027222</right_val></_>
          <_>
            <!-- node 18 -->
            <feature>
              <rects>
                <_>
                  12 17 12 4 -1.</_>
                <_>
                  12 19 12 2 2.</_></rects>
              <tilted>0</tilted></feature>
            <threshold>0.0344531796872616</threshold>
            <left_val>-1.</left_val>
            <right_val>1.</right_val></_>
          <_>
            <!-- node 19 -->
            <feature>
              <rects>
                <_>
                  6 17 4 4 -1.</_>
                <_>
                  8 17 2 4 2.</_></rects>
              <tilted>0</tilted></feature>
            <threshold>3.8600799161940813e-003</threshold>
            <left_val>0.9840189218521118</left_val>
            <right_val>-0.9988322257995606</right_val></_></_></trees>
      <stage_threshold>-0.1427247971296310</stage_threshold>
      <parent>-1</parent>
      <next>-1</next></_>
    <_>
      <!-- stage 1 -->
      <trees>
        <_>
          <!-- tree 0 -->
          <_>
            <!-- root node -->
            <feature>
              <rects>
                <_>
                  11 11 12 3 -1.</_>
                <_>
                  15 12 4 1 9.</_></rects>
              <tilted>0</tilted></feature>
            <threshold>-0.0172698907554150</threshold>
            <left_node>1</left_node>
            <right_node>2</right_node></_>
          <_>
            <!-- node 1 -->
            <feature>
              <rects>
                <_>
                  0 12 15 10 -1.</_>
                <_>
                  5 12 5 10 3.</_></rects>
              <tilted>0</tilted></feature>
            <threshold>-0.0642965212464333</threshold>
            <left_node>3</left_node>
            <right_node>4</right_node></_>
          <_>
            <!-- node 2 -->
            <feature>
              <rects>
                <_>
                  0 12 24 9 -1.</_>
                <_>
                  8 15 8 3 9.</_></rects>
              <tilted>0</tilted></feature>
            <threshold>-0.5124018192291260</threshold>
            <left_node>5</left_node>
            <right_node>7</right_node></_>
          <_>
            <!-- node 3 -->
            <feature>
              <rects>
                <_>
                  7 15 10 5 -1.</_>
                <_>
                  12 15 5 5 2.</_></rects>
              <tilted>0</tilted></feature>
            <threshold>0.0146043496206403</threshold>
            <left_node>6</left_node>
            <right_val>-0.7769255042076111</right_val></_>
          <_>
            <!-- node 4 -->
            <feature>
              <rects>
                <_>
                  14 13 7 6 -1.</_>
                <_>
                  14 16 7 3 2.</_></rects>
              <tilted>0</tilted></feature>
            <threshold>-0.0130366999655962</threshold>
            <left_node>9</left_node>
            <right_node>14</right_node></_>
          <_>
            <!-- node 5 -->
            <feature>
              <rects>
                <_>
                  1 14 8 3 -1.</_>
                <_>
                  5 14 4 3 2.</_></rects>
              <tilted>0</tilted></feature>
            <threshold>-0.0268993899226189</threshold>
            <left_val>0.8982685208320618</left_val>
            <right_val>-0.7688959836959839</right_val></_>
          <_>
            <!-- node 6 -->
            <feature>
              <rects>
                <_>
                  19 6 2 12 -1.</_>
                <_>
                  19 6 2 6 2.</_></rects>
              <tilted>1</tilted></feature>
            <threshold>-0.0163060799241066</threshold>
            <left_val>-1.</left_val>
            <right_node>8</right_node></_>
          <_>
            <!-- node 7 -->
            <feature>
              <rects>
                <_>
                  8 8 10 2 -1.</_>
                <_>
                  8 9 10 1 2.</_></rects>
              <tilted>0</tilted></feature>
            <threshold>0.0130561096593738</threshold>
            <left_node>13</left_node>
            <right_node>10</right_node></_>
          <_>
            <!-- node 8 -->
            <feature>
              <rects>
                <_>
                  0 0 24 10 -1.</_>
                <_>
                  6 0 12 10 2.</_></rects>
              <tilted>0</tilted></feature>
            <threshold>-0.1981474012136459</threshold>
            <left_val>-0.7833188176155090</left_val>
            <right_node>11</right_node></_>
          <_>
            <!-- node 9 -->
            <feature>
              <rects>
                <_>
                  13 18 11 6 -1.</_>
                <_>
                  13 21 11 3 2.</_></rects>
              <tilted>0</tilted></feature>
            <threshold>0.0118285696953535</threshold>
            <left_val>-0.8773604035377502</left_val>
            <right_node>12</right_node></_>
          <_>
            <!-- node 10 -->
            <feature>
              <rects>
                <_>
                  13 19 9 2 -1.</_>
                <_>
                  16 19 3 2 3.</_></rects>
              <tilted>0</tilted></feature>
            <threshold>-2.5989490095525980e-003</threshold>
            <left_node>18</left_node>
            <right_val>-0.8761078715324402</right_val></_>
          <_>
            <!-- node 11 -->
            <feature>
              <rects>
                <_>
                  4 23 3 1 -1.</_>
                <_>
                  5 23 1 1 3.</_></rects>
              <tilted>0</tilted></feature>
            <threshold>-9.1463787248358130e-004</threshold>
            <left_val>-0.4953126907348633</left_val>
            <right_node>16</right_node></_>
          <_>
            <!-- node 12 -->
            <feature>
              <rects>
                <_>
                  8 19 8 1 -1.</_>
                <_>
                  10 19 4 1 2.</_></rects>
              <tilted>0</tilted></feature>
            <threshold>4.0352251380681992e-004</threshold>
            <left_val>0.6782255172729492</left_val>
            <right_val>-0.7710720896720886</right_val></_>
          <_>
            <!-- node 13 -->
            <feature>
              <rects>
                <_>
                  8 9 8 3 -1.</_>
                <_>
                  8 10 8 1 3.</_></rects>
              <tilted>0</tilted></feature>
            <threshold>-0.0140859996899962</threshold>
            <left_node>19</left_node>
            <right_node>15</right_node></_>
          <_>
            <!-- node 14 -->
            <feature>
              <rects>
                <_>
                  0 12 24 9 -1.</_>
                <_>
                  8 15 8 3 9.</_></rects>
              <tilted>0</tilted></feature>
            <threshold>-0.5748351812362671</threshold>
            <left_val>0.7396768927574158</left_val>
            <right_val>-0.8514028191566467</right_val></_>
          <_>
            <!-- node 15 -->
            <feature>
              <rects>
                <_>
                  7 8 11 3 -1.</_>
                <_>
                  7 9 11 1 3.</_></rects>
              <tilted>0</tilted></feature>
            <threshold>-0.0243044607341290</threshold>
            <left_node>17</left_node>
            <right_val>-0.8773015737533569</right_val></_>
          <_>
            <!-- node 16 -->
            <feature>
              <rects>
                <_>
                  4 3 20 21 -1.</_>
                <_>
                  9 3 10 21 2.</_></rects>
              <tilted>0</tilted></feature>
            <threshold>0.0600968413054943</threshold>
            <left_val>0.9513996243476868</left_val>
            <right_val>-0.7667064070701599</right_val></_>
          <_>
            <!-- node 17 -->
            <feature>
              <rects>
                <_>
                  12 15 6 2 -1.</_>
                <_>
                  14 17 2 2 3.</_></rects>
              <tilted>1</tilted></feature>
            <threshold>-0.0186871103942394</threshold>
            <left_val>0.8385936021804810</left_val>
            <right_val>-0.8519588708877564</right_val></_>
          <_>
            <!-- node 18 -->
            <feature>
              <rects>
                <_>
                  13 20 1 2 -1.</_>
                <_>
                  13 21 1 1 2.</_></rects>
              <tilted>0</tilted></feature>
            <threshold>-6.3977502577472478e-005</threshold>
            <left_val>-0.7753044962882996</left_val>
            <right_val>0.9025688171386719</right_val></_>
          <_>
            <!-- node 19 -->
            <feature>
              <rects>
                <_>
                  18 9 6 9 -1.</_>
                <_>
                  20 11 2 9 3.</_></rects>
              <tilted>1</tilted></feature>
            <threshold>-0.0112354801967740</threshold>
            <left_val>0.4169256091117859</left_val>
            <right_val>-0.8934842944145203</right_val></_></_>
        <_>
          <!-- tree 1 -->
          <_>
            <!-- root node -->
            <feature>
              <rects>
                <_>
                  11 12 12 9 -1.</_>
                <_>
                  15 12 4 9 3.</_></rects>
              <tilted>0</tilted></feature>
            <threshold>-0.0455920509994030</threshold>
            <left_node>1</left_node>
            <right_node>2</right_node></_>
          <_>
            <!-- node 1 -->
            <feature>
              <rects>
                <_>
                  0 12 18 12 -1.</_>
                <_>
                  6 12 6 12 3.</_></rects>
              <tilted>0</tilted></feature>
            <threshold>-0.0425818786025047</threshold>
            <left_node>4</left_node>
            <right_node>8</right_node></_>
          <_>
            <!-- node 2 -->
            <feature>
              <rects>
                <_>
                  1 8 13 3 -1.</_>
                <_>
                  1 9 13 1 3.</_></rects>
              <tilted>0</tilted></feature>
            <threshold>0.0137541396543384</threshold>
            <left_node>3</left_node>
            <right_node>11</right_node></_>
          <_>
            <!-- node 3 -->
            <feature>
              <rects>
                <_>
                  2 7 18 3 -1.</_>
                <_>
                  2 8 18 1 3.</_></rects>
              <tilted>0</tilted></feature>
            <threshold>5.7911989279091358e-003</threshold>
            <left_node>5</left_node>
            <right_node>6</right_node></_>
          <_>
            <!-- node 4 -->
            <feature>
              <rects>
                <_>
                  14 5 2 14 -1.</_>
                <_>
                  14 12 2 7 2.</_></rects>
              <tilted>0</tilted></feature>
            <threshold>-3.9022620767354965e-003</threshold>
            <left_node>7</left_node>
            <right_val>-0.6103175282478333</right_val></_>
          <_>
            <!-- node 5 -->
            <feature>
              <rects>
                <_>
                  3 9 21 3 -1.</_>
                <_>
                  10 10 7 1 9.</_></rects>
              <tilted>0</tilted></feature>
            <threshold>0.1417763978242874</threshold>
            <left_node>10</left_node>
            <right_val>0.7393624782562256</right_val></_>
          <_>
            <!-- node 6 -->
            <feature>
              <rects>
                <_>
                  2 2 6 8 -1.</_>
                <_>
                  2 2 3 4 2.</_>
                <_>
                  5 6 3 4 2.</_></rects>
              <tilted>0</tilted></feature>
            <threshold>-4.0415478870272636e-003</threshold>
            <left_node>13</left_node>
            <right_node>12</right_node></_>
          <_>
            <!-- node 7 -->
            <feature>
              <rects>
                <_>
                  0 23 24 1 -1.</_>
                <_>
                  8 23 8 1 3.</_></rects>
              <tilted>0</tilted></feature>
            <threshold>-0.0367554090917110</threshold>
            <left_val>-0.8827896714210510</left_val>
            <right_node>9</right_node></_>
          <_>
            <!-- node 8 -->
            <feature>
              <rects>
                <_>
                  8 5 3 7 -1.</_>
                <_>
                  9 6 1 7 3.</_></rects>
              <tilted>1</tilted></feature>
            <threshold>-7.9334881156682968e-003</threshold>
            <left_val>0.5364813208580017</left_val>
            <right_node>16</right_node></_>
          <_>
            <!-- node 9 -->
            <feature>
              <rects>
                <_>
                  8 18 4 6 -1.</_>
                <_>
                  8 18 2 3 2.</_>
                <_>
                  10 21 2 3 2.</_></rects>
              <tilted>0</tilted></feature>
            <threshold>4.6050320379436016e-003</threshold>
            <left_node>14</left_node>
            <right_val>-0.8293393850326538</right_val></_>
          <_>
            <!-- node 10 -->
            <feature>
              <rects>
                <_>
                  8 5 14 3 -1.</_>
                <_>
                  8 6 14 1 3.</_></rects>
              <tilted>0</tilted></feature>
            <threshold>-0.0131928399205208</threshold>
            <left_node>19</left_node>
            <right_node>15</right_node></_>
          <_>
            <!-- node 11 -->
            <feature>
              <rects>
                <_>
                  4 23 4 1 -1.</_>
                <_>
                  5 23 2 1 2.</_></rects>
              <tilted>0</tilted></feature>
            <threshold>-4.6328830649144948e-004</threshold>
            <left_val>-0.9999997019767761</left_val>
            <right_node>17</right_node></_>
          <_>
            <!-- node 12 -->
            <feature>
              <rects>
                <_>
                  10 7 6 3 -1.</_>
                <_>
                  12 8 2 1 9.</_></rects>
              <tilted>0</tilted></feature>
            <threshold>0.0179804507642984</threshold>
            <left_val>-0.8386219739913940</left_val>
            <right_val>0.3758667111396790</right_val></_>
          <_>
            <!-- node 13 -->
            <feature>
              <rects>
                <_>
                  2 19 4 2 -1.</_>
                <_>
                  2 20 4 1 2.</_></rects>
              <tilted>0</tilted></feature>
            <threshold>-8.3751021884381771e-004</threshold>
            <left_val>-0.9999997019767761</left_val>
            <right_val>0.6513450145721436</right_val></_>
          <_>
            <!-- node 14 -->
            <feature>
              <rects>
                <_>
                  16 18 2 3 -1.</_>
                <_>
                  17 18 1 3 2.</_></rects>
              <tilted>0</tilted></feature>
            <threshold>-4.3644959805533290e-004</threshold>
            <left_val>-0.3748742043972015</left_val>
            <right_node>18</right_node></_>
          <_>
            <!-- node 15 -->
            <feature>
              <rects>
                <_>
                  7 16 4 2 -1.</_>
                <_>
                  7 17 4 1 2.</_></rects>
              <tilted>0</tilted></feature>
            <threshold>0.0131997196003795</threshold>
            <left_val>-0.8972715139389038</left_val>
            <right_val>0.7154765725135803</right_val></_>
          <_>
            <!-- node 16 -->
            <feature>
              <rects>
                <_>
                  8 9 5 3 -1.</_>
                <_>
                  8 10 5 1 3.</_></rects>
              <tilted>0</tilted></feature>
            <threshold>0.0115915201604366</threshold>
            <left_val>-0.9038717150688171</left_val>
            <right_val>0.7527219057083130</right_val></_>
          <_>
            <!-- node 17 -->
            <feature>
              <rects>
                <_>
                  10 16 9 8 -1.</_>
                <_>
                  13 16 3 8 3.</_></rects>
              <tilted>0</tilted></feature>
            <threshold>4.5178199070505798e-004</threshold>
            <left_val>0.7876217961311340</left_val>
            <right_val>-0.4539107084274292</right_val></_>
          <_>
            <!-- node 18 -->
            <feature>
              <rects>
                <_>
                  6 22 4 1 -1.</_>
                <_>
                  7 22 2 1 2.</_></rects>
              <tilted>0</tilted></feature>
            <threshold>6.7489879438653588e-004</threshold>
            <left_val>0.9447278976440430</left_val>
            <right_val>-0.6734601855278015</right_val></_>
          <_>
            <!-- node 19 -->
            <feature>
              <rects>
                <_>
                  7 15 3 2 -1.</_>
                <_>
                  7 16 3 1 2.</_></rects>
              <tilted>0</tilted></feature>
            <threshold>-1.3389929663389921e-003</threshold>
            <left_val>0.6805394887924194</left_val>
            <right_val>-0.8497825264930725</right_val></_></_></trees>
      <stage_threshold>-0.5014349222183228</stage_threshold>
      <parent>0</parent>
      <next>-1</next></_>
    <_>
      <!-- stage 2 -->
      <trees>
        <_>
          <!-- tree 0 -->
          <_>
            <!-- root node -->
            <feature>
              <rects>
                <_>
                  0 12 15 9 -1.</_>
                <_>
                  5 12 5 9 3.</_></rects>
              <tilted>0</tilted></feature>
            <threshold>-0.0614960305392742</threshold>
            <left_node>1</left_node>
            <right_node>5</right_node></_>
          <_>
            <!-- node 1 -->
            <feature>
              <rects>
                <_>
                  8 11 16 13 -1.</_>
                <_>
                  12 11 8 13 2.</_></rects>
              <tilted>0</tilted></feature>
            <threshold>-0.0109991300851107</threshold>
            <left_node>2</left_node>
            <right_node>10</right_node></_>
          <_>
            <!-- node 2 -->
            <feature>
              <rects>
                <_>
                  5 19 4 1 -1.</_>
                <_>
                  5 19 2 1 2.</_></rects>
              <tilted>1</tilted></feature>
            <threshold>4.5966799370944500e-003</threshold>
            <left_node>3</left_node>
            <right_node>17</right_node></_>
          <_>
            <!-- node 3 -->
            <feature>
              <rects>
                <_>
                  4 18 2 6 -1.</_>
                <_>
                  5 18 1 6 2.</_></rects>
              <tilted>0</tilted></feature>
            <threshold>7.4276927625760436e-004</threshold>
            <left_node>4</left_node>
            <right_val>-0.8253765106201172</right_val></_>
          <_>
            <!-- node 4 -->
            <feature>
              <rects>
                <_>
                  1 11 22 3 -1.</_>
                <_>
                  12 11 11 3 2.</_></rects>
              <tilted>0</tilted></feature>
            <threshold>0.0284192003309727</threshold>
            <left_node>6</left_node>
            <right_node>13</right_node></_>
          <_>
            <!-- node 5 -->
            <feature>
              <rects>
                <_>
                  2 5 21 15 -1.</_>
                <_>
                  9 10 7 5 9.</_></rects>
              <tilted>0</tilted></feature>
            <threshold>0.7607722282409668</threshold>
            <left_node>7</left_node>
            <right_val>0.5787606835365295</right_val></_>
          <_>
            <!-- node 6 -->
            <feature>
              <rects>
                <_>
                  15 17 2 4 -1.</_>
                <_>
                  16 17 1 4 2.</_></rects>
              <tilted>0</tilted></feature>
            <threshold>-7.9710851423442364e-004</threshold>
            <left_val>-0.6968008279800415</left_val>
            <right_node>9</right_node></_>
          <_>
            <!-- node 7 -->
            <feature>
              <rects>
                <_>
                  4 9 9 6 -1.</_>
                <_>
                  7 11 3 2 9.</_></rects>
              <tilted>0</tilted></feature>
            <threshold>-0.0296789202839136</threshold>
            <left_node>8</left_node>
            <right_val>-0.8349521160125732</right_val></_>
          <_>
            <!-- node 8 -->
            <feature>
              <rects>
                <_>
                  16 14 8 4 -1.</_>
                <_>
                  20 14 4 4 2.</_></rects>
              <tilted>0</tilted></feature>
            <threshold>0.0295757297426462</threshold>
            <left_node>15</left_node>
            <right_node>12</right_node></_>
          <_>
            <!-- node 9 -->
            <feature>
              <rects>
                <_>
                  6 22 4 1 -1.</_>
                <_>
                  7 22 2 1 2.</_></rects>
              <tilted>0</tilted></feature>
            <threshold>6.9825671380385756e-004</threshold>
            <left_node>11</left_node>
            <right_val>-0.6694285273551941</right_val></_>
          <_>
            <!-- node 10 -->
            <feature>
              <rects>
                <_>
                  4 13 11 8 -1.</_>
                <_>
                  4 17 11 4 2.</_></rects>
              <tilted>0</tilted></feature>
            <threshold>-0.1276514977216721</threshold>
            <left_val>0.8234493136405945</left_val>
            <right_node>16</right_node></_>
          <_>
            <!-- node 11 -->
            <feature>
              <rects>
                <_>
                  15 0 5 24 -1.</_>
                <_>
                  15 12 5 12 2.</_></rects>
              <tilted>0</tilted></feature>
            <threshold>-0.1634096950292587</threshold>
            <left_val>-0.7243173122406006</left_val>
            <right_node>14</right_node></_>
          <_>
            <!-- node 12 -->
            <feature>
              <rects>
                <_>
                  8 10 8 8 -1.</_>
                <_>
                  8 10 4 4 2.</_>
                <_>
                  12 14 4 4 2.</_></rects>
              <tilted>0</tilted></feature>
            <threshold>-6.1946008354425430e-003</threshold>
            <left_val>-0.6677868962287903</left_val>
            <right_node>18</right_node></_>
          <_>
            <!-- node 13 -->
            <feature>
              <rects>
                <_>
                  11 9 8 15 -1.</_>
                <_>
                  11 14 8 5 3.</_></rects>
              <tilted>0</tilted></feature>
            <threshold>-0.1362843066453934</threshold>
            <left_val>0.8022369742393494</left_val>
            <right_val>-0.8886014819145203</right_val></_>
          <_>
            <!-- node 14 -->
            <feature>
              <rects>
                <_>
                  0 4 24 15 -1.</_>
                <_>
                  12 4 12 15 2.</_></rects>
              <tilted>0</tilted></feature>
            <threshold>-0.2500747144222260</threshold>
            <left_val>-0.6211792826652527</left_val>
            <right_val>0.9519687891006470</right_val></_>
          <_>
            <!-- node 15 -->
            <feature>
              <rects>
                <_>
                  0 0 20 4 -1.</_>
                <_>
                  5 0 10 4 2.</_></rects>
              <tilted>0</tilted></feature>
            <threshold>0.0531974285840988</threshold>
            <left_node>19</left_node>
            <right_val>0.2060249000787735</right_val></_>
          <_>
            <!-- node 16 -->
            <feature>
              <rects>
                <_>
                  13 10 8 5 -1.</_>
                <_>
                  15 12 4 5 2.</_></rects>
              <tilted>1</tilted></feature>
            <threshold>-0.0615354999899864</threshold>
            <left_val>0.4398334026336670</left_val>
            <right_val>-0.8938990831375122</right_val></_>
          <_>
            <!-- node 17 -->
            <feature>
              <rects>
                <_>
                  5 16 12 6 -1.</_>
                <_>
                  5 19 12 3 2.</_></rects>
              <tilted>0</tilted></feature>
            <threshold>0.0879675000905991</threshold>
            <left_val>-0.8103665113449097</left_val>
            <right_val>0.7672923803329468</right_val></_>
          <_>
            <!-- node 18 -->
            <feature>
              <rects>
                <_>
                  19 13 3 9 -1.</_>
                <_>
                  20 16 1 3 9.</_></rects>
              <tilted>0</tilted></feature>
            <threshold>7.9134497791528702e-003</threshold>
            <left_val>0.8360865712165833</left_val>
            <right_val>-1.0000020265579224</right_val></_>
          <_>
            <!-- node 19 -->
            <feature>
              <rects>
                <_>
                  0 9 20 10 -1.</_>
                <_>
                  0 9 10 5 2.</_>
                <_>
                  10 14 10 5 2.</_></rects>
              <tilted>0</tilted></feature>
            <threshold>-0.1779119968414307</threshold>
            <left_val>0.6587222814559937</left_val>
            <right_val>-0.8443713188171387</right_val></_></_>
        <_>
          <!-- tree 1 -->
          <_>
            <!-- root node -->
            <feature>
              <rects>
                <_>
                  1 12 12 9 -1.</_>
                <_>
                  5 12 4 9 3.</_></rects>
              <tilted>0</tilted></feature>
            <threshold>-0.0421626083552837</threshold>
            <left_node>1</left_node>
            <right_node>2</right_node></_>
          <_>
            <!-- node 1 -->
            <feature>
              <rects>
                <_>
                  2 20 2 2 -1.</_>
                <_>
                  2 20 2 1 2.</_></rects>
              <tilted>1</tilted></feature>
            <threshold>9.0203288709744811e-004</threshold>
            <left_node>4</left_node>
            <right_node>16</right_node></_>
          <_>
            <!-- node 2 -->
            <feature>
              <rects>
                <_>
                  9 20 4 4 -1.</_>
                <_>
                  10 20 2 4 2.</_></rects>
              <tilted>0</tilted></feature>
            <threshold>-1.5746089629828930e-003</threshold>
            <left_val>-0.9298589229583740</left_val>
            <right_node>3</right_node></_>
          <_>
            <!-- node 3 -->
            <feature>
              <rects>
                <_>
                  8 18 6 6 -1.</_>
                <_>
                  10 18 2 6 3.</_></rects>
              <tilted>0</tilted></feature>
            <threshold>5.2300252718850970e-004</threshold>
            <left_node>5</left_node>
            <right_node>8</right_node></_>
          <_>
            <!-- node 4 -->
            <feature>
              <rects>
                <_>
                  3 19 2 3 -1.</_>
                <_>
                  2 20 2 1 3.</_></rects>
              <tilted>1</tilted></feature>
            <threshold>-1.4816380571573973e-003</threshold>
            <left_node>10</left_node>
            <right_node>7</right_node></_>
          <_>
            <!-- node 5 -->
            <feature>
              <rects>
                <_>
                  14 17 10 6 -1.</_>
                <_>
                  19 17 5 6 2.</_></rects>
              <tilted>0</tilted></feature>
            <threshold>0.0106401601806283</threshold>
            <left_node>14</left_node>
            <right_node>6</right_node></_>
          <_>
            <!-- node 6 -->
            <feature>
              <rects>
                <_>
                  9 16 4 8 -1.</_>
                <_>
                  9 20 4 4 2.</_></rects>
              <tilted>0</tilted></feature>
            <threshold>5.4489099420607090e-003</threshold>
            <left_node>11</left_node>
            <right_node>13</right_node></_>
          <_>
            <!-- node 7 -->
            <feature>
              <rects>
                <_>
                  11 21 3 3 -1.</_>
                <_>
                  12 21 1 3 3.</_></rects>
              <tilted>0</tilted></feature>
            <threshold>1.2052300153300166e-003</threshold>
            <left_node>9</left_node>
            <right_val>-0.6415706276893616</right_val></_>
          <_>
            <!-- node 8 -->
            <feature>
              <rects>
                <_>
                  21 2 2 14 -1.</_>
                <_>
                  21 2 1 7 2.</_>
                <_>
                  22 9 1 7 2.</_></rects>
              <tilted>0</tilted></feature>
            <threshold>8.8862106204032898e-003</threshold>
            <left_node>19</left_node>
            <right_val>0.3962810933589935</right_val></_>
          <_>
            <!-- node 9 -->
            <feature>
              <rects>
                <_>
                  0 0 9 21 -1.</_>
                <_>
                  3 7 3 7 9.</_></rects>
              <tilted>0</tilted></feature>
            <threshold>-0.2114427983760834</threshold>
            <left_val>-0.6348466873168945</left_val>
            <right_node>12</right_node></_>
          <_>
            <!-- node 10 -->
            <feature>
              <rects>
                <_>
                  19 0 5 4 -1.</_>
                <_>
                  19 0 5 2 2.</_></rects>
              <tilted>1</tilted></feature>
            <threshold>-0.0110611403360963</threshold>
            <left_val>0.6891047954559326</left_val>
            <right_val>-0.9347301721572876</right_val></_>
          <_>
            <!-- node 11 -->
            <feature>
              <rects>
                <_>
                  18 10 4 10 -1.</_>
                <_>
                  19 10 2 10 2.</_></rects>
              <tilted>0</tilted></feature>
            <threshold>-0.0118432799354196</threshold>
            <left_val>0.6298480033874512</left_val>
            <right_val>-0.9439926147460938</right_val></_>
          <_>
            <!-- node 12 -->
            <feature>
              <rects>
                <_>
                  0 14 20 8 -1.</_>
                <_>
                  5 14 10 8 2.</_></rects>
              <tilted>0</tilted></feature>
            <threshold>-0.2029304057359695</threshold>
            <left_val>-0.7979428768157959</left_val>
            <right_node>15</right_node></_>
          <_>
            <!-- node 13 -->
            <feature>
              <rects>
                <_>
                  11 18 6 1 -1.</_>
                <_>
                  13 18 2 1 3.</_></rects>
              <tilted>0</tilted></feature>
            <threshold>6.4342172117903829e-004</threshold>
            <left_node>17</left_node>
            <right_val>-0.7436118125915527</right_val></_>
          <_>
            <!-- node 14 -->
            <feature>
              <rects>
                <_>
                  0 15 8 2 -1.</_>
                <_>
                  4 15 4 2 2.</_></rects>
              <tilted>0</tilted></feature>
            <threshold>-0.0153039302676916</threshold>
            <left_val>0.5033621788024902</left_val>
            <right_val>-0.8716986179351807</right_val></_>
          <_>
            <!-- node 15 -->
            <feature>
              <rects>
                <_>
                  1 0 22 1 -1.</_>
                <_>
                  1 0 11 1 2.</_></rects>
              <tilted>1</tilted></feature>
            <threshold>0.0628512874245644</threshold>
            <left_node>18</left_node>
            <right_val>-0.5516812205314636</right_val></_>
          <_>
            <!-- node 16 -->
            <feature>
              <rects>
                <_>
                  5 17 10 4 -1.</_>
                <_>
                  5 19 10 2 2.</_></rects>
              <tilted>0</tilted></feature>
            <threshold>0.0463349297642708</threshold>
            <left_val>-0.7784984111785889</left_val>
            <right_val>0.8141728043556213</right_val></_>
          <_>
            <!-- node 17 -->
            <feature>
              <rects>
                <_>
                  10 18 6 2 -1.</_>
                <_>
                  10 18 3 1 2.</_>
                <_>
                  13 19 3 1 2.</_></rects>
              <tilted>0</tilted></feature>
            <threshold>2.0940781105309725e-003</threshold>
            <left_val>0.7472513914108276</left_val>
            <right_val>-1.0000029802322388</right_val></_>
          <_>
            <!-- node 18 -->
            <feature>
              <rects>
                <_>
                  5 6 14 12 -1.</_>
                <_>
                  5 6 7 6 2.</_>
                <_>
                  12 12 7 6 2.</_></rects>
              <tilted>0</tilted></feature>
            <threshold>-0.0519655607640743</threshold>
            <left_val>-0.7846243977546692</left_val>
            <right_val>0.9396101832389832</right_val></_>
          <_>
            <!-- node 19 -->
            <feature>
              <rects>
                <_>
                  10 6 6 6 -1.</_>
                <_>
                  8 8 6 2 3.</_></rects>
              <tilted>1</tilted></feature>
            <threshold>0.0616680309176445</threshold>
            <left_val>-0.8402628898620606</left_val>
            <right_val>0.6269618868827820</right_val></_></_></trees>
      <stage_threshold>-0.4480903148651123</stage_threshold>
      <parent>1</parent>
      <next>-1</next></_>
    <_>
      <!-- stage 3 -->
      <trees>
        <_>
          <!-- tree 0 -->
          <_>
            <!-- root node -->
            <feature>
              <rects>
                <_>
                  11 11 12 10 -1.</_>
                <_>
                  15 11 4 10 3.</_></rects>
              <tilted>0</tilted></feature>
            <threshold>-0.0570813715457916</threshold>
            <left_node>1</left_node>
            <right_node>2</right_node></_>
          <_>
            <!-- node 1 -->
            <feature>
              <rects>
                <_>
                  8 9 4 8 -1.</_>
                <_>
                  8 9 2 8 2.</_></rects>
              <tilted>1</tilted></feature>
            <threshold>0.0219264291226864</threshold>
            <left_node>7</left_node>
            <right_node>3</right_node></_>
          <_>
            <!-- node 2 -->
            <feature>
              <rects>
                <_>
                  7 14 11 8 -1.</_>
                <_>
                  7 18 11 4 2.</_></rects>
              <tilted>0</tilted></feature>
            <threshold>-0.1467248946428299</threshold>
            <left_node>18</left_node>
            <right_node>4</right_node></_>
          <_>
            <!-- node 3 -->
            <feature>
              <rects>
                <_>
                  5 8 14 12 -1.</_>
                <_>
                  5 8 7 6 2.</_>
                <_>
                  12 14 7 6 2.</_></rects>
              <tilted>0</tilted></feature>
            <threshold>0.0401838198304176</threshold>
            <left_node>5</left_node>
            <right_val>-0.8161708712577820</right_val></_>
          <_>
            <!-- node 4 -->
            <feature>
              <rects>
                <_>
                  17 5 2 12 -1.</_>
                <_>
                  17 5 1 6 2.</_>
                <_>
                  18 11 1 6 2.</_></rects>
              <tilted>0</tilted></feature>
            <threshold>7.3575810529291630e-003</threshold>
            <left_node>10</left_node>
            <right_node>6</right_node></_>
          <_>
            <!-- node 5 -->
            <feature>
              <rects>
                <_>
                  5 5 5 14 -1.</_>
                <_>
                  5 12 5 7 2.</_></rects>
              <tilted>0</tilted></feature>
            <threshold>-5.7352250441908836e-003</threshold>
            <left_node>8</left_node>
            <right_val>-0.6373842954635620</right_val></_>
          <_>
            <!-- node 6 -->
            <feature>
              <rects>
                <_>
                  1 2 8 1 -1.</_>
                <_>
                  1 2 4 1 2.</_></rects>
              <tilted>1</tilted></feature>
            <threshold>-1.3316000113263726e-003</threshold>
            <left_node>13</left_node>
            <right_val>-0.7704340815544128</right_val></_>
          <_>
            <!-- node 7 -->
            <feature>
              <rects>
                <_>
                  1 8 12 1 -1.</_>
                <_>
                  1 8 6 1 2.</_></rects>
              <tilted>1</tilted></feature>
            <threshold>0.0233064591884613</threshold>
            <left_val>-0.6973885893821716</left_val>
            <right_node>14</right_node></_>
          <_>
            <!-- node 8 -->
            <feature>
              <rects>
                <_>
                  11 17 8 6 -1.</_>
                <_>
                  13 17 4 6 2.</_></rects>
              <tilted>0</tilted></feature>
            <threshold>-0.0204337202012539</threshold>
            <left_val>-1.</left_val>
            <right_node>9</right_node></_>
          <_>
            <!-- node 9 -->
            <feature>
              <rects>
                <_>
                  13 17 3 2 -1.</_>
                <_>
                  14 17 1 2 3.</_></rects>
              <tilted>0</tilted></feature>
            <threshold>7.1382307214662433e-004</threshold>
            <left_node>12</left_node>
            <right_val>-0.7524439096450806</right_val></_>
          <_>
            <!-- node 10 -->
            <feature>
              <rects>
                <_>
                  6 3 6 6 -1.</_>
                <_>
                  6 3 3 6 2.</_></rects>
              <tilted>1</tilted></feature>
            <threshold>0.1276471018791199</threshold>
            <left_node>11</left_node>
            <right_val>0.8126432895660400</right_val></_>
          <_>
            <!-- node 11 -->
            <feature>
              <rects>
                <_>
                  16 9 8 12 -1.</_>
                <_>
                  16 9 4 6 2.</_>
                <_>
                  20 15 4 6 2.</_></rects>
              <tilted>0</tilted></feature>
            <threshold>0.0824522674083710</threshold>
            <left_node>15</left_node>
            <right_node>17</right_node></_>
          <_>
            <!-- node 12 -->
            <feature>
              <rects>
                <_>
                  3 17 4 6 -1.</_>
                <_>
                  5 17 2 6 2.</_></rects>
              <tilted>0</tilted></feature>
            <threshold>-1.6921140195336193e-004</threshold>
            <left_val>0.9163843989372253</left_val>
            <right_val>-0.4046364128589630</right_val></_>
          <_>
            <!-- node 13 -->
            <feature>
              <rects>
                <_>
                  8 15 16 5 -1.</_>
                <_>
                  12 15 8 5 2.</_></rects>
              <tilted>0</tilted></feature>
            <threshold>-6.5250261686742306e-003</threshold>
            <left_val>0.7933815717697144</left_val>
            <right_val>-0.8620331287384033</right_val></_>
          <_>
            <!-- node 14 -->
            <feature>
              <rects>
                <_>
                  5 9 9 1 -1.</_>
                <_>
                  8 9 3 1 3.</_></rects>
              <tilted>0</tilted></feature>
            <threshold>1.2429259950295091e-003</threshold>
            <left_val>0.6144468188285828</left_val>
            <right_val>-0.9999948143959045</right_val></_>
          <_>
            <!-- node 15 -->
            <feature>
              <rects>
                <_>
                  5 9 18 15 -1.</_>
                <_>
                  11 14 6 5 9.</_></rects>
              <tilted>0</tilted></feature>
            <threshold>-0.3482907116413117</threshold>
            <left_node>16</left_node>
            <right_val>-0.8774673938751221</right_val></_>
          <_>
            <!-- node 16 -->
            <feature>
              <rects>
                <_>
                  18 1 4 4 -1.</_>
                <_>
                  18 1 4 2 2.</_></rects>
              <tilted>1</tilted></feature>
            <threshold>-0.0121364602819085</threshold>
            <left_node>19</left_node>
            <right_val>-0.7062811255455017</right_val></_>
          <_>
            <!-- node 17 -->
            <feature>
              <rects>
                <_>
                  18 10 1 2 -1.</_>
                <_>
                  18 10 1 1 2.</_></rects>
              <tilted>1</tilted></feature>
            <threshold>3.7347260513342917e-004</threshold>
            <left_val>-1.</left_val>
            <right_val>0.7881038188934326</right_val></_>
          <_>
            <!-- node 18 -->
            <feature>
              <rects>
                <_>
                  15 5 4 3 -1.</_>
                <_>
                  15 5 2 3 2.</_></rects>
              <tilted>1</tilted></feature>
            <threshold>-5.4971380159258842e-003</threshold>
            <left_val>0.9615656137466431</left_val>
            <right_val>-1.0000020265579224</right_val></_>
          <_>
            <!-- node 19 -->
            <feature>
              <rects>
                <_>
                  7 10 3 2 -1.</_>
                <_>
                  7 10 3 1 2.</_></rects>
              <tilted>1</tilted></feature>
            <threshold>-9.7207241924479604e-004</threshold>
            <left_val>0.6400824189186096</left_val>
            <right_val>-0.4213227927684784</right_val></_></_>
        <_>
          <!-- tree 1 -->
          <_>
            <!-- root node -->
            <feature>
              <rects>
                <_>
                  0 16 24 7 -1.</_>
                <_>
                  6 16 12 7 2.</_></rects>
              <tilted>0</tilted></feature>
            <threshold>-0.0805878192186356</threshold>
            <left_node>1</left_node>
            <right_node>7</right_node></_>
          <_>
            <!-- node 1 -->
            <feature>
              <rects>
                <_>
                  5 16 13 8 -1.</_>
                <_>
                  5 20 13 4 2.</_></rects>
              <tilted>0</tilted></feature>
            <threshold>0.0888736024498940</threshold>
            <left_node>2</left_node>
            <right_node>3</right_node></_>
          <_>
            <!-- node 2 -->
            <feature>
              <rects>
                <_>
                  10 14 3 6 -1.</_>
                <_>
                  10 14 3 3 2.</_></rects>
              <tilted>1</tilted></feature>
            <threshold>7.1499762125313282e-003</threshold>
            <left_node>5</left_node>
            <right_node>4</right_node></_>
          <_>
            <!-- node 3 -->
            <feature>
              <rects>
                <_>
                  13 17 2 6 -1.</_>
                <_>
                  13 17 1 3 2.</_>
                <_>
                  14 20 1 3 2.</_></rects>
              <tilted>0</tilted></feature>
            <threshold>-1.4882009709253907e-003</threshold>
            <left_val>-0.7766168117523193</left_val>
            <right_node>6</right_node></_>
          <_>
            <!-- node 4 -->
            <feature>
              <rects>
                <_>
                  11 22 8 2 -1.</_>
                <_>
                  11 23 8 1 2.</_></rects>
              <tilted>0</tilted></feature>
            <threshold>2.1780749375466257e-004</threshold>
            <left_val>-0.8337895274162293</left_val>
            <right_node>11</right_node></_>
          <_>
            <!-- node 5 -->
            <feature>
              <rects>
                <_>
                  6 15 12 6 -1.</_>
                <_>
                  6 18 12 3 2.</_></rects>
              <tilted>0</tilted></feature>
            <threshold>0.0803941562771797</threshold>
            <left_node>10</left_node>
            <right_val>0.7182341217994690</right_val></_>
          <_>
            <!-- node 6 -->
            <feature>
              <rects>
                <_>
                  10 19 6 1 -1.</_>
                <_>
                  12 19 2 1 3.</_></rects>
              <tilted>0</tilted></feature>
            <threshold>1.2407579924911261e-003</threshold>
            <left_node>9</left_node>
            <right_val>-0.8486036062240601</right_val></_>
          <_>
            <!-- node 7 -->
            <feature>
              <rects>
                <_>
                  9 10 8 6 -1.</_>
                <_>
                  9 10 8 3 2.</_></rects>
              <tilted>1</tilted></feature>
            <threshold>-0.0832147970795631</threshold>
            <left_node>16</left_node>
            <right_node>8</right_node></_>
          <_>
            <!-- node 8 -->
            <feature>
              <rects>
                <_>
                  0 12 14 10 -1.</_>
                <_>
                  0 12 7 5 2.</_>
                <_>
                  7 17 7 5 2.</_></rects>
              <tilted>0</tilted></feature>
            <threshold>-0.0564499497413635</threshold>
            <left_node>15</left_node>
            <right_node>12</right_node></_>
          <_>
            <!-- node 9 -->
            <feature>
              <rects>
                <_>
                  1 23 9 1 -1.</_>
                <_>
                  4 23 3 1 3.</_></rects>
              <tilted>0</tilted></feature>
            <threshold>2.6889210566878319e-003</threshold>
            <left_node>14</left_node>
            <right_val>-0.5981506705284119</right_val></_>
          <_>
            <!-- node 10 -->
            <feature>
              <rects>
                <_>
                  0 9 12 12 -1.</_>
                <_>
                  3 9 6 12 2.</_></rects>
              <tilted>0</tilted></feature>
            <threshold>0.0528313405811787</threshold>
            <left_node>18</left_node>
            <right_val>0.4122774899005890</right_val></_>
          <_>
            <!-- node 11 -->
            <feature>
              <rects>
                <_>
                  5 20 4 2 -1.</_>
                <_>
                  7 20 2 2 2.</_></rects>
              <tilted>0</tilted></feature>
            <threshold>4.0131970308721066e-004</threshold>
            <left_val>0.8464406132698059</left_val>
            <right_val>-0.9999951720237732</right_val></_>
          <_>
            <!-- node 12 -->
            <feature>
              <rects>
                <_>
                  7 7 1 2 -1.</_>
                <_>
                  7 8 1 1 2.</_></rects>
              <tilted>0</tilted></feature>
            <threshold>-1.0435009608045220e-003</threshold>
            <left_node>13</left_node>
            <right_val>-0.8768491148948669</right_val></_>
          <_>
            <!-- node 13 -->
            <feature>
              <rects>
                <_>
                  17 5 2 7 -1.</_>
                <_>
                  18 5 1 7 2.</_></rects>
              <tilted>0</tilted></feature>
            <threshold>6.3215801492333412e-004</threshold>
            <left_val>-0.9999991059303284</left_val>
            <right_node>17</right_node></_>
          <_>
            <!-- node 14 -->
            <feature>
              <rects>
                <_>
                  6 23 16 1 -1.</_>
                <_>
                  10 23 8 1 2.</_></rects>
              <tilted>0</tilted></feature>
            <threshold>5.1607168279588223e-003</threshold>
            <left_val>0.8235216736793518</left_val>
            <right_val>-0.4718244075775147</right_val></_>
          <_>
            <!-- node 15 -->
            <feature>
              <rects>
                <_>
                  14 13 8 10 -1.</_>
                <_>
                  14 13 4 5 2.</_>
                <_>
                  18 18 4 5 2.</_></rects>
              <tilted>0</tilted></feature>
            <threshold>4.4604851864278316e-003</threshold>
            <left_val>-0.9472678899765015</left_val>
            <right_val>0.4657272994518280</right_val></_>
          <_>
            <!-- node 16 -->
            <feature>
              <rects>
                <_>
                  14 7 10 6 -1.</_>
                <_>
                  12 9 10 2 3.</_></rects>
              <tilted>1</tilted></feature>
            <threshold>-0.0178757794201374</threshold>
            <left_val>0.5984094142913818</left_val>
            <right_val>-0.9291769266128540</right_val></_>
          <_>
            <!-- node 17 -->
            <feature>
              <rects>
                <_>
                  10 5 6 10 -1.</_>
                <_>
                  10 10 6 5 2.</_></rects>
              <tilted>0</tilted></feature>
            <threshold>-0.0137978103011847</threshold>
            <left_val>0.8015341162681580</left_val>
            <right_val>-0.9150913953781128</right_val></_>
          <_>
            <!-- node 18 -->
            <feature>
              <rects>
                <_>
                  20 6 4 4 -1.</_>
                <_>
                  20 6 4 2 2.</_></rects>
              <tilted>1</tilted></feature>
            <threshold>0.0416828207671642</threshold>
            <left_val>-0.8739554286003113</left_val>
            <right_node>19</right_node></_>
          <_>
            <!-- node 19 -->
            <feature>
              <rects>
                <_>
                  2 1 4 12 -1.</_>
                <_>
                  2 1 2 6 2.</_>
                <_>
                  4 7 2 6 2.</_></rects>
              <tilted>0</tilted></feature>
            <threshold>-0.0212293192744255</threshold>
            <left_val>1.</left_val>
            <right_val>-0.8116589188575745</right_val></_></_></trees>
      <stage_threshold>-1.1781059503555298</stage_threshold>
      <parent>2</parent>
      <next>-1</next></_>
    <_>
      <!-- stage 4 -->
      <trees>
        <_>
          <!-- tree 0 -->
          <_>
            <!-- root node -->
            <feature>
              <rects>
                <_>
                  0 1 2 16 -1.</_>
                <_>
                  0 9 2 8 2.</_></rects>
              <tilted>0</tilted></feature>
            <threshold>0.0114266201853752</threshold>
            <left_node>3</left_node>
            <right_node>1</right_node></_>
          <_>
            <!-- node 1 -->
            <feature>
              <rects>
                <_>
                  0 11 15 3 -1.</_>
                <_>
                  5 12 5 1 9.</_></rects>
              <tilted>0</tilted></feature>
            <threshold>-0.0253975708037615</threshold>
            <left_node>2</left_node>
            <right_node>4</right_node></_>
          <_>
            <!-- node 2 -->
            <feature>
              <rects>
                <_>
                  11 16 2 2 -1.</_>
                <_>
                  12 16 1 2 2.</_></rects>
              <tilted>0</tilted></feature>
            <threshold>-5.0614611245691776e-004</threshold>
            <left_val>-0.6040518283843994</left_val>
            <right_node>6</right_node></_>
          <_>
            <!-- node 3 -->
            <feature>
              <rects>
                <_>
                  2 1 6 6 -1.</_>
                <_>
                  2 1 3 3 2.</_>
                <_>
                  5 4 3 3 2.</_></rects>
              <tilted>0</tilted></feature>
            <threshold>-0.0103384098038077</threshold>
            <left_node>5</left_node>
            <right_node>9</right_node></_>
          <_>
            <!-- node 4 -->
            <feature>
              <rects>
                <_>
                  8 10 13 3 -1.</_>
                <_>
                  8 11 13 1 3.</_></rects>
              <tilted>0</tilted></feature>
            <threshold>-0.0220239292830229</threshold>
            <left_val>0.7018435001373291</left_val>
            <right_node>8</right_node></_>
          <_>
            <!-- node 5 -->
            <feature>
              <rects>
                <_>
                  4 1 2 20 -1.</_>
                <_>
                  4 11 2 10 2.</_></rects>
              <tilted>0</tilted></feature>
            <threshold>-0.0307500492781401</threshold>
            <left_node>14</left_node>
            <right_node>18</right_node></_>
          <_>
            <!-- node 6 -->
            <feature>
              <rects>
                <_>
                  2 17 1 2 -1.</_>
                <_>
                  2 17 1 1 2.</_></rects>
              <tilted>1</tilted></feature>
            <threshold>6.8178080255165696e-004</threshold>
            <left_node>7</left_node>
            <right_node>12</right_node></_>
          <_>
            <!-- node 7 -->
            <feature>
              <rects>
                <_>
                  5 8 14 14 -1.</_>
                <_>
                  5 8 7 7 2.</_>
                <_>
                  12 15 7 7 2.</_></rects>
              <tilted>0</tilted></feature>
            <threshold>-0.0471911318600178</threshold>
            <left_val>-0.4264346957206726</left_val>
            <right_node>10</right_node></_>
          <_>
            <!-- node 8 -->
            <feature>
              <rects>
                <_>
                  5 9 14 3 -1.</_>
                <_>
                  5 10 14 1 3.</_></rects>
              <tilted>0</tilted></feature>
            <threshold>-0.0144360298290849</threshold>
            <left_node>15</left_node>
            <right_val>-0.7201880216598511</right_val></_>
          <_>
            <!-- node 9 -->
            <feature>
              <rects>
                <_>
                  17 3 2 2 -1.</_>
                <_>
                  17 3 1 1 2.</_>
                <_>
                  18 4 1 1 2.</_></rects>
              <tilted>0</tilted></feature>
            <threshold>-3.5259520518593490e-004</threshold>
            <left_node>11</left_node>
            <right_node>19</right_node></_>
          <_>
            <!-- node 10 -->
            <feature>
              <rects>
                <_>
                  15 1 5 18 -1.</_>
                <_>
                  15 7 5 6 3.</_></rects>
              <tilted>0</tilted></feature>
            <threshold>-0.0523702204227448</threshold>
            <left_val>-0.7304059863090515</left_val>
            <right_node>13</right_node></_>
          <_>
            <!-- node 11 -->
            <feature>
              <rects>
                <_>
                  3 11 16 3 -1.</_>
                <_>
                  3 12 16 1 3.</_></rects>
              <tilted>0</tilted></feature>
            <threshold>-0.0169364996254444</threshold>
            <left_val>0.4938327074050903</left_val>
            <right_node>17</right_node></_>
          <_>
            <!-- node 12 -->
            <feature>
              <rects>
                <_>
                  20 13 2 6 -1.</_>
                <_>
                  18 15 2 2 3.</_></rects>
              <tilted>1</tilted></feature>
            <threshold>-0.0172327607870102</threshold>
            <left_val>0.5197678208351135</left_val>
            <right_val>-0.8987966775894165</right_val></_>
          <_>
            <!-- node 13 -->
            <feature>
              <rects>
                <_>
                  9 11 15 11 -1.</_>
                <_>
                  14 11 5 11 3.</_></rects>
              <tilted>0</tilted></feature>
            <threshold>-0.0110788298770785</threshold>
            <left_node>16</left_node>
            <right_val>-0.5055431723594666</right_val></_>
          <_>
            <!-- node 14 -->
            <feature>
              <rects>
                <_>
                  6 14 4 1 -1.</_>
                <_>
                  6 14 2 1 2.</_></rects>
              <tilted>1</tilted></feature>
            <threshold>1.5612710558343679e-004</threshold>
            <left_val>-0.5747411251068115</left_val>
            <right_val>0.8164823055267334</right_val></_>
          <_>
            <!-- node 15 -->
            <feature>
              <rects>
                <_>
                  10 1 8 20 -1.</_>
                <_>
                  14 1 4 20 2.</_></rects>
              <tilted>0</tilted></feature>
            <threshold>-5.7696769945323467e-003</threshold>
            <left_val>0.7104532718658447</left_val>
            <right_val>-0.6765971779823303</right_val></_>
          <_>
            <!-- node 16 -->
            <feature>
              <rects>
                <_>
                  4 8 2 4 -1.</_>
                <_>
                  4 8 2 2 2.</_></rects>
              <tilted>1</tilted></feature>
            <threshold>-0.0323336608707905</threshold>
            <left_val>-1.</left_val>
            <right_val>0.9193618893623352</right_val></_>
          <_>
            <!-- node 17 -->
            <feature>
              <rects>
                <_>
                  0 4 12 4 -1.</_>
                <_>
                  0 4 6 2 2.</_>
                <_>
                  6 6 6 2 2.</_></rects>
              <tilted>0</tilted></feature>
            <threshold>-0.0150950197130442</threshold>
            <left_val>0.2175523936748505</left_val>
            <right_val>-0.7443888783454895</right_val></_>
          <_>
            <!-- node 18 -->
            <feature>
              <rects>
                <_>
                  15 10 5 3 -1.</_>
                <_>
                  15 11 5 1 3.</_></rects>
              <tilted>0</tilted></feature>
            <threshold>-5.5277319625020027e-003</threshold>
            <left_val>0.3738569915294647</left_val>
            <right_val>-0.8685892820358276</right_val></_>
          <_>
            <!-- node 19 -->
            <feature>
              <rects>
                <_>
                  16 4 2 4 -1.</_>
                <_>
                  16 4 1 2 2.</_>
                <_>
                  17 6 1 2 2.</_></rects>
              <tilted>0</tilted></feature>
            <threshold>1.9300699932500720e-003</threshold>
            <left_val>-0.8481469750404358</left_val>
            <right_val>-0.2087730020284653</right_val></_></_>
        <_>
          <!-- tree 1 -->
          <_>
            <!-- root node -->
            <feature>
              <rects>
                <_>
                  22 20 2 2 -1.</_>
                <_>
                  22 20 1 2 2.</_></rects>
              <tilted>1</tilted></feature>
            <threshold>1.3052379945293069e-003</threshold>
            <left_node>1</left_node>
            <right_node>15</right_node></_>
          <_>
            <!-- node 1 -->
            <feature>
              <rects>
                <_>
                  12 18 3 2 -1.</_>
                <_>
                  13 18 1 2 3.</_></rects>
              <tilted>0</tilted></feature>
            <threshold>-7.7436858555302024e-004</threshold>
            <left_val>-0.8437530994415283</left_val>
            <right_node>2</right_node></_>
          <_>
            <!-- node 2 -->
            <feature>
              <rects>
                <_>
                  3 18 2 3 -1.</_>
                <_>
                  2 19 2 1 3.</_></rects>
              <tilted>1</tilted></feature>
            <threshold>-1.2217869516462088e-003</threshold>
            <left_node>10</left_node>
            <right_node>3</right_node></_>
          <_>
            <!-- node 3 -->
            <feature>
              <rects>
                <_>
                  9 17 12 6 -1.</_>
                <_>
                  13 17 4 6 3.</_></rects>
              <tilted>0</tilted></feature>
            <threshold>-8.6405349429696798e-004</threshold>
            <left_node>4</left_node>
            <right_node>9</right_node></_>
          <_>
            <!-- node 4 -->
            <feature>
              <rects>
                <_>
                  6 14 2 5 -1.</_>
                <_>
                  6 14 1 5 2.</_></rects>
              <tilted>1</tilted></feature>
            <threshold>4.8765391111373901e-003</threshold>
            <left_node>5</left_node>
            <right_node>6</right_node></_>
          <_>
            <!-- node 5 -->
            <feature>
              <rects>
                <_>
                  5 0 18 12 -1.</_>
                <_>
                  5 0 9 6 2.</_>
                <_>
                  14 6 9 6 2.</_></rects>
              <tilted>0</tilted></feature>
            <threshold>0.0548882596194744</threshold>
            <left_node>7</left_node>
            <right_node>13</right_node></_>
          <_>
            <!-- node 6 -->
            <feature>
              <rects>
                <_>
                  16 18 2 6 -1.</_>
                <_>
                  17 18 1 6 2.</_></rects>
              <tilted>0</tilted></feature>
            <threshold>2.5673939380794764e-003</threshold>
            <left_node>8</left_node>
            <right_node>19</right_node></_>
          <_>
            <!-- node 7 -->
            <feature>
              <rects>
                <_>
                  12 16 3 4 -1.</_>
                <_>
                  12 17 3 2 2.</_></rects>
              <tilted>0</tilted></feature>
            <threshold>-1.3569119619205594e-003</threshold>
            <left_node>14</left_node>
            <right_val>-0.7656685113906860</right_val></_>
          <_>
            <!-- node 8 -->
            <feature>
              <rects>
                <_>
                  4 10 1 14 -1.</_>
                <_>
                  4 17 1 7 2.</_></rects>
              <tilted>0</tilted></feature>
            <threshold>-0.0202843490988016</threshold>
            <left_val>-0.7587020993232727</left_val>
            <right_node>11</right_node></_>
          <_>
            <!-- node 9 -->
            <feature>
              <rects>
                <_>
                  3 0 7 2 -1.</_>
                <_>
                  3 1 7 1 2.</_></rects>
              <tilted>0</tilted></feature>
            <threshold>-8.6824741447344422e-004</threshold>
            <left_node>16</left_node>
            <right_val>-0.8653482198715210</right_val></_>
          <_>
            <!-- node 10 -->
            <feature>
              <rects>
                <_>
                  17 2 6 18 -1.</_>
                <_>
                  17 2 3 9 2.</_>
                <_>
                  20 11 3 9 2.</_></rects>
              <tilted>0</tilted></feature>
            <threshold>0.0584564693272114</threshold>
            <left_val>-0.6681374907493591</left_val>
            <right_val>0.3344134092330933</right_val></_>
          <_>
            <!-- node 11 -->
            <feature>
              <rects>
                <_>
                  2 16 2 2 -1.</_>
                <_>
                  2 16 2 1 2.</_></rects>
              <tilted>1</tilted></feature>
            <threshold>4.3070241808891296e-003</threshold>
            <left_node>12</left_node>
            <right_val>-1.0001180171966553</right_val></_>
          <_>
            <!-- node 12 -->
            <feature>
              <rects>
                <_>
                  17 15 6 9 -1.</_>
                <_>
                  19 15 2 9 3.</_></rects>
              <tilted>0</tilted></feature>
            <threshold>0.0434836596250534</threshold>
            <left_node>17</left_node>
            <right_val>-0.8916630148887634</right_val></_>
          <_>
            <!-- node 13 -->
            <feature>
              <rects>
                <_>
                  13 15 2 4 -1.</_>
                <_>
                  13 15 1 2 2.</_>
                <_>
                  14 17 1 2 2.</_></rects>
              <tilted>0</tilted></feature>
            <threshold>-2.2757939586881548e-004</threshold>
            <left_val>-0.4057303965091705</left_val>
            <right_val>0.7657942175865173</right_val></_>
          <_>
            <!-- node 14 -->
            <feature>
              <rects>
                <_>
                  16 10 8 3 -1.</_>
                <_>
                  16 11 8 1 3.</_></rects>
              <tilted>0</tilted></feature>
            <threshold>3.4915960859507322e-003</threshold>
            <left_val>-0.2711560130119324</left_val>
            <right_val>0.6169453263282776</right_val></_>
          <_>
            <!-- node 15 -->
            <feature>
              <rects>
                <_>
                  7 0 14 1 -1.</_>
                <_>
                  14 0 7 1 2.</_></rects>
              <tilted>0</tilted></feature>
            <threshold>-0.0205687806010246</threshold>
            <left_val>0.3516429960727692</left_val>
            <right_val>-0.8516331911087036</right_val></_>
          <_>
            <!-- node 16 -->
            <feature>
              <rects>
                <_>
                  18 1 5 18 -1.</_>
                <_>
                  18 10 5 9 2.</_></rects>
              <tilted>0</tilted></feature>
            <threshold>0.0428547188639641</threshold>
            <left_val>-0.3869450092315674</left_val>
            <right_val>0.8315914869308472</right_val></_>
          <_>
            <!-- node 17 -->
            <feature>
              <rects>
                <_>
                  21 16 3 8 -1.</_>
                <_>
                  22 16 1 8 3.</_></rects>
              <tilted>0</tilted></feature>
            <threshold>0.0132042998448014</threshold>
            <left_node>18</left_node>
            <right_val>-0.8767752051353455</right_val></_>
          <_>
            <!-- node 18 -->
            <feature>
              <rects>
                <_>
                  17 2 6 16 -1.</_>
                <_>
                  17 2 3 16 2.</_></rects>
              <tilted>1</tilted></feature>
            <threshold>-0.0605290383100510</threshold>
            <left_val>-1.</left_val>
            <right_val>0.8768650293350220</right_val></_>
          <_>
            <!-- node 19 -->
            <feature>
              <rects>
                <_>
                  0 8 6 2 -1.</_>
                <_>
                  0 8 3 1 2.</_>
                <_>
                  3 9 3 1 2.</_></rects>
              <tilted>0</tilted></feature>
            <threshold>2.6799771003425121e-003</threshold>
            <left_val>-0.9252839088439941</left_val>
            <right_val>0.7958549857139587</right_val></_></_></trees>
      <stage_threshold>-1.4184939861297607</stage_threshold>
      <parent>3</parent>
      <next>-1</next></_>
    <_>
      <!-- stage 5 -->
      <trees>
        <_>
          <!-- tree 0 -->
          <_>
            <!-- root node -->
            <feature>
              <rects>
                <_>
                  5 12 4 5 -1.</_>
                <_>
                  5 12 2 5 2.</_></rects>
              <tilted>1</tilted></feature>
            <threshold>0.0169401299208403</threshold>
            <left_node>4</left_node>
            <right_node>1</right_node></_>
          <_>
            <!-- node 1 -->
            <feature>
              <rects>
                <_>
                  11 12 12 2 -1.</_>
                <_>
                  15 12 4 2 3.</_></rects>
              <tilted>0</tilted></feature>
            <threshold>-0.0100529296323657</threshold>
            <left_node>2</left_node>
            <right_node>6</right_node></_>
          <_>
            <!-- node 2 -->
            <feature>
              <rects>
                <_>
                  18 14 1 4 -1.</_>
                <_>
                  18 16 1 2 2.</_></rects>
              <tilted>0</tilted></feature>
            <threshold>-2.6100900140590966e-004</threshold>
            <left_node>5</left_node>
            <right_node>3</right_node></_>
          <_>
            <!-- node 3 -->
            <feature>
              <rects>
                <_>
                  11 9 4 4 -1.</_>
                <_>
                  11 9 4 2 2.</_></rects>
              <tilted>1</tilted></feature>
            <threshold>4.3110009282827377e-003</threshold>
            <left_val>-0.7797076702117920</left_val>
            <right_node>7</right_node></_>
          <_>
            <!-- node 4 -->
            <feature>
              <rects>
                <_>
                  4 16 15 6 -1.</_>
                <_>
                  4 19 15 3 2.</_></rects>
              <tilted>0</tilted></feature>
            <threshold>-0.1290961951017380</threshold>
            <left_val>0.8935909271240234</left_val>
            <right_node>12</right_node></_>
          <_>
            <!-- node 5 -->
            <feature>
              <rects>
                <_>
                  0 23 8 1 -1.</_>
                <_>
                  2 23 4 1 2.</_></rects>
              <tilted>0</tilted></feature>
            <threshold>-3.5630520433187485e-003</threshold>
            <left_val>-0.9259313941001892</left_val>
            <right_node>8</right_node></_>
          <_>
            <!-- node 6 -->
            <feature>
              <rects>
                <_>
                  0 10 24 1 -1.</_>
                <_>
                  6 10 12 1 2.</_></rects>
              <tilted>0</tilted></feature>
            <threshold>0.0261287391185761</threshold>
            <left_node>10</left_node>
            <right_node>16</right_node></_>
          <_>
            <!-- node 7 -->
            <feature>
              <rects>
                <_>
                  9 16 2 2 -1.</_>
                <_>
                  10 16 1 2 2.</_></rects>
              <tilted>0</tilted></feature>
            <threshold>1.7742770432960242e-004</threshold>
            <left_node>11</left_node>
            <right_val>-0.6114344000816345</right_val></_>
          <_>
            <!-- node 8 -->
            <feature>
              <rects>
                <_>
                  3 11 18 6 -1.</_>
                <_>
                  3 11 9 3 2.</_>
                <_>
                  12 14 9 3 2.</_></rects>
              <tilted>0</tilted></feature>
            <threshold>0.0240206494927406</threshold>
            <left_node>9</left_node>
            <right_val>-0.6346464753150940</right_val></_>
          <_>
            <!-- node 9 -->
            <feature>
              <rects>
                <_>
                  2 15 2 2 -1.</_>
                <_>
                  2 15 2 1 2.</_></rects>
              <tilted>1</tilted></feature>
            <threshold>4.0400940924882889e-003</threshold>
            <left_node>17</left_node>
            <right_val>-0.6690595746040344</right_val></_>
          <_>
            <!-- node 10 -->
            <feature>
              <rects>
                <_>
                  16 4 4 12 -1.</_>
                <_>
                  16 4 2 6 2.</_>
                <_>
                  18 10 2 6 2.</_></rects>
              <tilted>0</tilted></feature>
            <threshold>0.0201511699706316</threshold>
            <left_node>15</left_node>
            <right_val>0.3347499072551727</right_val></_>
          <_>
            <!-- node 11 -->
            <feature>
              <rects>
                <_>
                  3 11 18 5 -1.</_>
                <_>
                  12 11 9 5 2.</_></rects>
              <tilted>0</tilted></feature>
            <threshold>-0.0269875694066286</threshold>
            <left_val>-0.5153635144233704</left_val>
            <right_node>18</right_node></_>
          <_>
            <!-- node 12 -->
            <feature>
              <rects>
                <_>
                  5 11 9 2 -1.</_>
                <_>
                  8 14 3 2 3.</_></rects>
              <tilted>1</tilted></feature>
            <threshold>-0.0453588813543320</threshold>
            <left_node>13</left_node>
            <right_node>14</right_node></_>
          <_>
            <!-- node 13 -->
            <feature>
              <rects>
                <_>
                  18 0 5 16 -1.</_>
                <_>
                  18 8 5 8 2.</_></rects>
              <tilted>0</tilted></feature>
            <threshold>0.0376327894628048</threshold>
            <left_val>-0.8785635232925415</left_val>
            <right_val>0.5222694873809815</right_val></_>
          <_>
            <!-- node 14 -->
            <feature>
              <rects>
                <_>
                  7 15 14 9 -1.</_>
                <_>
                  7 18 14 3 3.</_></rects>
              <tilted>0</tilted></feature>
            <threshold>-0.1391218006610870</threshold>
            <left_node>19</left_node>
            <right_val>-0.8459401726722717</right_val></_>
          <_>
            <!-- node 15 -->
            <feature>
              <rects>
                <_>
                  19 3 2 8 -1.</_>
                <_>
                  19 3 1 4 2.</_>
                <_>
                  20 7 1 4 2.</_></rects>
              <tilted>0</tilted></feature>
            <threshold>7.5410800054669380e-003</threshold>
            <left_val>-0.7108576297760010</left_val>
            <right_val>0.5269820094108582</right_val></_>
          <_>
            <!-- node 16 -->
            <feature>
              <rects>
                <_>
                  11 3 4 6 -1.</_>
                <_>
                  9 5 4 2 3.</_></rects>
              <tilted>1</tilted></feature>
            <threshold>4.1423970833420753e-003</threshold>
            <left_val>0.9418948888778687</left_val>
            <right_val>-0.9999982714653015</right_val></_>
          <_>
            <!-- node 17 -->
            <feature>
              <rects>
                <_>
                  10 0 14 24 -1.</_>
                <_>
                  17 0 7 24 2.</_></rects>
              <tilted>0</tilted></feature>
            <threshold>0.3642185032367706</threshold>
            <left_val>0.8941802978515625</left_val>
            <right_val>-0.8100383281707764</right_val></_>
          <_>
            <!-- node 18 -->
            <feature>
              <rects>
                <_>
                  0 16 1 8 -1.</_>
                <_>
                  0 20 1 4 2.</_></rects>
              <tilted>0</tilted></feature>
            <threshold>-6.9539858959615231e-003</threshold>
            <left_val>-0.9999997019767761</left_val>
            <right_val>0.8153774142265320</right_val></_>
          <_>
            <!-- node 19 -->
            <feature>
              <rects>
                <_>
                  8 11 14 2 -1.</_>
                <_>
                  8 12 14 1 2.</_></rects>
              <tilted>0</tilted></feature>
            <threshold>-5.2405460737645626e-003</threshold>
            <left_val>0.1990731954574585</left_val>
            <right_val>-0.6308171153068543</right_val></_></_>
        <_>
          <!-- tree 1 -->
          <_>
            <!-- root node -->
            <feature>
              <rects>
                <_>
                  12 16 2 1 -1.</_>
                <_>
                  13 16 1 1 2.</_></rects>
              <tilted>0</tilted></feature>
            <threshold>1.3443549687508494e-004</threshold>
            <left_node>1</left_node>
            <right_node>11</right_node></_>
          <_>
            <!-- node 1 -->
            <feature>
              <rects>
                <_>
                  17 0 7 10 -1.</_>
                <_>
                  17 5 7 5 2.</_></rects>
              <tilted>0</tilted></feature>
            <threshold>0.0149473799392581</threshold>
            <left_node>3</left_node>
            <right_node>2</right_node></_>
          <_>
            <!-- node 2 -->
            <feature>
              <rects>
                <_>
                  3 18 1 2 -1.</_>
                <_>
                  3 18 1 1 2.</_></rects>
              <tilted>1</tilted></feature>
            <threshold>1.0230160551145673e-003</threshold>
            <left_node>5</left_node>
            <right_val>-0.8364437222480774</right_val></_>
          <_>
            <!-- node 3 -->
            <feature>
              <rects>
                <_>
                  3 11 15 3 -1.</_>
                <_>
                  3 12 15 1 3.</_></rects>
              <tilted>0</tilted></feature>
            <threshold>-8.9554488658905029e-003</threshold>
            <left_node>9</left_node>
            <right_node>4</right_node></_>
          <_>
            <!-- node 4 -->
            <feature>
              <rects>
                <_>
                  6 9 9 4 -1.</_>
                <_>
                  6 10 9 2 2.</_></rects>
              <tilted>0</tilted></feature>
            <threshold>-5.8349929749965668e-003</threshold>
            <left_node>7</left_node>
            <right_node>17</right_node></_>
          <_>
            <!-- node 5 -->
            <feature>
              <rects>
                <_>
                  2 11 20 3 -1.</_>
                <_>
                  12 11 10 3 2.</_></rects>
              <tilted>0</tilted></feature>
            <threshold>0.0315625704824924</threshold>
            <left_node>6</left_node>
            <right_val>-0.6327943205833435</right_val></_>
          <_>
            <!-- node 6 -->
            <feature>
              <rects>
                <_>
                  4 9 12 8 -1.</_>
                <_>
                  4 9 6 4 2.</_>
                <_>
                  10 13 6 4 2.</_></rects>
              <tilted>0</tilted></feature>
            <threshold>0.0252304002642632</threshold>
            <left_node>8</left_node>
            <right_val>-0.5492240786552429</right_val></_>
          <_>
            <!-- node 7 -->
            <feature>
              <rects>
                <_>
                  11 6 2 14 -1.</_>
                <_>
                  11 13 2 7 2.</_></rects>
              <tilted>0</tilted></feature>
            <threshold>-6.5474328584969044e-003</threshold>
            <left_node>16</left_node>
            <right_val>-0.9540972709655762</right_val></_>
          <_>
            <!-- node 8 -->
            <feature>
              <rects>
                <_>
                  5 8 12 8 -1.</_>
                <_>
                  5 8 6 4 2.</_>
                <_>
                  11 12 6 4 2.</_></rects>
              <tilted>0</tilted></feature>
            <threshold>-0.0150787895545363</threshold>
            <left_node>14</left_node>
            <right_node>10</right_node></_>
          <_>
            <!-- node 9 -->
            <feature>
              <rects>
                <_>
                  3 8 6 4 -1.</_>
                <_>
                  3 8 3 2 2.</_>
                <_>
                  6 10 3 2 2.</_></rects>
              <tilted>0</tilted></feature>
            <threshold>1.1756790336221457e-003</threshold>
            <left_node>12</left_node>
            <right_node>19</right_node></_>
          <_>
            <!-- node 10 -->
            <feature>
              <rects>
                <_>
                  6 7 2 10 -1.</_>
                <_>
                  6 12 2 5 2.</_></rects>
              <tilted>0</tilted></feature>
            <threshold>-0.0321150608360767</threshold>
            <left_val>-0.9244797825813294</left_val>
            <right_node>15</right_node></_>
          <_>
            <!-- node 11 -->
            <feature>
              <rects>
                <_>
                  12 0 9 10 -1.</_>
                <_>
                  15 0 3 10 3.</_></rects>
              <tilted>0</tilted></feature>
            <threshold>-0.0197010394185781</threshold>
            <left_node>13</left_node>
            <right_val>-0.8246678113937378</right_val></_>
          <_>
            <!-- node 12 -->
            <feature>
              <rects>
                <_>
                  18 10 6 4 -1.</_>
                <_>
                  21 10 3 4 2.</_></rects>
              <tilted>0</tilted></feature>
            <threshold>-7.2707990184426308e-003</threshold>
            <left_val>0.6836243867874146</left_val>
            <right_val>-0.6464416980743408</right_val></_>
          <_>
            <!-- node 13 -->
            <feature>
              <rects>
                <_>
                  9 15 6 1 -1.</_>
                <_>
                  11 15 2 1 3.</_></rects>
              <tilted>0</tilted></feature>
            <threshold>-4.6202671364881098e-004</threshold>
            <left_val>-0.9080597758293152</left_val>
            <right_node>18</right_node></_>
          <_>
            <!-- node 14 -->
            <feature>
              <rects>
                <_>
                  4 14 15 5 -1.</_>
                <_>
                  9 14 5 5 3.</_></rects>
              <tilted>0</tilted></feature>
            <threshold>-0.0439933203160763</threshold>
